4 784 64 64 6 1
2.02901 0.706539 1.44326 1.48204 1.85725 0.525571 0.87864 1.70435 0.579408 1.04008 0.518106 -0.391538 -0.644151 -0.246875 0.354225 -0.111138 -0.547868 -0.525474 -1.61693 -0.679891 -1.73127 -1.55426 -2.13332 -1.03474 -1.73243 -0.971566 -1.91122 -0.581641 1.68972 0.45807 1.42861 2.01747 1.37294 0.978245 1.52429 0.81024 0.250846 0.983524 -1.61642 -1.59464 -1.80642 -1.1015 -1.53028 -0.467011 -1.60753 -1.44592 -0.529583 -0.298091 -1.92988 0.0382455 -0.671673 -2.01539 -2.39804 -1.09059 -0.639993 -0.70679 -0.0158116 0.962313 2.1089 1.13094 0.924458 2.50005 1.63771 0.743781 -1.43674 -0.8152 -1.7108 -1.57386 -1.7332 -1.08465 -1.02751 -1.33615 -0.178183 0.999366 0.478986 0.00815144 -0.907331 -0.0410693 -0.145539 -0.7362 -0.380266 -2.38421 -1.35979 0.418246 1.8667 1.72507 1.7607 3.19046 1.65619 1.62242 1.54269 -0.023901 -0.667664 0.0241651 -1.67531 -1.06207 -1.6173 0.409244 0.600013 1.34632 0.724867 0.255329 1.51068 1.37892 -0.18723 0.9467 0.22485 -0.581393 -0.131316 -1.47548 -0.84978 -1.20616 1.27391 1.44253 1.62693 1.72555 1.45004 0.463712 -0.940866 0.0945341 -1.92052 -1.28884 -1.56578 -1.88386 -0.774405 0.722819 0.83471 0.330763 1.62272 1.2849 1.30282 0.976479 1.39559 0.41781 -0.708431 0.153053 -1.3994 -0.575045 -2.19224 -0.786909 0.46213 2.85522 0.80037 0.828095 -0.700265 -1.28753 0.114793 -0.458481 -0.937309 -0.1584 -1.76454 -1.7087 -2.54718 -1.16061 0.080457 0.146379 0.707498 1.32077 2.50204 2.96897 1.88058 1.73751 -0.854995 -0.980503 0.44225 -1.51221 -0.468773 -1.83655 2.16948 1.23919 2.77562 0.05561 -0.992002 0.627272 -0.09588 -1.2662 -1.59792 -1.11692 -0.545 -0.640327 -1.48491 0.21782 0.500484 1.07308 2.34575 1.85997 3.28899 3.63372 1.81067 2.99258 1.65439 1.47355 0.672924 0.170427 -1.8722 -0.172546 1.20231 2.3856 2.11671 1.14813 0.354625 -0.644069 0.101438 0.105342 -0.848766 -1.10425 -1.73784 -0.400096 -0.298793 -1.50589 -0.240971 0.142898 1.89667 1.99872 2.58521 1.45138 1.01406 0.715416 0.448914 1.18089 -0.351376 0.816239 0.0143895 0.580665 -0.12203 0.66938 0.934579 -0.918759 -1.37019 -1.0238 -0.302903 -1.42435 -2.53345 -1.33342 -1.70105 -2.39185 -1.24419 -0.49516 0.663014 0.647205 1.72872 1.42161 1.29352 0.76782 1.34706 0.126209 1.15895 0.521452 0.351012 1.29732 1.29653 0.299695 0.243311 -0.382977 0.0920874 -0.477887 -0.912828 -1.28798 -1.03441 -3.04833 -2.03644 -1.91823 -1.51515 -2.24036 -1.64713 -1.60605 0.0543213 2.111 1.87058 0.437765 0.743131 1.27397 1.43537 0.894822 1.32189 0.987476 1.3596 0.810912 0.932654 -0.123521 1.36742 -0.455657 0.533959 -1.16294 -2.21223 -1.98568 -1.20028 -1.51446 -1.92381 -1.39885 -1.92864 -0.81461 -1.46613 0.509621 1.8559 1.97878 1.51884 0.281104 1.83361 1.56802 1.27775 2.03655 2.17574 2.85404 1.51487 1.71659 0.964052 0.221782 0.967424 0.569187 0.146411 0.135686 -1.38411 -1.93797 -2.54769 -1.7652 -1.12515 -1.13727 -0.287341 -1.12919 -0.272446 0.574783 0.704432 0.261914 0.565142 -0.0410522 0.336459 1.37511 1.48582 2.57363 2.64597 2.5665 2.6674 2.72682 1.90995 0.41704 -0.162911 0.903281 0.55356 -1.45797 -2.33831 -2.54157 -2.90478 -1.62059 -0.596231 -0.000786927 -0.455649 -1.34129 -0.416058 1.51961 1.27106 -0.0339642 0.477245 0.939266 0.870428 1.01872 2.80265 2.03318 2.03687 2.03827 2.35877 2.22351 2.70337 0.775784 -0.870292 0.255533 0.55947 -1.07704 -0.492058 -1.84986 -1.28764 -2.04454 -0.479008 -0.862747 0.459892 0.419053 -0.869168 -0.670827 1.0214 0.214832 -0.845877 0.602834 2.199 2.08245 1.20972 1.69034 3.06936 1.84183 1.11444 1.77153 1.76833 1.40691 0.196635 0.0958303 -0.54948 -2.26384 -1.44492 -1.26851 -1.75702 -1.14203 -1.12142 0.626916 0.391033 0.360304 0.446081 0.379438 0.311873 0.657219 0.444656 0.176722 1.34522 1.25799 1.9479 2.04851 1.67131 3.37034 1.00886 1.03854 3.2707 0.471598 -0.350818 0.148444 0.898519 -1.95278 -1.79428 -1.20258 -2.37815 -0.280175 -0.0485336 -0.64726 -0.0795943 1.59185 1.33367 2.24363 0.786035 0.466903 0.591399 1.87669 0.478102 1.53777 2.27473 2.45132 1.48999 2.25318 1.52155 1.94872 1.63593 0.785544 -0.282674 -0.572051 -0.0487881 -2.46573 -2.05081 -2.21081 -2.46292 -0.944122 -1.35081 0.121221 0.798135 2.01934 1.35808 2.58308 2.06662 0.943501 1.45546 0.702709 1.35974 2.20993 1.85519 2.35664 1.97846 2.18709 1.22947 2.07818 2.24808 1.13832 -0.993463 -1.28448 -1.59966 -1.16824 -3.029 -2.37675 -2.07154 -1.92669 -2.37381 -1.56532 -0.228398 -0.540298 0.299864 1.81379 0.687482 0.486371 1.15603 2.1458 1.73502 0.691265 1.76822 1.14703 0.913966 2.16918 2.01947 1.29833 2.03459 -0.118116 -0.404883 -0.270364 -0.320787 -1.00067 -1.82083 -1.69761 -2.68351 -1.42243 -1.7617 0.152816 0.192781 0.20204 1.46169 1.81651 1.79476 1.46632 1.51864 2.34621 2.34046 0.519606 1.96261 2.13654 2.24176 3.12561 2.0231 1.2061 0.108011 0.49258 -0.225451 -1.30595 -0.27821 -0.0824649 -0.723401 -1.40344 -1.69474 -1.16376 -0.673182 -0.260338 -0.42188 -1.13314 -0.106167 -0.824075 1.00774 0.792933 1.49015 0.593805 0.0707247 0.939123 1.13456 1.09121 2.72301 2.09251 1.30502 0.604685 -0.235868 0.0473759 -0.288887 -0.179942 -1.28486 -0.100887 -0.906605 -0.451605 -0.705472 -1.06523 -0.609042 0.18245 -2.28112 -2.00579 -1.09684 -0.698496 -0.765347 -0.633247 0.437188 1.26932 1.27825 0.932936 1.04746 2.95997 3.7233 3.10381 1.13289 0.694521 -0.441579 0.114569 0.383421 0.710126 1.16658 -0.418945 -0.20627 0.112998 -1.25911 -0.670178 -0.289835 -0.277842 -0.278371 -1.87764 -1.53075 -0.625229 -1.45294 -1.28045 -0.942255 0.273736 1.06502 0.319433 1.32906 1.9926 2.66455 1.97205 -0.68789 -0.813177 0.24766 -0.532706 0.722431 0.305144 1.38485 0.441642 -0.451315 -0.900008 -2.09749 -0.472768 -0.646281 -0.868867 -1.56067 -1.7824 -2.47711 0.272095 -0.351406 0.00662714 0.475433 1.82567 0.782678 1.39658 1.87698 2.8296 1.68148 1.61204 -0.437446 -1.17928 0.642674 0.0103341 1.75948 1.70542 1.42502 0.196681 0.0792714 -1.93915 -0.720558 -1.21193 -1.41801 -0.160573 -1.46953 -1.66462 -1.81054 -0.798378 0.177602 -1.24305 -0.888484 0.342129 1.77176 -0.0441309 0.669056 0.379648 0.155876 0.669585 0.937819 -1.02864 0.732797 -0.571598 0.775037 1.55722 1.98908 0.574177 -0.698827 -0.314017 -1.22717 -2.44975 -3.15696 -1.63139 -0.713912 -0.870983 -1.30524 0.564701 -1.24458 -0.387949 -0.738633 0.641989 0.812179 -0.0503168 1.28151 0.509923 -0.383261 -1.01322 0.863471 0.806131 0.85259 0.854545 1.70934 1.44987 2.55877 1.12234 0.808556 -1.02413 -1.08373 -2.83345 -3.23716 -2.71032 -2.50374 -3.30806 -2.07435 -2.65103 -0.791287 -0.575144 -1.98257 0.506164 -0.106099 -0.679349 0.24731 -0.592558 -0.16956 0.113703 1.28334 1.31853 0.891127 0.729892 1.35367 1.20472 1.14373 1.59491 1.19873 -0.222721 0.77682 -1.15566 -2.22104 -1.96934 -3.0587 -4.13543 -3.10095 -2.7761 -2.81976 -2.95484 -1.89038 -1.55603 -0.949946 0.43729 -0.485135 0.438273 -0.622443 1.57104 1.91445 1.72528 0.776369 0.958047 1.35493 1.96854 0.422742 0.279729 -0.00579255 0.949491 1.49494 0.582493 -0.244842 -0.328154 -0.820006 -2.15236 -2.59827 -2.48666 -3.08011 -2.89515 -2.17654 -0.41578 -0.48325 0.851978 1.47265 1.0815 1.05355 0.67307 1.23477 1.89001 2.35405 0.759234 -2.36683 -0.5789 0.0700162 -0.0585409 -1.43447 -0.142603 -0.311507 -2.75509 -2.62609 -1.8695 -1.53448 -2.81576 -0.736138 -0.326126 -0.85104 -0.19735 -1.32089 -0.0279089 0.00938242 -2.15012 -1.61179 -2.1991 -0.963274 -1.67502 -0.208087 -1.06188 -0.475391 1.55422 1.72989 -0.664475 1.01712 0.341456 -1.07443 -0.394361 -0.874959 -1.63872 -0.780037 -0.97961 -0.565537 -1.22136 -0.91831 -0.556447 -1.74383 -0.211065 -0.686652 1.23094 0.917028 0.0200924 0.652143 -0.550526 -1.434 -0.372151 -0.54767 -2.10877 -1.04601 0.751577 0.687514 -0.560247 -0.446573 -1.33135 -0.383564 -0.542644 -1.92138 -0.740951 -1.42659 -0.589081 -1.27201 0.262481 0.541764 -0.873998 0.35867 1.46307 -0.283024 0.481469 1.2285 0.0160426 0.396621 -1.02012 -0.126392 0.84702 0.382016 -0.0673355 -0.245318 -0.195259 1.08186 -0.128504 -0.137853 -0.6642 0.163509 -1.11732 -0.840644 -1.7961 -0.906272 -1.1993 -0.865161 -0.594885 -0.16554 -0.141802 0.29684 1.65596 0.875642 0.949349 0.735878 0.574662 -0.0871834 -1.06731 1.12499 1.56534 0.151761 -0.517357 -0.067892 1.20178 0.903214 0.00596354 -0.985655 -0.00543575 -0.933376 -1.2707 -0.0954782 -1.26969 -1.06767 -1.23201 -1.03517 -0.212931 1.0521 2.03378 0.842889 2.63767 2.27476 2.0002 0.734929 0.170167 0.163074 0.410582 1.37614 1.2749 1.81372 1.49186 2.15347 2.19338 1.40615 -1.08325 -0.389596 -0.127815 0.224878 0.0338462 -0.956511 -1.01734 -0.136557 -1.39216 -0.950509 0.623703 1.28017 1.43258 2.33149 2.20066 1.18681 1.35116 1.17893 -0.342333 0.47744 0.256552 0.324859 0.914802 0.967898 1.03371 1.39534 0.627631 2.09132 0.025091 0.221026 0.588906 -0.212208 -0.56032 -1.04525 -1.02203 -1.32364 -0.400808 0.0312254 0.250263 1.383 0.872507 1.69656 1.83606 1.1966 -0.660106 -0.0781136 -0.854037 -0.863741 0.897158 -0.00656927 1.58537 1.42003 2.01193 1.46781 1.52453 2.71515 1.14462 -1.08422 1.22979 -0.225609 0.845936 -0.657432 -0.0824433 -0.439679 0.924794 1.15186 0.988258 0.777734 1.74928 3.50171 1.71648 1.86155 0.996352 0.25221 0.402057 0.827717 1.63303 1.30698 1.51146 1.50476 0.976824 2.25766 2.71155 2.7315 0.128955 -0.445087 0.838101 0.0894285 0.297522 -0.709926 0.207016 0.23243 0.431116 -0.743513 0.3852 0.768316 2.28084 1.53922 0.407318 0.153044 0.211893 -0.504682 0.850071 0.975337 1.15745 0.581388 -0.161561 0.333068 0.763314 2.30807 4.28271 1.10747 0.589678 0.209245 1.63034 0.537376 0.127334 -1.40379 -0.0839176 1.12401 1.64109 0.170199 -0.906305 -1.00265 -0.426616 1.03709 1.49662 -0.719403 -0.32893 -1.07557 -0.553059 1.42654 0.442828 -0.28292 0.13817 0.326353 1.39161 2.51904 3.77432 2.12569 -0.27356 1.59613 1.94216 -0.194418 0.995061 -1.32541 -0.398889 -0.0976243 0.446272 -0.743766 -1.18757 0.936531 1.11507 -1.30507 0.345163 -0.486466 -2.4946 -0.86197 -0.145003 -0.0124593 -1.52535 -0.879339 -1.26838 -0.429139 0.420208 2.55044 1.88369 2.10913 0.677911 2.35082 1.06396 1.07373 0.011286 0.0139157 0.770944 0.556918 -0.989753 -2.43898 0.366213 -0.501657 0.326959 -1.74959 -2.31368 -1.92804 -3.13761 -3.19359 -1.82111 -2.74598 -2.92452 -1.34209 -1.50247 -2.57283 1.79747 0.918084 2.13361 0.838083 1.20474 1.45685 1.87925 0.504428 -1.01387 -3.01817 -0.354079 -1.71913 -3.45439 -2.73125 -1.39081 -2.14119 -2.06197 -1.31595 -2.03486 -3.34237 -1.93934 -3.64573 -4.08823 -3.97035 -2.56946 -1.33764 -2.38701 -2.00215 1.07711 0.970294 0.948251 1.76645 1.01549 -0.0525944 1.29419 0.905551 -0.490344 -1.93742 -0.560875 -2.53204 -2.63964 -1.79519 -1.97442 -1.74617 -2.35489 -2.21095 -2.87158 -2.63047 -2.67019 -2.59271 -4.43522 -3.92167 -2.36866 -2.11871 -2.02777 -1.18994 -0.487762 -0.553605 0.313743 2.19071 0.92918 1.05755 -0.241969 -0.606067 -0.564427 -0.679218 -0.812767 -2.77941 -2.42531 -1.82144 -1.19736 -2.35912 -1.15427 -0.0683641 -1.12691 -2.18529 -2.49203 -2.58809 -3.13281 -2.19046 -1.5982 -1.28074 -0.563608 -0.991932 0.258775 1.28673 1.69137 2.07896 1.87853 1.15208 -0.2718 0.604365 -0.727806 -0.834596 -0.92649 -0.650339 -1.24593 -1.02833 -1.06889 0.307169 -0.503346 -0.376624 -1.92115 -0.708105 -1.53614 -0.421018 -1.23364 -0.458239 -1.99856 -0.989623 -1.82608 -0.98967 -1.40565 1.29617 1.56303 1.71406 1.35414 -0.200347 0.127999 1.23833 0.524787 -0.961955 -1.87638 -1.84863 -1.70849 -2.38517 -1.10911 0.137437 -0.21732 -1.12569 0.123868 0.0954913 -0.445032 -0.038508 0.0856186 -0.601626 -0.270216 -1.54927 -1.87088 -0.305014 0.734858 0.699976 1.25284 2.01709 -0.301111 1.47906 1.39811 1.05272 0.42692 -1.42685 -0.602617 -0.685705 -2.48435 -2.81765 -1.02832 -0.573919 -0.66722 -0.285024 -0.793758 -0.230346 -0.686806 0.256405 -0.149576 -0.458277 0.178882 -0.371401 -0.360721 -1.10688 0.897796 2.37736 2.86581 0.709306 0.876969 0.914305 1.50183 -0.171239 -1.1738 -1.5321 -2.02043 -2.52612 -2.77243 -0.403136 1.49584 -0.32701 1.02587 -0.472409 0.528442 0.814591 0.124327 1.20427 0.899523 2.5521 1.53962 0.404683 -0.170529 1.37252 0.887262 2.57577 3.31704 1.58236 -0.162445 2.03706 0.941167 0.553578 0.283187 -2.09231 -1.46793 -2.77897 -1.12919 0.0678214 0.0535823 -0.61925 0.512796 0.183588 -0.0193541 -0.907238 0.204012 1.91806 2.47333 2.46531 1.71214 0.0593178 0.702517 2.06641 1.52839 2.44193 2.34808 1.33174 -0.152262 0.987646 1.15651 0.926006 -1.9246 -1.23896 -1.93037 -2.72943 -1.97431 1.14217 0.152846 2.16918 1.95326 1.36197 0.1486 0.863366 1.75127 2.66963 3.05045 2.03075 1.14251 0.578167 0.3828 2.61897 1.23963 2.23299 1.66205 0.609632 -0.00924519 0.077137 -0.440544 0.849178 -1.42769 -1.59119 -0.744681 -1.05722 -0.602267 1.51743 1.41134 0.85627 2.02877 1.97545 1.04815 -0.122189 3.08456 2.41575 1.57609 -0.365525 1.01905 -0.539051 0.510365 0.642367 0.687744 1.16201 1.22365 -0.520503 0.276795 -0.328619 -0.265351 -1.55473 -1.79505 -1.68965 0.220989 -0.399282 -1.64028 -0.0306487 0.437844 1.06985 2.128 2.57689 0.962766 2.03335 1.87267 1.00139 -0.300527 -0.835314 1.12554 -0.795497 0.0790198 1.31281 1.16005 0.971913 0.894411 0.234537 0.0417768 -0.0272235 0.26031 -1.06382 -0.182656 -0.135898 -1.00452 -0.808353 -0.585169 -1.30131 -0.673843 1.24037 1.99016 1.8296 1.87345 2.41245 1.8401 0.654854 0.982047 -0.391326 0.308949 0.988406 1.05916 2.6001 1.54097 0.599719 0.620628 1.05179 -0.467018 -0.666097 -0.626411 -1.04449 -1.7882 -2.03476 -1.05574 -1.35161 -1.42864 -0.963857 0.0540841 0.991318 0.86576 1.00549 0.768979 0.596486 -0.00885518 0.519768 -0.6318 1.54306 0.781114 -0.0514951 1.8329 0.68333 0.138339 -1.54509 -0.966806 0.386571 -0.997264 -2.39628 -0.537105 -1.79432 -1.43528 -1.75212 -1.34914 -0.799628 -1.14879 -0.155216 0.775862 0.643019 -0.905245 -0.567993 -0.30889 0.700404 0.609247 0.271412 0.762785 2.73391 1.29529 0.962912 1.49739 0.418472 -1.282 -0.933658 -0.464537 -0.520509 -1.90497 -1.79073 -0.4738 -1.58678 -2.38045 -1.48042 -0.327661 2.13115 1.40905 0.746193 1.61544 2.06332 1.24648 0.872148 1.05798 1.66642 2.09732 1.88103 1.75861 1.6138 2.70942 1.10534 -1.16984 -1.21634 -0.154131 -0.1943 -1.14879 -1.91946 -1.77186 -2.20623 -3.09868 -2.49874 -3.06734 -1.70023 -1.4446 -0.653623 -0.205746 -0.581028 -0.155623 1.78812 0.322271 1.72564 1.49831 1.65522 0.191391 -0.544331 0.470024 0.565705 -0.113553 -1.81136 -2.42738 -1.00516 -0.542231 -1.72968 -1.34007 -0.883862 -2.3532 2.94814 1.44253 2.40605 1.46074 0.239299 1.31695 0.394028 1.10176 0.0684387 0.754287 0.0321444 0.269297 -1.04075 -0.536893 -1.22396 -1.14296 -0.51835 -0.680269 -0.00866452 0.0961074 0.628115 -0.433972 1.69126 2.07348 1.09845 2.79903 3.6802 3.3514 2.33613 2.11563 1.19036 1.37527 -0.0275251 -1.1371 -0.853233 -0.407415 -0.161267 -0.261531 -0.824285 -1.40267 -1.07694 -2.21916 -2.06948 -0.80304 -1.17398 -2.07049 -0.832031 -0.743861 -1.67122 -1.39863 -0.747251 -0.556017 0.257246 1.07043 3.69996 3.07003 3.12909 2.32175 1.13525 1.61961 -0.608779 0.33442 0.444726 0.232433 0.356857 -0.912903 -0.579597 0.0978949 -1.50046 -1.80438 -1.65819 -0.80315 -2.04085 -1.54327 -1.10249 -0.310306 -0.684041 -0.653989 0.530188 1.28569 1.19183 0.717593 3.29087 3.9471 2.18272 2.50946 2.18144 1.6964 -0.00572954 -0.898615 0.517875 0.265964 -0.961135 0.510891 -0.111098 -1.08763 -1.38518 0.00544682 0.12076 -1.11698 0.177388 -0.895768 -1.01644 -1.04907 -0.150644 0.0314102 -1.04677 -0.0028285 0.807703 2.60104 1.69823 4.18035 3.55249 1.18749 1.85681 0.385306 1.22265 -0.408418 -1.34443 -0.184179 0.576091 0.869474 -0.560912 1.05768 0.182725 0.117208 1.39335 1.1567 0.639252 1.92695 0.15838 0.109022 -0.313715 -0.590719 -0.206785 1.20362 0.490271 1.66853 1.399 2.86092 2.57895 1.80902 1.36472 0.984036 0.63531 0.19714 -0.310731 0.129612 -0.346986 0.494417 -0.501492 -0.215382 0.743154 0.245768 2.16473 0.984206 1.98922 2.45939 2.10901 1.98037 1.49539 1.11973 -0.344585 0.185117 0.604178 2.11556 1.30752 2.40412 2.30874 1.76762 2.18987 1.91675 0.859475 -0.242723 -1.39997 -0.194004 0.277178 1.1773 1.80458 2.07687 0.994447 2.52011 2.69711 2.72798 1.1343 2.43983 2.54723 2.09964 1.67056 1.47077 1.20835 1.19128 1.46462 2.34096 2.76733 3.71634 3.27017 2.90902 3.10379 2.36336 -0.624859 -1.22459 -0.341886 0.760842 -0.83009 1.07537 0.57763 1.7731 1.56167 1.31693 2.26353 2.83118 1.35159 1.58011 2.0566 1.2041 0.869582 0.997073 1.67374 1.5032 0.278839 1.55729 2.53363 4.23214 3.23345 1.84797 2.11422 0.765833 -0.840922 -1.29858 -1.05059 -0.559946 0.266472 1.21292 0.21737 1.43511 1.53539 1.56007 1.84538 3.11301 2.03583 2.24361 1.83737 1.19826 2.01454 0.175685 1.28802 2.23076 2.03708 2.64117 3.60225 4.49005 2.43208 1.73572 1.92212 1.70467 0.0309609 0.215322 -1.16563 0.158182 -0.781514 0.0792489 1.68651 1.68406 0.632096 1.15817 2.07457 2.52635 1.96856 2.18525 1.33664 1.78261 0.589211 0.120241 0.713454 2.38053 1.49577 3.63295 4.05571 4.58713 2.75336 2.57955 2.03257 1.26287 0.604599 0.232077 -0.728234 -0.647603 0.212858 0.58416 0.0569104 2.21203 2.22596 2.67182 2.29142 2.88615 0.776567 0.427494 1.04353 0.311418 0.884676 1.54445 0.0741067 1.68908 3.24842 2.7511 3.65741 3.26474 2.09004 1.92264 2.96793 1.14765 0.0841077 -1.34508 -1.61996 -0.804263 0.483999 0.168474 1.16428 1.30361 -0.146129 1.63398 1.67702 1.79771 1.04551 -0.279772 0.461196 0.190251 -0.0363186 -0.160291 -0.231485 2.30715 2.13935 2.92534 3.99904 3.39758 2.73433 3.569 1.70807 0.994071 -1.26086 -2.16955 -2.37995 -0.710124 -1.91724 -1.8911 -1.89705 -2.00307 -1.28484 -2.17325 -0.0915077 -0.855041 -0.764109 -1.39376 -1.30618 -0.989138 0.479877 0.293401 0.42525 0.769633 2.82273 3.34592 3.54721 3.06777 3.16506 3.41808 1.3731 -0.199878 0.440028 -1.56503 -1.71671 -2.73508 -2.17628 -1.82577 -1.34484 -1.56816 -1.06464 -1.92663 -0.396728 -1.18798 -1.9355 -1.13385 -2.30218 -2.26364 -1.18369 0.880315 1.07596 0.383358 1.81889 2.55808 4.1573 3.28497 2.87811 3.33368 1.06774 -0.198522 0.257015 -1.94482 -2.47775 -0.934212 -1.58189 -1.44044 -0.659478 -1.77095 -0.675368 0.717509 0.503928 -0.732199 0.806215 -0.281864 -0.442275 -1.94677 -1.76897 0.497116 -0.628224 -0.0809167 2.11435 3.98495 4.09593 3.41583 3.69273 1.74569 0.936118 0.000572371 -1.23964 -1.78657 -1.45698 -2.171 -1.34778 -0.436578 -0.78508 0.198552 1.27984 0.78211 1.35112 2.32244 2.33694 0.341469 -0.366466 0.620304 -0.0997833 0.577743 -0.61819 0.94442 1.71662 2.33887 3.09885 4.27057 2.29161 2.91115 1.88063 -0.432711 -1.53929 -0.865119 -1.64899 -2.13959 -1.73263 -0.490546 1.25987 2.47963 3.14863 3.16299 3.69224 2.44686 3.37355 1.7211 2.68192 1.1779 0.250843 -0.429773 0.445027 1.02735 1.93295 2.18595 3.13964 4.21277 3.65191 2.7366 1.04916 -0.325578 -0.613103 -1.10316 -2.34755 -1.18137 -0.265987 1.24884 0.891792 2.81841 3.1647 3.02352 2.7268 2.85716 2.5101 1.7665 1.79221 2.12974 0.541211 0.880261 0.824522 0.491822 1.44952 1.00124 1.98807 3.77568 3.0061 2.26939 2.77719 0.423092 -1.38124 -2.49962 -1.8257 -0.666903 0.28385 0.7284 1.85828 2.39541 2.0587 3.56429 2.86789 3.8878 3.02245 3.10626 1.94546 2.59259 2.50418 2.22806 1.67354 2.10029 1.60205 1.97546 2.72734 3.04435 2.4895 1.81625 1.38309 1.03106 -0.254428 -1.65775 -2.60711 -2.28254 -0.287352 0.613466 0.581594 2.34276 1.67655 3.59445 2.5599 2.72181 3.40747 2.76372 1.55664 1.08582 0.764765 0.96257 1.51656 1.5825 0.835446 2.14925 3.31362 4.13893 3.38506 1.25773 1.98869 -0.547608 -0.852893 -1.63664 -0.996095 -1.63214 0.489336 -0.158926 1.91628 2.53556 2.90313 3.64465 2.73873 3.59015 3.37621 2.4095 3.08328 1.12464 1.71314 1.41161 -0.0252773 1.05523 -0.146179 2.13824 2.62622 3.28363 2.6221 2.03494 0.84634 -0.28318 -0.479377 -2.22879 -1.88554 -1.51335 0.217538 0.452504 2.02268 2.31778 2.25445 2.66774 2.92257 3.9236 3.98477 2.36543 2.06116 1.58926 1.20768 -0.0743415 0.972984 0.249901 1.52241 1.95154 1.50592 2.48884 2.98369 2.5421 1.20575 1.04375 -1.38222 -1.16483 -1.88603 0.643031 1.30204 1.10749 1.08156 2.22215 2.58905 3.26239 2.40111 3.25969 3.34117 2.0606 1.90894 1.78569 0.985479 1.21657 -0.0705469 0.0318904 1.69941 2.35448 2.6536 3.87387 2.49073 2.02497 0.90925 0.41047 -1.69299 -2.79818 -0.780561 0.0603359 0.665682 -0.2935 1.18032 1.76267 1.28435 2.54604 1.93091 0.892511 1.61487 1.45525 1.24259 0.205425 -0.821595 -0.366606 -0.658694 0.980844 2.19385 1.45923 3.60599 4.24242 3.54165 1.15788 -0.272604 -0.701474 -2.4539 -1.63039 -2.1829 -0.795331 0.0499454 -1.08984 -0.388061 0.974809 -0.100992 1.72726 1.19703 1.06623 1.20462 -0.587051 0.230366 -0.34295 0.224976 -0.639002 0.419202 1.39963 1.23416 2.66077 2.79697 3.55769 1.55381 0.378957 -1.32007 -1.84019 -3.11006 -2.51051 -1.95247 -2.4691 -1.92201 -0.460692 -0.407856 -0.823101 0.904874 1.01865 1.10039 1.02692 0.408878 -0.271037 -0.439559 -0.455941 -0.685674 -1.54748 0.567191 0.0764063 1.06498 1.96249 1.79079 2.40816 1.50927 -0.0205069 -1.68071 -1.68147 -3.17003 -2.34695 -3.29564 -2.408 -2.60048 -1.39259 -1.34634 -1.12813 -0.857278 -1.22019 -0.200967 -1.19125 -1.92279 -0.875089 -1.65847 -0.36361 -1.29833 -0.080852 -0.436524 1.44875 2.09728 1.03696 1.83887 3.19314 -0.568345 -0.500834 -1.00587 -0.894296 -1.57195 -2.4795 -1.32425 -0.41544 -0.328716 -0.526377 -0.97826 -1.44026 -0.622423 0.601239 0.246719 0.767145 -0.906494 -0.232314 -0.319216 -0.308562 -0.328917 0.676854 0.116451 1.39293 1.69758 2.04888 2.28259 3.05591 -4.68042 -0.927534 -1.43913 -1.70797 -2.71718 -2.73991 -2.76459 -1.84358 -2.8525 -2.12429 -2.46201 -2.93819 -1.72099 -2.20948 -1.27459 -1.89344 -1.22029 -0.815702 1.04647 -0.810181 -0.326984 -1.44128 -1.38287 -0.851288 -1.16766 -2.49638 -2.12443 -0.923942 1.03159 -1.07201 -1.46154 -2.25746 -3.11887 -2.84038 -3.55463 -2.82871 -2.54751 -2.5289 -1.62327 -0.73055 0.292925 -0.349599 0.00662643 -0.780438 -0.162882 -1.04383 -0.401533 0.028162 -0.503206 -0.541536 0.0188983 0.161502 -0.71146 0.383983 -0.193534 -1.05841 -0.792522 -0.321182 -1.594 -0.956307 -2.61719 -1.93629 -3.17207 -2.45035 -1.6391 -0.0376158 -0.150538 0.845906 0.435421 0.573263 0.890714 1.95217 0.210554 0.898913 0.519036 0.889643 1.10729 1.35342 0.49225 2.33077 1.64643 1.46764 1.72398 0.332871 0.197794 -1.89602 -1.14722 -0.123963 -1.77046 -0.631668 -0.824333 -1.03363 0.7993 -0.0404043 0.52215 0.534313 1.94608 1.65307 1.82377 1.45823 1.71872 1.62137 1.38868 1.81596 2.3372 1.93887 3.0502 1.86029 0.515186 0.787455 1.7315 2.32095 0.678453 -2.21275 -2.05578 -1.6512 -0.195196 0.461777 -0.00368703 0.665938 0.791917 -0.00226648 1.28976 2.13156 1.90179 1.27192 0.172303 1.6819 0.851869 2.20323 3.19331 2.48283 1.067 1.52043 1.28999 2.66623 1.64875 1.38699 1.57293 1.29773 -0.318479 -1.28927 -2.20268 -0.280755 -0.726918 0.633761 0.606797 0.810052 -0.101073 -1.17375 0.162511 1.2922 1.49316 1.29 0.778101 1.20749 2.40208 1.4384 2.82932 1.31447 2.64678 3.18161 2.87146 0.963587 2.85239 1.94604 1.58161 1.21757 1.26584 -2.26913 -1.37066 -0.29724 -0.370969 0.816496 1.65844 -0.567247 -0.493551 -0.0403784 0.747723 2.07032 1.88165 1.06721 0.558925 0.173201 1.05486 0.82268 1.05769 1.57066 1.59046 1.61669 2.16661 2.18543 0.887843 0.679548 1.80582 0.805282 0.318263 -0.915502 -1.28214 -0.39874 0.99264 1.78646 1.90372 -0.32159 -0.127061 0.693677 -0.608089 1.07273 1.27975 1.19614 0.7967 2.02059 1.4169 1.0497 2.55008 1.00475 2.31344 1.48796 2.1036 2.20321 2.01677 1.41328 1.32145 2.92618 2.27208 -1.34155 -1.18768 2.25749 0.332039 1.96879 -0.375911 -0.279977 0.328032 -1.1991 -0.672089 1.4912 1.66682 0.661511 -0.62451 -0.208892 1.19304 -0.0211405 1.61772 0.0697817 0.478372 1.47282 1.00966 0.888048 0.200675 0.909488 0.66533 2.45424 1.84116 -0.436365 1.30433 1.60416 2.59312 1.81903 0.437412 -0.76867 0.489568 -0.37761 -1.52449 0.111433 -0.094225 -0.154985 -0.379149 -0.70739 -1.06426 0.372208 -0.229714 -0.0510623 -0.250854 -0.333012 -0.594796 -0.65752 -0.172076 1.19056 1.51803 1.39264 1.99264 0.859037 1.3446 1.61352 0.609773 -0.0995114 -0.297587 -0.141087 -1.40827 -0.888821 -1.28844 -1.02457 0.630989 -0.453671 -0.384054 -0.928197 -1.23141 -0.922373 -0.295206 -1.41924 -0.24431 -0.899351 0.932931 -0.735343 0.832905 1.89646 1.00642 0.855755 1.39063 0.801343 2.09811 0.873692 1.75055 -0.248287 -0.740603 -0.65881 -1.59453 -2.25274 -1.01864 -0.335947 -0.493842 -1.87201 -0.79189 -0.918254 -0.13093 -0.852427 -2.44673 -0.161109 -0.946405 0.225807 0.742 -0.546083 -0.0649746 1.87157 1.13492 0.938859 1.99756 3.30121 1.50901 1.19067 0.0532979 -0.875576 0.666043 -0.138408 -2.31233 -3.22131 -2.4122 -0.901508 -2.63181 -3.33186 -3.45218 -2.61832 -3.45349 -3.95819 -3.39003 -3.61706 -2.93455 -1.87581 0.0931539 1.19676 -0.0580442 1.88778 0.89143 1.73834 1.52601 2.57735 1.64318 1.05582 -0.0491037 -0.203758 -1.71933 -2.20796 -2.09618 -3.67536 -2.88437 -3.00773 -3.73162 -3.42534 -3.05614 -4.15931 -3.11115 -4.1922 -4.41968 -4.75331 -4.19189 -2.7683 -2.68303 -0.546294 0.166842 -0.306491 1.6621 0.786764 1.79783 3.30941 1.95192 1.30781 -0.243467 -0.0531375 -1.77119 -1.93644 -2.80474 -2.6577 -1.4152 -2.04098 -1.78834 -2.49509 -2.27549 -2.38813 -3.52963 -2.74181 -1.96592 -2.71229 -2.51211 -2.89106 -0.652163 -0.288383 -1.24088 -1.34631 1.0515 1.351 0.324239 2.42612 2.23127 0.582869 0.167796 0.175807 -0.494867 -1.57078 -1.66082 -0.590365 -1.7096 -1.41514 -1.0158 -1.08128 -0.656348 -0.575213 -0.767536 -0.102191 -1.53966 -1.54955 -1.64924 0.222514 -1.69813 -0.589101 -0.216388 -1.5236 0.720636 0.957959 0.431617 2.40532 2.77187 1.62891 -0.0948877 -0.779993 -0.659661 -1.4932 -1.68018 -1.54831 -1.45465 0.18953 -1.27876 -0.695423 -0.95794 -0.323071 -0.0816903 0.264097 1.2062 0.489622 -0.628417 -1.37584 -1.77321 -0.458319 -1.59416 -0.246859 -0.0372099 -1.07497 1.39357 1.03335 1.99948 1.14238 0.392796 -0.663878 -0.832714 -1.18464 -0.0951518 -1.46871 0.557808 -1.55672 -1.11604 1.36164 -0.679224 -0.2719 -0.566162 -0.868772 0.480541 -0.646612 -0.488287 -0.334359 -0.982314 0.433791 -0.268915 0.250612 -0.458899 -0.595159 -0.262335 -0.275621 1.81617 1.13231 1.95903 -1.32289 -0.969631 -1.79438 -0.941317 -0.108747 -0.190144 -0.523016 -0.0405896 0.435059 0.755721 1.2283 -0.270718 0.129964 -0.851265 -0.698679 0.823903 1.24071 1.39965 0.0306707 -0.324664 -0.783834 -1.48823 -0.0259427 0.633216 -0.210839 1.27463 0.890383 2.59973 -0.535132 -0.493562 -0.409918 -2.15007 -0.904455 0.15815 0.49636 -0.972034 -0.312889 -0.0131087 -0.534403 0.674659 0.379582 1.57881 1.55829 0.0732831 0.239825 -0.121717 0.784984 0.781315 0.868901 -0.127055 -1.04294 -0.738913 -0.137111 0.392981 0.62114 2.52238 1.58453 -0.294228 -0.170117 -0.511858 -0.588486 -0.385561 1.26296 -0.584558 -0.403683 0.781031 -0.334606 0.216807 1.80751 1.34918 1.92128 0.141784 0.883062 0.902584 0.101555 -0.163282 -0.142872 -0.0308236 -0.22318 0.333411 -0.60702 0.609143 1.77431 2.59987 1.05088 0.242034 -0.399013 -0.436278 -0.165673 -0.234068 0.914509 1.53191 0.0130154 -0.391275 -0.494539 1.33438 1.42835 0.31927 -0.120218 0.375834 1.02316 -0.841225 0.520128 1.04725 0.479577 -1.14476 -0.981083 -0.61877 -2.04137 0.91281 0.137584 2.5995 2.67426 1.38357 0.700349 0.699257 0.065223 1.39556 1.55385 1.48035 0.333528 2.14765 1.59656 1.71156 0.534908 1.21033 1.22011 0.102175 1.28268 0.970836 1.46524 0.995691 1.15382 0.285794 -0.446957 0.448783 -0.553264 -1.05137 -0.597031 1.18892 0.542893 1.07542 0.132233 0.469016 -0.71607 0.505391 1.45818 1.69213 2.39819 0.941199 1.22535 0.665247 0.990157 2.50359 1.40662 0.369438 1.17155 1.05549 1.93423 0.806959 -0.00581754 -0.279711 0.520816 1.55573 -1.82392 -1.06471 -0.742498 0.731186 0.623803 0.505472 -0.0123621 -0.318063 -0.490073 -0.0225648 0.7764 0.686952 1.78189 0.609761 1.86055 1.42964 0.674958 1.61997 1.33279 1.61443 2.70476 1.38232 2.03656 0.264001 0.197547 -0.346355 0.83763 1.42462 -2.28501 -1.43004 -0.872922 -1.37566 -1.858 -0.487437 -0.828858 -1.07616 -1.48888 0.400282 -0.0387903 0.451943 1.78635 1.32776 0.317598 -0.114673 0.414676 1.72128 1.90495 1.5422 1.10923 0.0109104 -0.49054 -0.562257 -0.380909 -0.776282 1.19104 0.276057 -1.46993 -2.11954 -3.11396 -1.60991 -3.6858 -2.53768 -1.79778 -2.67315 -1.23135 -0.984203 -0.0402402 -1.27538 0.224004 -0.0675626 -1.97988 -1.22202 -0.5985 -0.790888 0.130933 0.439158 0.688028 -0.745575 -0.362287 -0.0365417 0.0463369 0.731412 -0.472435 -0.633179 -2.64575 -3.44703 -2.85599 -2.32142 -2.79736 -2.6595 -2.41669 -2.21593 -2.8448 -2.38991 -1.93077 -1.25681 -2.08322 -1.87164 -0.0669294 0.573463 0.644419 0.392127 -0.709753 -1.02252 -1.44924 -0.0978032 0.139137 0.00100999 -1.58661 -0.298886 -0.307093 0.434157 -0.929379 2.4426 0.915969 2.08026 2.18844 1.40042 0.627158 0.172374 0.060763 0.195151 0.234062 0.75986 0.781646 0.877624 -0.302532 0.523241 0.762367 -0.638133 0.532443 0.773653 1.15729 0.853969 1.32255 2.28295 2.48637 2.50259 2.29301 2.61481 1.66434 1.66661 2.83301 0.978603 0.239407 0.8804 0.797215 -0.155135 0.42803 -0.791494 0.293583 0.636466 -0.342988 1.46249 0.298449 0.879457 0.402008 -0.105787 -1.07789 -1.07908 -0.861812 -2.24532 -1.75197 -0.132367 -0.395715 0.00702606 1.54252 2.85843 1.07956 2.25264 2.80886 1.71264 0.407653 1.16784 1.46175 0.808844 0.724355 0.173389 0.188016 -0.605183 0.85732 1.02961 2.01419 1.41013 -0.135992 -0.969762 -1.16699 -0.469665 -0.70007 -1.09421 -1.80306 -1.06759 0.106906 -0.0811631 -0.471577 1.0621 2.71405 2.56044 2.41295 0.730611 1.67551 1.53436 0.856323 -0.00161927 -0.102515 0.324124 -0.905297 -0.867071 -0.209606 1.47252 0.374895 1.52395 0.0590856 1.64278 -0.622649 -1.07451 -0.229274 -1.60377 -1.82333 -0.215987 -1.51396 -0.386871 -0.406208 -0.297289 1.12798 1.41262 0.724269 1.10325 1.1964 -0.627623 -1.4949 0.823491 0.938295 0.888238 0.114686 0.676343 0.717881 1.32465 1.42731 2.03231 0.841663 1.55585 -0.202131 -0.152704 -0.621811 -1.4544 -0.94578 -0.770225 0.109134 0.35966 -0.358342 0.798915 0.685494 1.2061 2.355 1.61123 1.83777 0.644319 -0.891756 0.0262523 -0.559213 -0.21534 -0.398877 -0.410571 0.279824 1.20645 0.993272 1.90458 1.06066 0.0782012 0.317638 0.571996 0.147404 -0.429604 -1.62336 -1.42422 1.03706 0.999966 0.941797 0.969111 0.589416 1.77614 0.80838 1.89959 -0.119917 -1.46193 -1.25175 -0.489944 0.314499 -1.00336 -0.578567 -1.16829 -0.755741 -1.16263 -0.972554 0.162304 0.838506 -0.266286 -0.302921 0.309352 0.447403 0.128715 -1.36287 -0.0319962 -0.0685449 0.578818 1.11494 1.59666 1.56742 0.736264 1.26875 0.645529 1.27569 -0.26585 0.267439 -0.743333 -0.709121 -0.301957 -0.487486 0.529964 0.736912 -0.609422 -0.68049 0.280957 -0.80392 0.340073 -0.356386 -0.483773 -1.12065 -0.636211 -1.02501 0.208599 -0.462267 0.799963 -0.285095 0.617363 2.21021 2.10373 1.38307 0.432856 0.193633 -0.229326 0.00358409 0.519755 -0.154121 -0.778381 1.26588 0.348059 0.954507 -0.628921 -0.0743383 -1.16907 -0.257944 0.285153 1.30491 0.37634 -0.283823 -0.738377 -1.35306 0.158195 -0.124775 0.826136 0.620319 1.78719 1.89718 2.00957 1.80061 -0.520856 -0.284948 1.13227 0.504157 0.963472 -1.06188 -0.153496 0.887087 0.0504984 2.10366 0.347648 0.381977 0.133384 0.434973 0.368628 1.07803 1.40945 -0.696823 -1.58382 0.199126 0.496296 -0.871935 0.728166 1.98979 1.75612 1.9349 0.812385 1.82319 0.789309 1.94682 1.23543 1.19177 -0.318178 -0.02396 0.527456 0.536957 2.33039 2.54665 1.33752 1.04629 1.50378 1.66538 0.439205 0.82016 0.679796 -0.09722 -0.291959 -1.47774 0.61035 -0.495603 0.868795 3.02491 1.99395 2.88129 1.39058 1.12263 1.11691 2.24105 0.761227 -0.0199136 0.830942 0.36408 1.08868 1.1926 0.684622 0.856699 0.479403 -0.0676727 -0.466046 -0.215735 0.178562 -1.00674 -0.86199 -1.97963 -1.76704 -0.291338 0.506696 0.556655 2.58554 3.39509 3.50003 2.59767 1.38659 0.990448 1.04809 1.45821 2.12795 1.54377 -0.169613 -1.03336 -0.676996 0.754783 0.170225 -1.77161 -1.58404 -0.595552 -1.0382 -1.08835 0.11279 -0.166084 -0.588247 -1.52939 -0.970972 -1.3041 0.901472 0.893195 3.20117 3.9635 4.90883 4.43264 1.16358 0.0531873 2.21275 1.29325 1.08678 0.289508 1.43882 -0.723592 -0.759542 -0.921591 -0.265709 -1.30706 -2.50263 -0.978475 -0.739487 -0.652173 -0.996733 -1.79318 -2.0333 -2.46668 -0.967344 0.335066 0.923245 1.54358 3.52239 4.27457 3.88018 4.24189 1.16848 1.61673 1.90372 1.05183 -0.0230066 1.08931 -0.362498 -0.171599 -0.911055 -1.3544 -1.16331 -1.14999 -1.72647 -1.42771 -1.3948 -1.04479 -0.455895 -0.426882 -1.28143 -1.88522 -0.909655 -1.71176 -0.957 0.954383 1.44896 2.60795 4.40133 2.61312 1.651 0.744035 0.336918 1.7321 0.54885 1.22257 -0.373848 -0.259072 0.448185 -0.901642 -1.2742 -1.84826 -0.380569 0.442314 0.163859 0.017569 0.369037 -0.0324039 0.554364 -0.656677 -0.864899 -1.97707 -0.909536 0.0513704 1.02925 2.89498 2.99563 3.32761 1.33382 0.877215 1.13352 1.31147 -0.617847 -0.157186 -0.0956987 -0.409226 -0.530948 -0.249213 -1.90392 -0.911975 1.29712 0.299365 0.127826 -0.219249 -0.425422 -1.66251 -0.316494 -1.28859 -1.87713 -0.764506 -1.1033 0.187512 1.46301 1.17126 1.98512 2.08554 1.54515 1.08869 1.32878 0.961466 -1.00267 -0.104365 -0.819303 -1.42002 -1.06925 -0.456172 -0.149401 0.910731 -0.0522247 -0.999418 -0.335441 -0.115811 0.23123 -0.112414 -0.594024 -0.0592522 -0.788303 -2.1846 -0.568879 -0.253678 0.950043 1.69582 1.50298 1.55124 1.36587 2.06144 1.37416 0.403287 -0.606836 -0.414488 0.394666 -1.37761 -0.569487 -1.71784 -0.372015 -0.202049 -1.18925 0.0756733 -0.216889 0.428413 0.745053 0.161577 0.473612 -0.98445 -1.22867 -1.14332 -1.60099 0.201912 0.263036 0.662622 1.28051 -0.0642864 1.609 1.00076 1.02623 -0.117081 0.271454 -0.733238 -0.308566 -1.78398 -0.944209 -0.618937 -0.396697 0.58513 1.37515 -0.0440922 -0.730125 1.52662 0.141381 0.297472 -0.0174442 1.07749 -0.433942 -0.700288 -0.898144 -0.466438 0.457995 0.942721 0.200148 1.24157 1.61666 1.11751 2.49693 0.534041 -0.901614 -1.22039 0.0628664 -2.37974 -1.59654 -0.0255023 -0.642651 1.28535 1.3603 0.821174 0.82268 1.3896 0.643445 0.993502 1.18394 0.510198 -0.538771 -1.19914 -1.26285 -1.38048 -0.813845 -0.121175 0.216798 1.05005 -0.00364538 0.860388 2.31693 1.18024 -1.19412 -0.145102 -0.951483 -1.42528 -0.626321 0.0282557 0.0258526 0.708928 1.01308 1.30641 1.75171 1.47795 1.39252 0.759139 0.791043 0.704103 0.0504722 -0.00963911 -2.31281 -0.97006 -2.14749 -1.56843 -1.01189 0.127614 1.48731 2.32858 1.01439 1.22152 0.29902 -1.48424 0.265015 0.488063 -0.664834 2.1123 0.65913 0.593918 2.64917 1.83414 2.76353 2.24273 2.71726 0.971006 1.6774 -1.14727 -2.20279 -2.329 -1.06567 -2.79423 -2.55143 -0.336012 -0.82326 -0.335614 0.381617 0.776361 0.962121 0.979295 -1.65484 -2.28565 -0.0638192 -0.829103 -0.753849 -0.113751 -1.03937 -0.274797 0.142736 0.519393 1.80645 0.943742 1.07542 0.0817349 0.534705 -1.77119 -2.21494 -1.15409 -1.91174 -1.61557 -0.90444 -1.45181 0.651564 -0.181515 0.0425049 1.64346 -0.110764 -1.23234 -1.94694 -0.17704 0.696166 -0.10688 0.589565 -0.269267 -1.0599 -0.711232 -0.750716 -0.0348712 0.677428 0.654312 0.529737 -1.10228 0.0784445 -2.27924 -2.21829 -1.49903 -1.74276 -3.00634 -1.55511 -1.73648 0.788798 0.795236 0.646702 1.78444 0.595199 -0.205525 -0.762779 -0.0638202 -0.104857 0.474046 0.459984 0.132788 1.07809 0.621143 -0.0441107 0.251793 1.35682 0.331181 0.426267 -1.05774 0.0491179 -2.01311 -2.97215 -1.07911 -1.19602 -0.946787 -0.712185 -0.783246 1.09565 0.251266 0.751349 1.4941 1.44681 0.95283 -0.557665 -0.456027 -0.876975 0.568027 -0.291165 1.52893 1.14209 1.63546 0.0515061 0.219065 -0.29592 -0.169809 0.669487 0.417896 -0.850371 -1.71869 -3.00053 -1.26388 -1.99344 -0.822287 -0.2413 0.459559 -0.762031 -0.3483 0.0400068 -0.466863 0.931705 1.36179 1.18343 0.679793 0.922632 0.1393 -0.181579 0.354624 1.06652 1.01623 1.5799 1.36372 -0.506119 -0.815369 -0.118014 -0.155883 -0.728312 -1.06927 -0.823203 -1.28946 -1.42627 -0.0562124 -1.68586 -1.62967 -2.16161 -0.771973 -2.40398 0.611371 0.24619 0.792632 0.588526 -0.690026 0.219306 0.718928 0.934506 0.62143 0.593875 0.467688 0.357226 -0.237565 -0.993313 -1.65454 -1.38858 -1.66592 -2.34452 -3.77647 -3.46894 -3.01792 -1.392 0.0527297 -0.967781 -0.944382 -1.69693 -3.07786 -1.57336 0.720954 -0.472435 0.863968 -0.307533 -0.734595 -0.872752 0.9001 0.280928 1.82277 1.80214 0.936718 -0.631365 1.27406 -0.770878 -0.904588 -1.68493 -1.10087 -1.62294 -2.37128 -1.93677 0.0711198 -2.01021 -1.62008 -2.81859 -1.68689 -2.60918 -3.15457 -2.65364 0.47156 -0.300766 0.229323 -0.0427203 0.613447 0.540726 1.35397 1.99817 2.21639 0.880233 -1.63266 -2.06063 -1.58563 -1.26532 -0.659255 -1.04838 -0.137693 -0.819027 -0.863818 -2.48766 -3.11212 -3.42761 -2.30567 -3.59462 -3.06921 -3.11097 -3.43494 -1.60911 -0.114836 0.00187083 -1.057 0.0451254 0.42058 0.936265 1.00199 1.0939 -0.00791003 -1.36983 -2.14368 -2.2563 -0.213925 -1.95688 1.16934 0.487524 0.230493 -0.265365 -0.678947 -1.41275 -0.888881 -0.145427 0.772203 0.620245 -0.162712 -0.876574 -2.00472 -3.29892 0.471261 -0.39493 -1.76968 0.273667 1.24664 -1.88077 -0.00887152 1.21088 -1.11939 -2.72428 -1.70774 -0.471519 0.181739 -0.433844 1.0067 0.101967 -0.575853 0.172025 -0.771842 -0.765398 -0.422702 -0.0342949 -0.370417 -0.444313 0.819303 -0.413028 -1.76591 -2.36799 0.0762189 -0.952822 -0.796912 0.849115 0.07173 -1.60327 0.675476 0.755114 0.62044 -2.52214 -1.24077 0.17863 1.156 -0.570356 -0.554564 -0.0755157 0.219943 0.797926 -1.01408 -0.857275 -0.91996 -1.5058 -0.982114 0.703435 2.18163 0.516087 -2.31912 -1.35028 -0.367657 -1.89058 -0.117973 0.945203 -0.841214 -2.45023 -1.01822 -0.591488 -0.802603 -2.61721 -0.922346 -1.20014 0.779929 -1.41505 0.275321 -0.439791 -1.26851 -2.06915 -1.9005 -2.19083 -2.46534 -1.30436 -1.33012 0.14418 0.436812 0.32287 -0.83212 -1.46299 -0.263544 -1.50072 -1.03029 0.755592 -0.824796 -2.32894 -0.777994 0.163152 -2.7689 -0.602635 1.20032 0.724637 -1.65175 -0.548152 -1.64906 -0.472895 -1.8365 -2.60081 -1.66719 -2.72401 -2.17057 -0.25674 -1.82803 -1.41397 -1.10295 0.118786 -0.097205 -1.27066 -0.58878 -2.01635 -0.596198 0.0812395 -0.765928 -2.25003 -0.35623 -1.14945 -2.43063 -0.258163 1.76128 0.712158 0.392384 0.449972 -0.398095 -0.318132 -0.00315318 -1.43873 -0.614613 -0.552879 -0.459768 -0.861022 -0.696135 -0.183056 0.00361288 0.656736 1.13558 -1.13013 -1.87614 -0.989387 -2.09076 0.012788 -0.125776 -0.780901 -0.277778 -1.02787 -0.0939567 1.32971 2.06998 -0.423577 0.489734 0.547904 0.429874 -1.18805 0.80646 -0.558254 1.39401 1.26291 -0.472356 -1.48239 -1.59671 -1.1771 -0.582616 -0.443082 1.21428 -1.01567 -0.445493 -0.598327 -2.05544 -1.64151 -0.621987 -1.23427 -1.90321 -1.10039 2.23552 3.00008 1.50268 0.605994 -0.0244327 -0.37542 0.931488 0.239203 0.787602 0.156838 1.47474 1.08722 0.149637 -0.496936 -0.657708 -0.640701 0.16026 0.115666 0.560684 -0.222122 -1.5125 -1.63798 -2.06354 -1.29048 -0.341468 0.0706603 -0.452012 -0.520797 2.65566 1.78493 0.256369 1.32477 -0.0854501 0.332726 0.209494 -0.0412223 0.893092 0.0260826 0.990341 -0.11141 0.553815 -0.455482 -1.44905 0.0325956 1.63222 1.09456 1.33463 0.151113 -0.535974 -2.35469 -0.947589 -1.32026 0.592843 -1.04738 -0.302652 2.30316 2.29097 1.49297 0.808887 1.11153 0.585994 -0.297681 -0.449789 -0.948772 -1.06068 -1.605 -1.56337 -0.298103 -0.990152 -0.3869 0.08249 -0.528966 0.190417 1.35318 0.431226 0.269534 -1.35305 -2.82 -1.76319 -0.0240053 0.832144 -0.503282 0.258164 1.55139 1.97013 0.205219 1.91012 2.2653 -0.561592 -0.297023 -1.10464 -0.722009 -0.441874 -0.271412 0.404165 0.753338 1.2375 -0.00288802 1.44095 2.18878 0.809721 1.59576 1.98318 0.613446 -0.67694 -1.82241 -0.927611 0.946724 1.54384 0.801635 1.61464 2.72987 2.20463 0.114239 0.531987 0.328907 0.00317056 1.24015 -0.428816 -0.4049 1.14555 0.845041 1.97293 1.46045 2.59184 1.98961 1.38857 1.65196 1.72945 1.61106 1.76184 1.3072 -1.25857 -1.64183 0.42763 0.395038 2.24353 -0.144283 0.798624 0.755989 1.16539 0.828143 0.916767 1.64909 1.71471 0.249136 -0.178369 0.494102 -0.284485 0.592652 1.15214 2.23395 2.04843 -0.0772313 2.60229 2.24127 0.530192 1.53475 1.48168 0.826776 -0.286162 -0.65391 -1.27361 0.388468 2.79696 -0.687162 -0.0714726 0.756411 -0.745744 2.20653 1.64586 0.0798345 -0.0662408 0.527178 -0.402938 -0.782378 0.431675 0.118308 0.321496 0.804121 0.893172 0.0268378 1.93112 1.72337 1.16546 1.81247 0.9575 -0.0182314 -1.60222 -0.353658 0.185165 -0.317437 0.595624 1.20879 -0.0954579 -0.683846 -0.746931 1.76033 1.21352 -0.30699 -0.284376 -0.433969 0.316372 0.316958 -2.03717 -1.51001 -1.43369 0.179806 0.280521 1.21729 1.25402 0.488377 0.355472 1.11245 1.33111 -0.692122 -1.87109 -1.03211 -0.127407 -0.2494 1.86984 -0.0144597 -0.763495 -1.42385 1.32687 2.43283 -0.169813 -0.513944 -1.26207 -2.3983 -2.10028 -0.433967 -1.46682 -2.23279 -0.82242 -1.36726 -1.09643 -0.980079 -0.0310596 1.09327 -0.45182 -0.230085 -0.324098 -1.85516 -0.932763 -1.28934 -0.125196 0.439417 1.44773 -0.885783 -1.97884 -1.11146 0.906298 2.15265 0.704048 -0.138397 -1.7841 -0.960412 -2.00146 -1.10651 -0.263861 -1.3489 -1.70654 -0.90828 -0.206578 -0.861327 0.664466 1.14549 0.267267 0.0752883 0.600828 -1.74685 -1.16186 -1.01007 0.250113 1.49229 0.741527 -1.55547 -0.696 0.334121 2.14776 1.91396 1.25128 -1.61704 -1.50155 -1.55361 -1.31515 -1.71922 -2.10349 -0.0284152 -0.895242 -1.26456 -0.143254 -0.0607432 0.0793823 1.41005 1.47026 0.188289 0.301449 -2.03639 0.0643128 0.032882 0.230731 0.802452 1.53746 -1.99151 -1.68686 0.226689 2.03919 1.40719 0.835072 0.619652 -0.388604 -0.189822 -0.201308 -0.639806 -1.68089 -0.0154015 0.49143 0.117413 0.257894 -0.305488 0.898536 0.308351 2.25951 1.91673 1.00325 -0.0825814 -0.297343 0.394486 -1.07048 0.639385 0.239067 -1.04955 -1.03587 0.900375 0.468528 1.40039 1.00228 -0.152347 -0.384421 -1.52666 0.164815 0.77697 1.17746 1.41302 -0.0785492 1.16375 1.06449 1.49639 0.289049 0.341736 2.53126 1.32658 -0.391111 0.294618 0.52352 -0.798777 0.538151 1.55861 -0.070676 -0.453357 -0.514857 1.12458 1.45953 0.648739 1.63258 1.26778 0.941747 -0.327886 2.07579 3.55553 2.04714 2.63814 1.47614 2.80085 2.25931 1.48397 2.03812 1.32209 0.70703 1.30827 -0.222731 -0.755403 0.521032 0.968751 0.294256 -1.61546 -1.56688 0.276202 1.48452 2.91887 2.70115 1.78474 2.72314 0.71383 1.93108 1.87721 2.29785 2.21881 2.63542 1.19735 1.15314 1.12179 1.24062 2.33731 3.38233 0.459587 -0.0839155 0.441353 -0.59416 0.0496055 0.665644 1.15428 2.8335 -0.0850253 -1.12497 0.824163 4.20767 5.43572 3.67142 3.30211 0.795628 2.09447 0.855489 0.291906 2.18326 1.12857 2.95347 3.10051 3.53931 4.10741 3.0423 3.25357 1.87316 1.28764 0.0934388 0.786327 1.13052 0.740883 -0.533584 -0.648067 0.508934 0.126305 1.40557 1.05269 2.05853 3.60296 3.10493 1.50361 2.40037 2.42785 1.20061 2.3276 1.37601 1.53645 3.41153 4.59316 4.45666 4.47579 2.6349 2.80959 1.1163 1.08882 0.956871 0.361444 0.89189 -0.263397 0.938762 -0.410626 0.424017 -0.721433 -0.415821 -0.767562 0.442167 0.744257 0.784354 1.28986 0.255557 -0.377758 1.11793 1.26965 1.45785 1.65289 2.9189 2.78232 2.34037 2.89784 2.34031 1.66837 1.79387 0.502931 1.31723 0.770038 1.8994 0.032288 1.41986 -0.798905 -1.63511 -1.72772 -2.16567 -1.17381 -1.4924 -0.696251 0.128278 0.314657 -1.44884 -0.370113 0.171322 -0.641083 -0.0181831 -0.124342 -1.21979 -0.887645 -0.421356 -0.929525 0.0871281 0.0828641 0.496361 -0.130039 -0.33704 0.468756 0.791671 1.20351 1.63393 -0.357007 0.408191 -1.41354 -1.75304 -2.0083 -0.934379 -0.911263 -0.385441 -2.07533 -1.81659 -0.0514372 -1.80038 -1.56024 -0.892 0.579621 -0.388132 0.116285 -0.733685 0.279538 -1.19142 -0.0299227 0.494366 -0.776781 0.403272 0.418293 0.442013 0.285302 1.09757 -0.325183 -0.720596 -0.00810005 -0.188042 0.483811 -0.61985 -0.793811 -2.24657 -1.95421 -1.87933 0.471871 -0.970637 -0.748799 0.95204 0.434107 0.623094 0.328992 0.11479 1.54011 -0.366538 0.153606 0.368074 0.150987 0.296285 0.818324 0.457839 0.0374268 1.56973 0.00955647 0.369081 0.416596 -0.000176813 -1.16588 -1.02727 -0.881002 -2.01435 -2.18886 -1.24696 -0.699543 -1.13197 -0.464599 -0.0164507 0.994462 1.3136 0.523309 2.22247 0.31505 0.846875 1.70787 -0.340973 0.545868 0.179725 0.703029 -0.871621 1.30755 1.28012 1.01104 0.489784 0.423683 0.741723 -1.01125 -1.58436 -2.12485 -1.52459 -0.882306 -0.108059 0.325988 -0.239509 -0.878644 0.0899 2.01089 1.13131 1.02111 0.795405 2.37853 1.56881 0.689353 2.41719 1.46723 -0.417978 -1.69935 -0.776015 0.677678 2.15842 1.02711 1.87398 0.923976 1.18277 -0.270587 -1.01682 -0.702183 -0.702437 -0.939201 0.428968 -0.215392 -0.951192 0.921587 1.02634 2.0412 1.95031 0.674205 1.26289 1.07735 3.14938 0.882584 1.62264 1.16637 -0.393603 -1.3557 -1.13488 0.772783 0.875654 1.69337 1.09046 1.82311 0.63077 -0.396899 -1.63614 -1.26006 -2.17627 -0.76319 -0.953059 0.754511 1.28937 0.416199 1.02086 0.786807 2.06768 1.25624 2.14696 1.93632 2.78148 1.92667 2.80391 1.32928 0.37145 0.32954 0.162201 1.77533 0.494139 2.47535 1.27379 0.309482 1.28651 -1.11555 -2.17265 -1.13948 -0.0774648 -1.00631 -1.39796 1.28564 1.30822 0.877695 2.10148 2.07559 1.39107 1.98626 1.96967 0.865211 1.29707 1.32532 2.38882 1.98416 -0.675811 1.9824e-06 -0.592629 1.19636 1.69692 2.85246 1.34441 1.14568 -0.177674 -0.66783 -0.524403 -1.14933 0.314143 -0.681272 -0.961283 0.350436 1.16324 1.43509 1.64688 1.50064 0.561119 0.875521 0.19028 0.617367 0.458173 -0.796959 1.23001 0.447076 0.0336355 -0.174264 -0.377765 1.57876 1.509 2.40657 1.07494 1.5084 -0.302246 -0.279555 -1.22105 -0.369722 -1.62696 -0.60476 0.194162 -0.612131 1.02663 1.8746 2.07523 1.26873 1.83178 1.44036 1.69018 0.773763 1.04513 -0.604867 0.225654 -0.786523 -0.870591 -1.11496 0.0915137 1.90943 2.34066 2.85922 1.39952 -0.0325323 0.260528 0.0677925 -0.21013 -0.817705 -2.11311 -2.13917 -0.782639 0.711319 0.892575 1.5044 1.75201 2.30915 1.02698 0.726342 1.84416 0.363734 0.0126934 0.869008 0.356269 -0.336307 -0.823828 0.48833 -0.129524 0.449493 2.525 2.92715 2.51462 1.90971 0.96219 -0.283524 -0.423987 -1.0567 -0.629695 -1.28829 -0.70291 0.293947 1.99414 2.14281 2.0812 2.71123 2.88893 2.4963 0.00624073 0.165471 0.293507 -1.07854 -0.298338 -0.059863 -0.639338 0.568648 0.669963 -0.103642 1.80675 1.47482 1.25837 1.19353 1.53612 -0.973383 -1.60078 -1.29696 -1.30682 -0.639606 -1.25462 1.18196 0.473473 0.91372 2.35212 2.24676 2.0418 0.771981 -0.237943 -0.432827 -1.34563 -0.301189 0.310972 -0.294553 0.00861025 0.413927 0.329411 0.892792 1.67189 2.69525 2.38926 0.963706 1.44184 0.79788 -0.288068 -0.891421 -2.09598 -0.27026 0.994089 1.24711 0.0760279 0.0925198 1.09283 0.918396 0.28705 0.29984 -0.348027 -1.08211 -0.510479 -0.0109702 -0.358072 0.849359 0.959228 0.0201861 0.926279 0.28248 1.03322 3.12295 1.56465 2.73051 0.342261 0.263587 -1.11725 -0.255624 -0.82347 0.510266 0.332892 1.48325 1.28695 1.51807 1.63581 2.62532 1.15885 0.590977 1.01999 0.85042 0.0787017 1.15989 -0.142481 -0.413272 0.0518369 -0.172092 1.28119 0.373891 2.17308 3.76013 3.23152 0.449836 0.791044 0.219783 0.418605 -0.234674 -0.285162 -0.108551 1.12267 1.07925 3.61565 3.21365 2.74244 2.57841 1.80013 2.29143 1.68042 1.64875 1.34635 0.353584 1.36274 0.256437 1.28763 1.33864 -0.087409 0.652768 1.13256 2.34475 2.78047 1.84136 -0.195365 -0.624355 -0.0833954 0.0533776 -0.00708589 1.67525 1.80182 3.26977 4.16374 2.58369 3.66954 3.89854 1.61632 2.83348 1.99226 1.42503 0.989017 2.73429 1.00419 1.47788 -0.0637918 1.24395 1.05175 1.99811 2.24673 1.86488 1.51455 1.5694 0.0838703 0.186696 -0.949496 -0.122185 0.41349 0.799112 1.81395 3.27887 2.00886 1.75269 2.38186 1.21352 1.37222 1.73263 0.826683 1.50159 2.92823 2.16505 3.02243 0.705298 1.07758 -0.213256 1.34308 1.12875 2.60319 2.52145 1.05507 0.516939 0.365838 -0.914159 -1.59457 -0.751127 0.703069 1.18097 1.75262 0.623933 0.715881 1.0307 1.52668 0.839704 1.54224 0.924632 1.31173 2.71367 2.30333 1.95269 2.28856 2.06473 2.24766 0.59223 1.66894 1.2717 1.7494 2.50667 1.79753 -0.207194 -1.33584 -2.11324 -0.487657 0.537802 0.877654 -0.118303 -0.233878 0.227036 1.63673 0.158247 -0.188282 -0.440857 0.487373 -0.182183 0.71102 0.729882 1.56039 1.94234 1.45193 1.21024 1.14337 1.25846 0.131871 1.35543 1.01687 3.09719 1.61591 -0.118169 -1.01548 -1.17567 -0.704977 0.168939 1.30739 0.892717 0.992112 1.56637 1.54731 2.11554 -0.153383 0.244495 -0.958752 0.268422 0.256651 1.40536 1.88361 1.06135 2.68968 1.61736 1.63919 0.317717 1.86272 0.643485 2.66807 0.880264 0.690621 0.372655 -1.834 -1.65828 -1.52409 -0.0141799 1.50256 1.27968 0.12055 2.08432 1.01625 0.172717 0.716177 0.789898 -1.03537 0.38797 1.48105 0.178059 0.722363 0.395783 2.007 0.977959 2.16386 1.57801 2.05964 2.09759 2.68474 2.14339 1.46918 0.367572 0.410163 -2.1087 -1.15803 0.0599794 -0.697678 0.644333 0.474706 0.391925 0.852782 0.737615 -0.497572 -0.864017 0.611922 0.292309 0.467626 1.24973 0.723632 1.08267 2.34139 2.63062 2.97647 2.30685 1.26572 2.89489 1.91805 0.627564 1.02081 -0.37567 0.599515 -2.19333 -0.712171 -0.311353 -1.46735 -0.767838 0.36535 -0.211873 0.67748 -0.346881 0.663921 -0.160476 -1.15592 -1.39776 -0.235045 -1.09826 -0.978935 0.236077 0.642791 1.98752 1.34537 2.95477 1.81875 1.57241 2.76705 1.89488 -0.531273 -0.747726 0.241202 -0.949776 -1.64709 -0.63768 -0.666904 -0.20962 -0.912278 -0.145545 -1.04669 -0.39743 -0.828474 -1.12328 0.175652 -1.2682 -0.223082 -1.45872 -0.311814 0.895782 1.20171 2.36725 3.2067 1.37453 3.02177 1.67774 1.73052 1.47033 -0.351842 0.184318 -1.36491 -1.34528 -0.16845 -0.066667 -0.718016 -0.971608 -1.48376 -1.14393 -0.395927 -1.6782 -1.74832 -1.97658 -0.506552 -0.945606 -1.26296 -0.290086 0.846635 0.745058 2.8759 1.84799 2.3485 2.90193 2.43931 2.71288 1.57089 1.16569 0.505289 -0.924176 0.101605 -0.455895 -0.449194 -2.59976 -3.26316 -2.54413 -3.97913 -3.90764 -2.01585 -1.96748 -2.4319 -1.76668 -2.73383 -1.4179 -0.806602 0.0318205 -0.172023 0.153085 1.88629 1.18542 1.58875 1.80598 1.75439 3.16293 1.60375 1.37521 -0.408771 -0.518297 -0.57672 -1.59017 -1.30687 -2.13604 -1.00981 -2.56371 -3.03893 -3.13845 -2.96238 -2.15482 -2.52096 -1.07453 -2.49549 -1.30453 -0.518198 -0.187711 0.437792 0.961933 1.29038 2.42965 2.08456 2.70561 2.87292 2.87345 3.73722 -0.78725 0.115616 -1.09774 -0.184169 -0.40826 -1.8122 -0.200445 -0.685805 -1.86633 -2.6399 -1.41812 -1.47201 -1.70269 -0.339154 -0.450514 -0.452562 -2.22238 -0.506742 -1.3148 0.438664 0.543923 1.58671 1.20374 3.11431 3.52165 4.2021 3.15842 3.30776 2.8924 1.30523 -0.299489 -0.607054 -0.97709 -1.34259 -1.7762 -0.847253 -0.36516 -1.76965 -2.00723 -2.16483 -1.50501 -1.93439 0.315541 0.336687 -0.0265398 -0.305347 -0.12014 0.459491 -0.0628516 1.05812 0.469939 1.36092 1.06496 2.11097 2.79711 2.65481 3.13503 1.21112 -0.0842709 -1.05659 0.762213 0.358845 -0.12904 -0.341526 -0.865393 -0.511593 -0.907762 -1.74447 -1.49321 0.354716 -0.241896 0.457675 0.950977 -0.144949 0.401434 0.50456 -1.19809 -0.792998 -0.0790674 -0.434523 -0.769116 0.120838 1.23142 2.94013 2.46794 -0.214997 0.373081 0.0611763 -0.894805 -0.789753 0.618601 -0.874763 -1.63411 -1.45584 -1.90295 -1.04228 -1.06122 1.03262 0.757917 0.164399 0.857993 -0.621416 -0.280038 0.208406 -0.453367 0.0592208 -1.12987 -1.4314 -0.262689 -1.26437 -0.312933 1.11629 2.68633 1.08834 1.42206 0.498546 0.238929 -0.379564 -0.255476 -0.904399 -0.247659 -1.7455 -1.73842 -1.13987 -0.228494 0.151169 1.48661 2.29386 0.765196 1.32469 0.962531 -0.369926 0.55461 -0.176837 -0.78261 -2.19005 -2.18727 -2.65442 -0.0265251 0.437396 1.25582 1.30208 1.09366 1.4442 -0.626387 -0.44997 0.199273 -1.03427 -1.80089 -0.850277 -0.817859 -1.1451 0.168892 0.429124 1.30344 1.51463 2.47549 1.44293 0.805421 1.96419 1.24981 -0.0528423 -0.172316 -2.05255 -3.30345 -2.35518 -1.26816 0.163378 1.61525 2.27719 1.40043 -0.347068 0.104444 -1.55685 0.610359 0.217223 -0.6262 0.652123 0.607733 0.512741 1.98849 0.770962 2.50859 2.6351 2.78833 3.9399 1.85794 2.12396 -0.155721 -0.614615 -0.972873 -1.62655 -2.34856 -2.88191 -3.20094 -1.12205 0.524755 1.4813 0.769739 -0.798571 -0.301551 -0.123245 -1.55411 -1.13828 0.572531 -0.53003 0.792738 0.0754863 1.76477 2.42327 3.52971 3.56819 4.2826 3.37018 3.25638 1.388 1.10455 -1.31381 -2.92594 -2.42387 -3.35437 -3.27196 -4.00542 -0.980687 0.886752 1.17444 1.19186 0.834353 0.590423 -2.12444 -2.16507 -0.771233 0.412667 -0.0280794 0.542569 1.34615 0.852721 1.58151 2.09299 2.36691 2.94617 2.1896 3.19081 1.66304 1.73289 0.286859 -1.19043 -2.71025 -4.20779 -5.55566 -4.75049 -0.890569 2.002 0.976806 0.673455 -0.0768583 0.244073 -1.87702 -1.61838 -0.27982 -0.724992 0.36199 0.100797 0.260601 1.674 0.358348 1.39217 3.20874 2.38393 2.00113 1.56359 0.365584 0.386528 -1.34545 -0.543873 -2.58185 -3.85452 -3.03656 -2.33493 -1.66767 2.02931 1.66291 -0.303471 0.420876 -1.22139 -0.957071 -1.43004 0.772514 0.652178 0.48514 1.15401 1.72998 2.16943 0.90724 0.932249 1.75978 1.13566 1.12417 1.39852 0.694994 -1.05083 -0.955417 -1.74363 -1.38343 -2.56485 -3.71662 -2.48728 0.60246 0.409644 1.70909 1.8586 -0.786811 -0.687167 -0.222703 -0.105105 0.0896186 0.261285 1.11254 0.765231 0.51897 1.47025 1.98061 0.670004 1.31691 2.35403 0.906532 0.574645 -0.378016 -1.9575 -0.77662 -0.904127 -1.30784 -1.28527 -0.450068 -0.985126 -0.310227 0.482334 0.6474 1.43986 -0.594291 -1.4422 -0.926764 -1.60239 -0.221727 0.525372 -1.38099 -0.608975 -0.391975 1.27892 -0.226661 0.0672607 -0.282004 0.382928 -0.0708595 -0.805107 -1.12052 -0.863314 0.0667892 -0.202849 1.32926 1.05983 0.634639 -0.876537 1.52145 1.45198 0.64885 -0.442808 0.58922 -0.0592382 -0.817319 -2.00839 0.296411 0.00932816 -0.0608791 -0.081322 -0.0923009 0.0674337 -0.612032 0.529585 -0.629145 -0.893938 -0.768639 0.294566 -0.693594 0.316356 -0.679676 1.31484 0.868696 0.972236 0.332132 -0.643139 0.667977 1.25565 0.134428 0.285936 -0.780494 -0.430615 -1.74034 -2.48337 -1.27769 -1.33931 -0.583889 -0.361799 -0.539884 -0.550476 0.373029 1.57924 0.918551 0.398778 0.741264 -0.24087 -1.12234 0.197449 -0.452735 -1.69587 -0.81893 -0.80185 -0.748881 -1.3551 0.983712 1.36669 0.295065 -0.311352 -0.770362 -0.555339 -1.36543 -1.4359 -1.12514 -1.34757 0.438751 -0.566845 0.963977 1.13769 2.10414 2.6663 1.95691 0.634349 1.79883 1.54974 1.85076 -0.379244 -0.75942 -0.226847 -1.98426 -2.97348 -3.33645 -2.79724 -1.45256 1.9461 -0.0110926 0.510802 0.226554 -0.859962 -0.938793 -0.519651 -0.927938 0.177029 0.456416 1.10991 2.05441 2.35032 3.69346 2.71546 2.2037 2.99 1.99064 3.51211 3.03328 1.7851 1.2813 -0.327043 -0.733178 -3.14986 -3.59739 -3.53656 -1.96987 0.511509 -0.358917 -0.464566 -0.564367 -1.27338 -2.83314 -2.28957 -1.16809 -0.836144 0.11437 0.749098 2.41181 3.40822 4.41035 3.06199 3.08306 3.36032 2.49925 2.68478 1.701 1.35842 -0.639765 -1.21884 -2.87534 -1.98564 -3.48305 -3.48598 -3.03226 0.531958 0.432131 0.00174126 -0.783498 -0.897426 -1.27769 -0.714365 -1.11788 -0.827044 0.000906393 0.784228 1.59441 2.24794 3.16701 3.02913 3.5273 1.82747 2.34347 1.28372 0.296279 -0.0531142 0.188139 -0.760928 -1.2989 -2.54252 -3.68522 -3.4618 -2.00209 -1.68451 1.29494 1.10517 -1.3591 -1.86947 -1.95049 -1.26204 0.0445405 -0.0911315 0.364812 0.290589 2.15026 2.56339 2.13454 2.10392 2.33191 1.75869 0.243059 1.04554 -0.275265 -1.05904 0.156553 -1.41126 -2.14471 -2.56444 -3.23528 -3.4801 -3.11252 -2.00911 1.49043 -0.534847 -1.51782 -1.4663 -2.95636 -2.18603 -0.809701 -0.122086 0.994515 1.21253 0.989695 1.85458 1.88125 1.69525 2.15713 0.950353 -0.355619 0.286345 -0.266706 -0.810851 -1.49634 -1.47193 -2.82582 -1.68758 -2.96407 -2.87718 -2.3651 -1.66661 0.119867 0.982869 -1.17022 -0.533501 -1.72126 -1.7645 -1.46868 0.480961 0.51361 1.51689 1.54541 2.03835 1.19861 1.40747 1.69591 0.590012 0.796772 -0.314554 -1.54822 -0.121876 0.110355 -1.90389 -3.30118 -3.87407 -2.71903 -2.92169 -2.6178 -0.592447 0.904157 0.934162 0.747117 -0.747669 -2.31 0.109069 -0.84225 0.718101 0.0676546 0.88979 1.50391 2.3084 1.12633 0.246909 -0.213992 -0.40323 -0.956751 -0.366193 -1.19282 -2.59265 -2.45735 -1.54242 -3.54236 -3.57091 -3.03581 -2.00202 -1.50743 -0.154129 0.441891 0.431388 0.320132 -1.04153 -0.812881 -1.18115 0.444303 -0.710939 0.105612 0.0242187 0.143564 1.5891 1.41043 0.908526 -0.383793 -2.17947 -1.03251 -1.25002 -2.64306 -3.58103 -2.46817 -3.28543 -3.44668 -3.7437 -2.11898 -1.14059 -0.582313 2.06775 0.0213555 0.563032 -1.13561 -1.6015 -1.3977 0.00496061 -0.704397 -0.965326 -0.680329 -1.06931 -0.314676 -0.704034 -0.0469769 -0.895652 -1.17739 -3.02132 -3.41311 -3.6521 -4.01729 -4.65482 -3.58519 -4.19116 -3.19225 -2.67939 -1.14668 -0.0599791 0.104532 2.45427 0.147113 0.0600764 0.217212 -0.674406 -1.02675 -2.06308 -1.33979 -0.622359 -2.65006 -0.835655 -1.11934 -0.260394 -1.38463 -1.37322 -2.31377 -2.88218 -5.13824 -4.93294 -5.61213 -4.60052 -3.00731 -2.28446 -1.58074 -1.52902 0.242975 1.38712 0.825105 1.04955 0.22679 -0.045464 -0.697658 0.236871 -1.771 -1.96126 -1.49809 -0.859722 -2.71713 -1.81381 -1.89081 -3.08194 -2.30466 -2.39753 -3.52531 -4.21447 -5.36838 -5.27408 -3.97535 -3.53572 -2.48218 -2.01176 -1.12082 0.335413 1.79247 2.06601 2.14641 1.6827 -0.425521 -0.0641263 -0.00355856 -1.26586 -0.742822 -1.38964 -1.44809 -0.662276 -2.33818 -3.22784 -3.43848 -3.83045 -4.65225 -4.54832 -3.91369 -3.70411 -4.19038 -2.56015 -0.377979 0.713629 1.36512 1.87651 1.88233 2.09412 2.93938 2.5337 2.73292 1.73659 -2.7292 -0.75997 0.175173 -0.563668 -1.66383 -0.261978 -0.169573 -0.56893 -0.0504999 0.549971 -0.902222 0.8796 -1.01383 -0.435423 -1.34553 -1.4734 -0.624941 -0.81857 -0.256702 -2.43565 -3.15646 -2.13645 -1.94066 -2.00863 -2.77625 -3.32733 -3.92114 -2.54103 -2.73571 -0.43545 -0.849218 -0.202175 -0.12668 -2.08138 -1.27066 1.25233 -0.198922 0.0277134 -0.7057 -2.21523 -2.38347 -2.00681 -2.87678 -2.28171 -0.666055 -1.63981 0.528357 0.184593 -1.55458 -0.596801 -2.88142 -2.62426 -2.80423 -2.41081 -3.26765 -3.35159 -2.19703 -0.820976 -0.0609824 0.192798 -0.33152 -1.56369 -1.06971 -1.09461 -3.13917 -3.20806 -0.983185 -1.72832 0.117788 0.849093 -0.977482 -0.851214 -0.888561 -0.591406 -0.607347 -0.0715909 0.321518 -0.996605 -1.55504 -0.0658926 -1.18895 -1.98546 -1.28044 -3.55791 -1.20994 -0.180902 0.737412 0.163747 -0.815757 0.245944 -0.642097 -2.27538 -1.55374 -0.865401 0.421253 1.43158 1.64344 0.128175 1.05561 -0.0345682 -1.45436 -1.39858 -1.8083 -1.27484 -0.967112 -0.236919 -0.881619 -0.799315 1.09758 -0.0388415 0.355269 -2.2039 -0.911637 1.05397 0.640967 0.335054 0.918002 -0.30915 -1.13925 -2.22893 0.138267 1.65016 -0.664257 -0.424666 0.0279439 0.437832 -1.30291 0.255205 -1.60128 -1.26282 0.201763 -0.550093 -0.252738 0.740276 0.146031 1.2792 0.119477 1.06936 -0.253721 -0.565692 -0.163408 0.6223 1.30083 0.303023 -0.881133 -0.159732 0.447944 0.461159 0.515051 0.620596 0.798201 -1.72723 0.0319849 0.999149 -0.295618 -1.04906 0.44747 1.28884 1.95606 1.26969 1.08314 0.507763 0.778348 -0.0801652 0.0759162 2.42189 1.44968 1.07001 -1.89501 -0.871945 0.198231 -0.323525 -1.07106 -0.903574 1.23312 1.10622 1.85945 0.924569 -0.269996 -1.2958 1.08558 2.20442 -0.275887 -0.539393 0.252327 1.75864 1.6275 2.11956 0.257913 0.521008 1.40117 0.980788 1.97854 1.78449 2.47047 1.09872 -2.52395 0.352294 0.492645 0.471228 1.51492 1.73774 0.793926 1.54574 -0.742382 0.518808 0.580607 -1.72704 -0.0639193 -0.299301 -2.52234 -0.961253 -1.17091 0.480867 0.0486409 0.298174 -0.399304 0.222491 0.749004 1.59749 1.272 2.00508 0.623854 0.741104 -0.263722 0.112915 0.839672 -0.468475 -0.61996 -0.448275 0.118079 -2.31525 -1.54816 -2.39545 -1.5311 -0.37434 0.801769 -0.596673 -1.54871 -1.9123 -1.3053 -0.0205485 -0.427234 0.00938273 -1.65719 -0.681897 -0.872026 0.534495 1.50237 1.57086 1.48962 1.06383 -1.3497 1.05996 0.827781 -0.676829 -1.83712 -1.56022 -0.457212 -1.03286 -1.87732 -2.19716 -2.2236 -0.968595 -0.279745 0.744554 0.120262 -0.759127 -0.12153 -0.0216844 0.454995 -0.0201941 -2.22024 -1.30456 -0.241323 0.00530977 0.8076 1.42862 0.517961 1.4885 -0.51131 1.56725 0.609023 -0.974099 -0.888047 -1.05516 -0.305724 -0.796025 -2.02932 -1.73153 -0.779145 0.336638 -0.893246 -2.01987 0.473174 0.821941 1.59492 -0.0636704 -0.816458 0.0985849 0.194226 0.11324 0.516487 0.933127 0.382562 0.254832 0.239178 1.07753 -0.765974 0.228308 1.28342 -0.100352 -2.74049 -1.65675 0.489691 -1.90081 -2.31635 -1.79265 -0.949214 -1.41166 -2.7071 -2.05877 -1.14981 -0.624186 1.71392 -0.215666 -2.01173 0.213117 -0.154948 -0.193005 -0.313114 0.340384 -0.177709 1.63626 -0.0490687 1.68623 -0.618702 -0.0166983 1.07019 -1.06346 -2.52894 -0.964656 -1.45957 -1.31239 -0.958125 0.013466 -0.575631 -2.28575 -3.75204 -3.8839 -1.52232 -2.50409 -2.70291 -1.9098 -2.91524 -2.00453 -0.17719 -1.41671 0.384595 -0.0750315 0.113864 1.21873 0.245025 0.876274 -0.489363 0.394599 -0.241059 -0.987836 -2.48472 -0.327438 -0.728955 -0.951995 -1.00156 -0.673285 -0.745216 -1.92179 -2.95949 -3.30237 -3.29718 -3.02574 -3.85195 -3.43262 -2.57624 -2.35377 0.0156585 -1.45419 -0.459418 -0.0243642 0.221114 0.436827 0.278974 1.93671 0.562831 0.689077 -0.106502 0.61297 -1.57564 -1.03351 -0.525007 -0.353949 0.410976 -0.121061 -1.10312 -3.50434 -4.36806 -4.23528 -3.12052 -4.92923 -4.77039 -3.10993 -4.12425 -3.46058 -1.30075 0.982385 1.37919 0.855753 1.26325 1.50927 0.179813 1.39877 0.529745 1.05044 1.12147 0.923203 -0.559062 -0.0109191 0.0231346 -1.22926 -0.430518 0.292415 -1.10776 -2.3601 -2.75274 -2.87645 -2.28402 -3.51164 -2.81902 -1.03932 -1.99466 -1.2251 -2.51903 -0.737827 1.89166 1.28503 -0.0747205 1.67457 2.27841 1.39748 0.729014 2.35858 1.98203 -0.0454664 -1.25444 1.30524 -0.390237 -0.570538 -2.68287 -0.401555 -2.68288 -3.20244 -2.30098 -0.566916 0.117747 -1.94655 -2.43131 0.311144 -0.140201 -0.355892 -1.21664 -0.231715 1.12985 2.10227 2.63175 3.01602 2.67204 3.12655 -0.109714 1.63266 2.57036 -0.401197 0.0330475 0.329626 0.973748 -0.674824 -2.70687 -1.91175 -1.41454 -1.77198 -1.61647 -1.29448 0.578581 -0.743522 -0.78187 -0.116521 0.534886 -0.255156 -1.77477 -0.374639 2.47456 3.01512 2.7361 1.98798 1.60433 1.86339 -0.0415648 1.28885 1.35183 -0.0638231 -0.687722 -0.435881 -0.0474603 -0.768189 -1.73719 -1.18975 -1.16318 -1.03397 -0.824873 -0.608558 -0.497911 -1.5729 -0.949657 -0.00508363 1.53157 1.22175 0.447606 1.0248 2.20813 3.0351 3.25823 2.69647 2.23919 1.56892 -0.134498 0.56558 3.5191 1.22937 0.558346 1.88142 0.645392 -0.330731 1.08303 -1.09659 -0.948524 0.00727397 -0.0647726 -1.57978 -0.972679 -1.92954 0.582925 0.336271 0.427163 0.472658 -0.682543 0.288601 1.41768 1.28452 1.15975 3.03982 1.39191 2.28442 0.73013 -1.00784 1.46334 2.69303 1.18592 0.29982 -0.414164 -0.917748 -0.906182 -2.11563 -1.40815 0.714309 -0.361249 -0.640854 -0.920001 0.513139 0.0404606 -1.19456 0.838921 -1.18189 -0.819406 0.914253 2.40516 1.86959 2.38707 1.12183 0.643656 2.11211 -0.676722 -1.07836 0.684561 0.900796 0.821893 -0.613822 -1.20728 -1.85713 -1.96444 -1.73683 -0.684093 0.0926896 0.150002 0.130923 -0.680806 0.524351 0.611423 0.272504 -0.213625 0.640266 2.3504 1.41704 1.89804 1.74945 2.7904 0.784133 1.81374 0.975063 -0.324098 -1.54199 1.73523 1.08999 0.484643 0.309034 -0.92388 -0.833192 0.192049 -0.777914 0.404417 0.65341 0.558302 -0.0338739 0.793547 0.845831 2.37469 1.00695 1.20958 1.89039 3.09145 2.67777 3.08002 2.99767 0.573155 1.56478 1.70742 2.02517 0.341231 1.7523 2.07127 -0.0605588 1.07981 -0.228528 -0.253093 -2.15288 -0.740918 -2.21447 0.0268257 2.30931 1.68311 0.575743 0.674238 1.92756 2.03044 2.99367 1.78702 1.7499 2.46088 2.4387 2.85775 2.00138 0.917742 -0.305207 0.204826 0.828467 0.867256 0.878964 0.781155 0.601279 -1.06577 -0.119226 -0.748523 -2.88281 -1.53077 -0.301554 1.49577 1.70556 3.38476 1.87074 3.61981 1.65081 1.97941 1.75513 2.36628 2.11544 2.7338 1.06239 2.32953 1.81305 -0.172545 0.590261 0.250526 0.0848442 0.923492 1.52737 1.36695 -0.497049 -0.975948 -0.772054 -0.223091 -2.53288 -1.65931 0.37048 1.01004 1.84748 1.96452 1.85193 2.32361 0.976748 1.74224 2.16571 0.284854 1.48613 1.62266 0.216416 1.64463 0.208898 -0.113307 0.148606 -1.64472 -0.134324 0.575104 0.102995 -0.5804 0.659337 -0.360327 -1.20662 -0.584719 0.0575207 -0.256724 2.68889 1.32604 2.87512 2.29427 2.407 1.08861 2.22407 3.11932 2.04127 1.48639 0.700018 0.599035 1.42745 0.709765 1.01111 -1.44095 -0.532057 -1.06284 0.282811 -0.21767 -0.521696 -0.494518 1.66071 0.363934 0.041212 1.41593 2.61358 2.22002 2.77112 3.78237 3.88505 4.61066 3.80476 1.9029 2.08437 1.83868 1.48792 1.45532 1.16257 -0.119717 0.0258844 0.814669 -0.0721816 -0.697419 -0.634337 -1.16702 -1.38682 -2.14491 1.41549 0.608977 0.0406781 -0.241694 0.586004 -0.127156 1.20521 0.434377 1.02399 1.70048 0.729855 0.703972 0.0744347 0.704312 -0.340897 -0.798215 0.400338 -1.991 -1.54003 -2.78217 -2.65138 -3.68674 -3.51645 -2.71662 -2.32351 -2.4631 -3.26014 -1.94083 -1.56155 -0.52394 -0.368973 0.871372 -0.593856 -0.58733 0.749892 0.904862 2.04661 0.863394 0.0167964 -1.17017 0.171338 -0.510079 -0.445605 -0.541195 -0.309716 -1.11727 -0.350942 -0.485349 -1.6836 -2.63155 -1.93057 -1.92955 -2.2724 -3.7542 -3.37704 -2.99398 -0.516419 -0.0622384 -0.389573 0.372525 0.934412 -0.0536516 1.52309 0.162468 0.48013 -0.516069 -1.38688 -2.39678 -1.14171 -0.844118 -1.01955 -0.413886 -1.19806 0.993366 1.22509 0.209522 0.63586 -0.622443 0.283075 -0.72442 -1.8479 -1.11422 -2.4823 -2.38207 -1.26101 0.814573 0.576464 -0.749353 -0.124256 0.407421 -0.0224978 -0.714153 0.227772 -0.748158 -0.988779 -1.69897 0.0206588 0.133314 -0.770668 -0.531406 -0.483903 0.616793 1.04097 -0.486078 -0.167299 -0.181944 0.127662 -0.862514 -0.228184 -1.0138 -1.98598 -3.01496 -2.43885 0.0379278 0.677853 0.422074 -0.264839 0.466071 -1.1633 -0.893122 -0.901378 -0.200752 -0.116724 -0.869829 -0.432736 -0.684248 -0.693155 0.794864 0.370466 0.221826 1.03603 0.331184 0.693995 0.455034 0.950158 1.65573 0.0137094 -0.150406 -1.40772 -0.73358 -0.742705 -0.947695 1.35108 -0.65046 -0.524877 -0.184608 -2.0977 -0.309736 -0.800912 -0.873084 -0.135113 -0.56035 0.101532 -0.179967 0.316563 0.344136 0.245524 -1.22698 0.376799 0.269832 0.350633 -0.104027 1.48424 0.712848 1.86106 1.29664 0.0570917 0.899681 0.281091 -0.181453 1.06022 0.379264 -1.87868 -1.38001 -2.59425 -0.447837 -1.33857 -1.40543 -0.350806 -1.1931 -0.175688 -0.916363 0.0993542 -0.944873 -1.3836 -0.3017 -0.343536 1.70328 0.670985 0.0795738 -0.103024 1.95126 1.7319 2.55041 0.883426 1.96649 0.953663 0.493103 0.808664 -1.67756 -1.95621 -2.19649 -2.17447 -1.35615 -0.818177 -0.460416 -1.9362 -0.375089 -0.252598 -1.60081 -0.383522 0.129542 0.500631 -0.532293 0.251072 2.39284 1.33695 -0.112117 1.99175 2.34841 1.83626 2.56872 3.57962 3.63439 2.51189 0.0463325 -0.0843254 -2.56036 -2.23325 -2.14259 -0.548434 0.437851 -0.79325 -0.58997 -0.474561 -1.38936 -1.75249 -1.52422 -0.27439 -1.05249 0.236046 1.34051 1.94729 0.501697 0.245634 -0.083666 0.380769 1.91492 1.81339 3.632 5.24678 5.06875 3.7244 0.740381 -0.358577 -2.99341 -2.32713 -1.90677 -0.724996 0.0719609 0.686262 -0.867609 -0.258424 0.0870727 0.173382 -0.489328 -1.47191 -0.373785 0.436886 0.121201 1.3121 0.39001 -0.137035 0.200474 0.314027 1.69536 3.07633 3.85498 5.68356 6.7849 5.83861 0.484187 -1.34418 -2.48472 -3.38177 -0.547641 0.296389 0.862659 -0.373684 -0.972668 -0.299444 -0.399575 -0.972981 -1.06261 -1.40089 -2.01411 -1.20535 -0.626469 0.170566 -1.11181 -1.33531 -0.353941 0.663026 2.14878 1.52491 5.43271 7.02019 9.17482 4.94387 -0.771143 -1.61607 -2.25076 -1.47407 -2.21672 -0.444959 0.924503 -0.746682 -1.11503 -1.08531 -1.38572 -1.37988 -2.29291 -2.17133 -2.33244 -1.36561 -0.0310878 -2.17973 -1.74682 -1.43638 -2.61379 -1.51413 0.213696 2.77284 5.98578 8.55864 9.12678 6.54381 -1.4214 -0.435254 -1.39322 -2.37997 -1.15644 -0.806366 -1.0746 0.191763 -1.62747 -2.28188 -2.27181 -1.6523 -2.25977 -1.72543 -2.65684 -2.86945 -2.49562 -2.69046 -3.10491 -3.41166 -2.4872 -0.35587 1.14064 2.22723 6.67525 8.31617 9.35634 7.29428 -0.454179 -0.542616 -2.06604 -0.392548 -0.966693 0.296171 -1.09344 -2.26829 -1.15084 -0.837195 -2.26203 -1.1875 -1.65913 -2.46545 -2.25885 -2.34765 -0.706964 -1.6208 -2.51279 -1.43952 -1.65197 -1.23013 1.24089 3.40588 4.6576 6.4631 7.43436 6.90436 -1.01108 -1.42268 -2.12938 -1.15674 0.297177 -0.598849 -0.7732 -1.85979 0.358422 -0.123949 -1.28207 -0.959132 -1.29204 -1.57235 -1.71157 0.17418 -0.895062 -0.641433 -1.61699 -1.93828 -1.8886 -0.832019 -0.386686 2.39208 4.80716 5.60133 7.65017 6.31434 -0.937531 -0.0840117 -0.54483 -2.01482 -1.24569 0.388754 -0.131014 0.524625 0.660002 0.189585 -0.930965 0.787339 -0.205856 -0.589426 -0.62915 0.506287 0.202378 0.225471 0.00321679 -0.0365718 -1.20994 0.569966 1.17418 0.171304 2.24607 4.57114 6.56714 4.74396 -0.511848 -1.00047 -0.955372 -1.69214 -0.0466636 0.226845 0.533903 1.07642 0.0183424 0.509249 0.329971 -0.277298 0.474698 0.526378 0.830955 1.49024 1.74618 -0.139932 -0.631824 -1.1499 0.208105 1.61928 0.91135 0.585682 2.61928 3.57479 4.50841 2.68025 -1.02438 -1.8048 -2.08886 -1.34761 -0.974252 1.26802 1.24266 1.8198 1.44661 1.31308 -0.0566243 0.42752 0.662471 0.573493 0.864105 1.05492 1.64057 1.16782 1.608 -0.777086 0.582581 1.04011 0.167279 1.64214 1.74028 3.86143 2.93408 0.971819 -0.743081 -2.67845 -2.59605 -0.487313 -0.801322 0.253488 0.549289 1.78047 1.40759 1.35643 0.0207274 0.158077 0.449945 0.0146463 0.84183 1.76163 2.06977 1.42553 0.972697 0.259141 0.71399 1.9094 1.15945 1.3269 1.10187 2.60201 2.03377 -0.304069 -0.893585 -2.01467 -0.868607 -1.13505 -1.87758 1.16704 0.751604 1.3438 1.25269 1.57126 -0.16198 -1.06228 1.0248 0.412856 1.39485 1.07767 0.850545 -0.0838935 -0.110726 1.30914 0.0192191 2.02057 2.47199 0.574475 1.6503 1.55449 1.28724 -1.42971 -0.251235 -0.645974 -2.11412 -1.71014 -1.29547 0.3495 -0.474781 0.00892985 1.09642 0.79379 -0.741501 -0.650575 0.645289 0.618394 0.172508 0.654183 -0.218904 -0.139345 -0.149311 1.23873 0.733083 0.74665 1.07253 0.470765 0.421719 0.255987 -0.614083 -1.6678 -0.301409 0.787524 -1.35514 -1.51795 -1.78782 -0.576486 -1.04881 -0.610964 -1.00057 -1.15582 -1.35509 -0.862284 -0.206895 0.367432 0.863578 -0.129717 -0.580797 0.847387 0.942149 0.242495 0.660349 0.333967 2.05328 0.595056 0.299281 -1.00297 -2.85368 -1.50521 0.229216 0.106431 -0.084209 -0.583545 -0.0443311 0.0690015 -1.92286 -0.364383 -0.203612 -0.970404 -1.12656 0.582089 0.411722 0.276698 0.175884 1.83668 1.37982 1.30326 2.16762 2.57786 2.32985 2.45209 -0.0720536 -0.548108 0.278024 -1.10352 -1.52815 -1.7255 -0.0441764 0.368503 1.14229 -0.377027 -1.28017 -1.68919 -2.39031 -0.271065 -0.652653 -1.37847 -0.750782 -1.48823 -0.335861 -0.594286 0.00333115 -0.073225 0.254522 -0.0776344 0.000381257 0.876889 -0.0286207 0.978452 -0.78761 -0.267283 -2.36544 -2.24653 -2.83805 -0.895834 0.84252 2.15679 0.335649 0.717056 0.917949 -1.01198 -1.42387 -1.13302 0.0683284 -1.81001 -0.210732 -0.833401 -0.0675529 0.699161 0.420741 -0.619655 0.410361 0.312198 0.528651 -0.294159 -0.128669 -1.20498 -0.846429 -1.61276 -2.7822 -2.7249 -0.470555 -0.846175 2.09843 3.41291 1.67447 1.42615 1.48371 0.928659 0.993713 0.749275 -0.519095 -1.71119 0.0374469 -0.921481 -0.296488 0.92955 0.9549 -0.686133 0.372489 0.269969 0.305243 -0.802195 -0.189635 -0.791102 -2.46238 -2.53681 -2.98955 -2.1678 -0.258645 0.858493 1.58508 3.24669 4.24742 2.34322 1.47759 1.42829 2.63302 1.18187 0.552012 0.912274 1.2396 0.173253 0.393219 0.867733 1.47223 -0.458713 0.065014 0.523901 -0.265296 -1.68869 -3.03394 -2.00522 -2.51161 -1.35139 -1.92554 -0.574386 -0.348476 0.990586 0.491225 1.67343 2.72866 2.50024 2.4566 2.17099 0.823528 0.710761 0.341241 1.61943 0.110406 -0.104695 0.161732 -0.278216 -1.02399 -1.37868 -2.61354 -3.02158 -2.12658 -1.96459 -1.6811 -1.00347 -1.19097 -0.931725 -1.42628 -2.33754 -0.314298 -0.811938 -0.0700579 1.67913 3.18391 3.25808 1.58302 1.43824 1.91864 0.472844 0.375763 1.1504 -0.764836 -1.28002 -0.106979 0.177106 0.162867 -0.339962 0.767623 0.128354 -0.388608 -0.0161684 -1.06378 -2.51872 -1.5962 -1.97574 -2.45057 -1.27437 -0.422845 1.33779 1.41476 1.20027 1.21576 1.97702 1.32284 1.94425 1.356 1.58429 0.146521 -0.511308 0.797499 -0.253615 1.16888 1.6848 0.899902 1.14484 0.88366 1.28906 0.326763 -0.766887 -0.839544 -1.44764 -1.44654 -2.16505 -1.70904 -0.860991 -0.663506 0.542981 1.06558 1.31668 2.20866 1.94718 0.918037 1.41795 0.102562 1.06824 0.791149 0.917805 0.0517351 0.579602 -1.22103 -0.29468 -0.414649 0.559413 -0.533806 0.375728 -0.583697 0.201459 0.746786 -0.322117 -0.326629 -1.40763 -1.99824 -1.34074 -0.835953 0.27381 0.57647 0.850386 1.48933 0.601857 0.641856 0.553378 1.3851 0.648778 0.575896 -0.140409 -0.299511 -0.386716 -0.906488 -0.396452 -1.35448 -1.64731 0.103878 0.085587 -0.323174 0.681406 1.0121 1.02896 0.707536 2.41515 -0.0670431 -1.48599 -1.32617 -0.0167623 0.295899 0.980283 0.375262 0.298594 -1.23123 0.801942 2.08585 1.85998 -0.246931 0.292469 0.478741 0.431463 -0.00238676 -0.41936 -1.94391 -1.90129 -0.25068 -0.170738 0.154572 1.84371 2.63419 0.620091 2.06462 1.56215 2.26757 1.17533 -1.64087 -1.10216 1.47573 0.432177 0.629333 -0.578664 1.23939 1.38624 1.26818 0.0271785 -0.31016 -0.0407953 0.592486 0.245872 -0.686082 0.516897 0.208553 -0.229612 1.79751 1.05981 0.1228 1.25272 2.44881 1.33919 2.42079 2.36307 2.35311 1.601 -1.19888 -0.0456896 1.16962 0.475196 1.10724 -0.00538765 0.638947 1.08228 -0.270129 0.629015 -0.417983 0.874863 0.209084 0.234302 -0.659877 0.588725 1.80813 1.47203 1.94522 2.75937 0.757856 2.59789 1.2547 1.14227 1.46164 0.646322 1.17077 0.515712 2.40057 1.06181 2.8781 2.21868 1.81385 0.432056 -0.271317 0.606626 1.43106 1.45782 0.48657 -0.0857349 -0.603684 -0.0725051 0.647673 1.11869 1.12811 2.79801 2.4706 3.13124 2.34389 1.53731 3.1211 2.70392 1.06856 0.531072 -0.0856011 2.24019 2.45411 3.47702 3.59953 1.27797 0.168948 1.22069 0.116624 -0.447419 0.644417 2.12137 1.45289 -0.131455 -1.4087 -0.379303 -1.08082 -0.208589 1.39516 0.846622 1.56426 0.711102 1.6214 0.692942 0.462381 0.966714 1.80935 2.66002 1.07213 1.82731 2.69207 4.17069 4.25176 1.68146 0.474209 1.06526 -0.162082 0.442217 1.86807 2.5699 0.780033 -0.884325 -1.63396 -0.332874 -1.26419 -0.43939 0.475734 1.9038 0.751992 0.563607 1.1027 0.0965592 0.201664 0.700987 1.40673 0.95775 0.725225 2.94885 3.0413 4.96388 4.71904 0.872988 2.18185 1.04132 -0.21078 0.173305 1.50045 1.96308 1.01482 -1.03674 -1.89537 0.300355 -1.12104 -0.516524 0.893737 0.910239 -0.0929414 0.19496 -0.612814 -1.38568 -0.130989 0.00216642 1.01674 2.08567 1.23513 3.51641 5.51923 4.66612 4.28733 0.632852 2.05274 0.506345 0.731549 1.40577 1.77572 2.07656 0.882692 -1.4039 -2.15266 -1.11393 -0.77508 -1.10053 -0.964734 0.142006 0.425581 -0.794865 -1.27792 -0.996904 -0.399201 -0.380575 -0.235568 0.789009 2.15379 3.33268 3.32047 6.1132 5.12908 2.65647 1.37289 1.43938 -0.26853 1.35339 0.833961 0.753822 -0.955212 -2.05463 -3.25184 -4.0254 -3.2671 -4.04936 -3.1381 -3.31142 -1.89524 -3.60089 -3.56231 -2.55538 -1.37385 -0.674879 0.356557 0.158374 0.992349 2.68822 3.72293 5.38346 5.85477 1.88969 1.76223 1.50612 0.120763 0.585065 0.19395 0.448625 -1.70945 -3.49241 -4.70253 -3.31643 -3.87152 -4.24029 -4.78594 -3.64666 -4.30521 -2.44558 -2.61483 -2.07837 -2.43714 -1.59867 -0.889478 0.132168 0.273523 3.2285 4.54599 6.39845 5.94018 1.42743 1.24823 -0.282545 0.415722 0.671836 1.4054 -0.550675 -2.16216 -2.65258 -3.56013 -4.03571 -2.9747 -2.26924 -3.38599 -3.28518 -2.70691 -3.02624 -2.59655 -2.76693 -2.13853 -1.43579 -1.77077 -0.849353 1.04032 3.24606 4.93451 4.84719 5.84218 2.44399 2.61929 0.0635247 0.482264 -0.197976 0.242485 0.041143 -0.552196 -1.84221 -2.49112 -1.68204 -0.099035 -1.67597 -0.309633 -1.38635 -2.05041 -1.90169 -1.45533 -1.60121 -1.27071 -1.1724 -1.19625 1.19644 2.18665 2.50272 3.30615 5.67719 4.64743 1.54759 2.23677 -0.406027 0.432171 0.78331 0.160433 0.558009 0.790709 0.363759 -0.53598 -0.444104 0.650652 -0.0396031 1.72079 0.647878 0.946524 1.4114 0.347356 -0.657656 -0.646286 0.526913 -0.245172 1.79096 2.52424 2.20495 3.77068 4.67716 4.98027 2.65593 1.64426 0.105358 0.805817 -0.105973 -0.0454646 0.830723 -0.195934 0.887944 -0.0369777 0.800863 1.19152 0.319827 0.430968 1.60369 2.31742 2.27415 0.780807 1.05432 2.1217 1.41024 0.895302 2.27248 2.13511 2.45804 3.76732 3.45856 3.26752 1.35823 1.52012 0.971184 1.07468 -0.559408 -0.665677 1.39286 1.2646 0.241883 -1.31739 0.711582 0.179991 1.14495 1.83101 1.97823 2.12992 2.38693 1.53731 1.83086 2.81218 3.68556 2.43965 2.7087 1.37045 3.29606 3.51529 1.89527 2.62382 0.966036 1.76733 0.461706 -0.559273 0.604935 0.821582 0.217354 1.3861 -0.104863 -0.761457 0.0494524 1.32693 1.12579 1.05999 1.7727 2.31636 2.71481 1.91338 1.9446 2.24849 3.42232 4.2336 3.67956 2.26131 2.34113 2.88035 2.93042 1.38097 1.86148 -0.239994 -0.197324 0.4844 2.02981 1.04447 2.05316 0.381519 -0.00799797 -2.20869 -0.0825053 0.096108 1.14602 0.256908 0.809113 1.77991 1.87185 1.87188 2.43361 1.60598 1.89957 2.14064 2.58556 2.25581 1.65803 2.33668 1.06659 0.238744 1.05102 0.264779 0.248742 0.185558 1.39238 1.47495 0.557584 0.170725 0.0479762 -1.44619 -0.947544 0.200866 -0.238276 0.606068 1.03109 2.13269 1.6161 1.94381 1.41817 2.85219 1.98703 3.27763 1.39542 1.25805 1.21281 1.59513 -0.754798 0.189466 0.973968 0.0762537 -0.851534 0.665068 0.887736 0.732718 0.320848 1.50361 0.617073 -0.414051 -0.718635 -0.654405 -0.626353 -1.07898 0.245976 1.63504 1.88196 2.33141 1.40893 0.716316 2.38766 3.23691 1.09123 0.609089 1.8909 -0.0738349 -0.302833 1.70832 0.874836 -0.0595635 0.531631 1.14145 1.46811 0.710396 1.11168 2.0606 0.655483 1.05424 0.39882 -0.345984 -0.275002 0.0856767 0.970966 0.989819 1.85602 1.90954 0.0576151 1.45465 3.14129 2.2559 1.45679 1.11821 0.337243 0.837935 0.719297 0.732306 -0.196034 -0.614225 -1.53194 -0.476144 0.661045 2.26374 0.0692445 1.43726 0.27811 1.50645 0.16432 -0.933629 -1.36242 0.823485 0.905516 1.61719 1.22759 0.45519 1.38387 2.00768 1.35641 0.977619 1.18815 -0.620796 0.976694 -0.282665 1.20845 1.02477 0.50645 0.107787 -0.114086 -0.466419 0.508982 0.5123 -0.74585 -0.225925 -0.344863 -0.290488 -0.537648 0.0114289 0.550293 -0.057527 0.197194 -0.67583 1.0272 0.897027 0.209748 0.535843 0.955521 -0.0494287 0.0187843 -1.4323 0.452031 0.108302 0.198622 1.27007 2.31281 1.93322 -0.199354 0.493297 -1.32075 -0.310737 -0.484197 -0.555614 -1.18466 -1.12835 -0.392242 0.834717 0.335929 0.233396 -0.279826 0.503508 0.73383 0.299455 1.08443 -0.395169 -0.110654 -0.541648 -0.633715 0.0722731 -0.177462 0.326003 0.816315 1.6576 2.05864 2.22215 0.620173 1.17677 -0.0782693 -0.8298 -1.55769 -0.849387 0.175598 -0.139102 0.46077 -1.01645 0.475588 -0.42117 0.725019 -0.428378 0.846729 -0.745003 0.324994 -1.04495 -1.42 -0.602672 0.290583 -0.267165 0.398855 0.376565 1.25669 1.2018 -4.05137 -0.432299 -1.69628 -0.979764 -1.22737 -2.39514 -1.90142 -1.89566 -1.36398 -2.18212 -1.96585 -1.98984 -2.86037 -1.46545 -0.977913 -2.47959 -0.761555 -1.35052 -1.84104 -1.25106 -1.80606 -2.55673 -2.57971 -2.80789 -3.37564 -2.67387 -1.78649 -1.53277 0.0504877 -0.589097 -0.637243 -1.01338 -3.11622 -2.8735 -2.74489 -2.4471 -3.37953 -2.36344 -2.60699 -2.11296 -3.59896 -2.64187 -1.7463 -1.93063 -1.01686 -2.45659 -1.64874 -0.205164 -1.45064 -2.3399 -2.39939 -2.45132 -3.47493 -2.94788 -1.44378 -2.39864 0.027763 -0.0323344 -0.822435 -1.58633 -3.10786 -4.16819 -3.35868 -2.10369 -2.2636 -2.51969 -2.90156 -2.70981 -3.79161 -3.16959 -2.17187 -2.13881 -1.16273 -0.130058 -1.51818 -0.34905 -1.26267 -0.718459 -2.09655 -1.50584 -3.52302 -3.22809 -1.75386 -1.74745 0.216838 0.639306 -0.136508 -2.26673 -2.44856 -2.56992 -3.75587 -1.61811 -3.91441 -2.21612 -2.22066 -1.434 -0.604934 -2.14129 -2.18708 -1.39059 -1.59453 -1.57092 -1.30027 1.38116 -0.144999 0.106153 -0.0491918 0.137499 -1.69603 -1.83995 -1.16088 -0.912429 1.19529 1.8557 0.624356 -2.37754 -4.83676 -3.43374 -2.97689 -1.44657 -2.03656 -1.28659 -0.961512 -1.32454 -1.34707 -2.4181 -2.42695 -1.52691 -0.658218 1.19403 1.10362 1.58297 0.264122 0.966733 1.68011 1.03923 0.68091 -0.50342 0.135785 0.493105 1.44518 1.31202 0.0777806 -3.98472 -4.28725 -2.40974 -1.20417 -1.55356 -1.44553 -0.90067 -0.845577 0.0929369 -1.17838 -1.35375 -0.947311 -0.257027 1.45016 3.11836 3.45348 2.99101 2.31674 1.66235 2.3862 2.2925 0.94443 2.15818 1.35228 1.90081 2.50842 0.906365 -0.510507 -2.65367 -3.86408 -3.24487 -2.21766 -1.7142 -0.983967 -0.0173796 -1.06692 0.386869 -0.2704 0.807981 1.05193 1.01603 1.9114 2.645 2.21683 2.37725 1.42093 1.85068 2.32966 2.6863 1.29624 1.18472 3.43021 3.02753 3.35354 0.27105 -1.17378 -2.20049 -2.79357 -3.80016 -2.97865 -1.94837 0.358691 0.725449 -1.80959 -1.0967 -0.639509 0.226204 0.458838 0.897431 2.75694 3.55467 2.11624 1.48944 2.44326 2.12888 2.93797 2.28828 0.975291 1.86042 3.2773 4.2523 3.50949 0.575774 -2.53293 -2.80791 -4.13117 -2.65626 -2.33169 -1.33253 -1.39942 -0.523716 -2.63733 -1.68148 -1.03717 -1.18359 -0.593784 0.389324 3.19199 3.84548 2.3149 1.21737 0.674435 0.549634 2.23588 1.40254 2.23211 1.78999 3.36225 3.75287 5.1284 -0.809519 -1.31364 -3.50599 -3.2542 -3.98465 -2.61497 0.72463 -0.260869 -1.60226 -4.35853 -2.50823 -2.01038 -1.87028 -0.900816 1.19919 2.26722 0.938123 0.800446 1.92558 -0.542878 -0.183352 0.921946 2.13085 1.51127 1.24394 2.02775 4.50368 5.73079 -0.716237 -2.59934 -3.75779 -3.99736 -3.72344 -0.571538 -0.629391 -1.75629 -1.18779 -3.46547 -1.91529 -1.64266 -1.71324 -0.920051 -0.0923171 0.657385 0.232962 0.551211 0.486632 -0.417495 0.00178382 0.946452 1.2055 1.78733 1.83137 3.3968 5.40236 6.95002 -0.755312 -2.37193 -4.04707 -3.68541 -2.96772 -1.65132 -0.0442356 -1.38043 -3.18344 -3.68815 -1.81729 -2.25632 -2.63605 -2.44896 -2.15798 -1.25859 -2.05639 -0.516543 -2.31667 -2.14684 -2.44996 -0.909876 0.57308 0.449605 0.886942 3.75248 6.86792 6.0805 0.128888 -2.74987 -3.06336 -2.39021 -2.97022 -1.8206 -1.99475 -2.99074 -3.91491 -4.11676 -2.74567 -4.0815 -5.13281 -5.42514 -4.78769 -3.19352 -2.66489 -3.5168 -3.8566 -4.12245 -2.74015 -1.45228 -0.0261345 0.88772 1.87643 3.72942 5.0159 7.43877 0.549387 -2.92843 -2.90765 -3.08494 -2.93441 -2.18868 -2.39139 -1.9145 -3.50656 -5.3538 -4.85838 -5.17709 -6.53598 -5.79624 -5.54335 -5.25458 -6.62984 -4.54858 -4.6928 -5.28776 -3.72116 -1.69874 -0.946063 0.160052 2.01482 3.44966 4.93026 5.61778 -0.14744 -2.54826 -2.88629 -3.48654 -2.47439 -0.850912 -0.91622 -1.75986 -2.18778 -3.16896 -1.92207 -2.32146 -3.80447 -3.20099 -3.94562 -3.40767 -3.89044 -2.477 -3.32119 -2.89578 -2.12877 -3.65595 -2.65278 -0.0509301 0.650151 3.2183 5.52049 6.33006 0.79471 -2.06227 -3.65177 -3.48503 -0.714528 -0.464301 -0.368867 -1.56469 -0.95484 -1.33299 -1.87811 -1.71842 -0.294056 -0.726536 -1.85593 -1.4437 -0.449425 -0.384456 -1.01035 -0.219975 -1.5376 -0.50145 1.0058 1.4062 2.77372 3.27928 5.36639 5.96711 -0.95563 -3.05778 -4.38967 -4.49864 -2.91266 -1.97295 -0.728555 -2.74653 -2.54675 -1.73747 -1.15218 0.201035 1.50745 0.505078 1.49689 1.44319 0.818772 1.18022 1.54128 2.20336 1.8076 0.552095 1.89214 3.05362 2.55552 1.77508 2.71377 4.36985 1.09055 -1.53303 -4.64143 -3.86694 -2.64774 -1.07553 -1.8382 -2.22852 0.0920552 -0.793411 -1.27084 1.98724 2.47792 2.18281 2.73127 2.84924 2.26639 3.33464 2.0856 2.68222 4.47252 2.39883 1.50924 2.32493 1.92809 2.40904 1.61518 2.05777 1.25674 -2.66104 -2.97722 -1.40646 -2.45725 -2.0228 0.273537 -1.07439 0.309733 -2.02141 -0.721049 2.41002 2.57036 3.11932 3.67137 3.06794 3.52799 3.2942 2.60485 2.79022 3.41231 4.8264 3.84537 1.60673 1.7155 2.95005 1.4296 1.08819 0.359004 -2.22398 -4.32102 -2.56364 -0.961918 -1.83419 -0.690555 0.366348 -1.6135 -1.85279 -1.54001 0.740157 2.52988 3.38843 3.94459 4.15937 3.46491 3.25485 1.20573 3.69105 3.38486 4.7471 3.39828 2.85264 2.43885 1.65429 1.62814 0.434993 0.865896 -3.33045 -2.46648 -2.62236 -1.2804 0.151642 0.241126 -1.18003 -0.491284 -2.91848 -2.15537 0.41018 2.28498 2.4803 2.06426 3.11448 2.01971 1.30819 2.83865 4.04286 4.62883 4.00263 4.04187 2.59526 1.76235 3.33271 -0.888068 -1.25785 -1.26938 -2.05091 -1.87624 -0.666496 -0.718248 -0.0780229 -0.371023 -0.654844 -1.02695 -3.64954 -2.04978 0.389536 0.953843 2.0811 1.40739 1.94474 0.95071 1.6899 2.92923 3.24438 3.42961 3.88945 3.25633 3.33286 2.93598 0.696254 0.241425 1.46022 0.610249 -3.52347 -1.37316 -1.862 -0.107682 0.729383 1.32518 -0.430397 -1.27569 -3.96178 -1.858 0.340406 -0.749356 -0.425735 -0.486942 0.560608 1.83319 1.79657 2.3295 2.66905 3.76785 2.75529 2.81605 2.63656 1.9157 0.599495 0.634583 0.518488 0.505804 -1.27402 -2.94774 0.126525 0.694223 1.10639 1.33939 0.077205 -0.958279 -3.26642 -3.44035 -1.58884 -0.619135 -0.299085 -1.60896 -1.69578 -0.458974 0.602823 1.96746 1.60857 2.48762 1.94864 1.32499 1.82353 0.923588 -0.27939 -0.247282 2.31467 0.100845 -2.83912 -1.79811 -0.779259 0.524391 -0.172551 -0.652164 0.305621 -2.01645 -5.15336 -3.10862 -2.39102 -1.71161 -1.61594 -1.0574 -0.312196 0.587833 1.02886 1.5369 -0.742975 0.213675 0.754622 -0.104345 -1.43729 -0.0140164 0.234061 2.92659 3.38235 1.33187 -0.0777574 -0.797337 -0.118203 0.345915 -0.533578 -0.206505 -0.739972 -2.31275 -4.70701 -2.35492 -1.52125 -3.02413 -2.53416 -2.66304 -1.97907 -1.23787 0.114842 0.00730849 -0.908422 0.405707 -0.451629 -2.62051 -1.79051 -0.374934 2.06808 3.06354 3.46279 1.84089 0.380982 0.165056 -0.644128 -2.59804 -2.43141 -1.69516 -2.73751 -1.96487 -4.2465 -2.09247 -3.65085 -3.7265 -2.25205 -1.49176 -1.54094 -2.31727 -0.931385 -0.841041 -1.27056 -1.8084 -2.02927 -0.105578 1.77279 2.19564 1.9829 3.84847 2.2164 2.02779 0.765404 -0.424081 -1.07041 -1.17393 -0.657438 -0.35389 -1.45411 -1.68635 -2.0669 -2.52727 -2.22018 -3.26519 -2.2228 -2.17835 -2.63399 -2.85636 -2.78813 -1.39515 -1.28771 -1.28482 0.847277 1.00151 3.06599 1.72314 3.56872 2.69303 2.67445 -1.2523 -1.5451 -1.96318 -2.11972 -2.22105 -1.76349 -1.70585 -0.791053 -1.24324 -1.97192 -2.5171 -2.60219 -2.73988 -0.756721 -0.494992 -1.14283 -1.61066 -0.90138 -0.349744 0.000841376 0.276365 -0.298222 1.06601 0.609415 0.211876 -1.03904 0.0785034 0.793141 -0.269953 -1.31544 -2.30681 -2.29978 -1.89382 -1.7631 -1.37436 -1.09462 -2.25305 -1.3531 -1.93653 -1.13989 0.53686 0.490617 0.682695 2.15965 2.19369 0.483786 -0.407388 -0.452571 0.421426 0.0845045 0.114994 -0.853408 0.319341 -0.301656 0.514461 0.324139 0.806302 -0.559913 -1.41154 -0.0944627 -0.76916 -1.58966 -0.569795 -0.575119 -0.475183 -1.45956 0.0338524 1.6461 0.126439 1.53582 0.986387 2.12436 1.78238 2.47504 2.51346 1.91952 2.33973 1.68796 0.973541 0.216379 -0.426609 -0.68706 -0.247567 1.77612 1.43293 -0.88057 -0.792189 -1.01372 -0.464496 -0.913552 -1.429 -0.90357 0.933657 1.60979 1.82886 1.32391 -0.161704 -0.393662 0.514947 -0.712049 0.836021 2.0694 1.01101 1.49246 1.09186 1.4622 -0.00899509 0.826479 1.08304 0.465114 0.545654 -0.355927 0.269306 -0.131685 -1.03918 -0.0927631 -0.628105 -0.200515 -0.129645 0.38555 1.54112 2.32872 1.88096 1.11769 0.990622 1.11862 2.60801 1.363 1.72112 2.31409 2.32089 1.12694 1.3881 0.227526 0.582581 -0.36732 0.137801 0.0297236 -0.00983239 -0.849994 0.338017 -0.0441406 -1.02361 -0.650026 0.525629 -0.314723 0.331877 1.22389 2.96659 2.05013 1.66738 -0.177704 0.259599 -0.422331 0.869978 1.1971 0.337954 0.848895 1.56784 1.27864 -0.22039 1.51082 1.23828 -0.119922 -0.691838 -0.956504 -0.280985 0.577903 1.29552 -0.508758 -0.134182 -0.418197 0.97203 0.629453 1.27071 1.99293 1.40178 1.75058 0.431985 -0.670328 1.34915 0.40837 0.450759 0.801195 0.814296 0.870562 2.05805 1.15148 2.04653 0.804737 0.53755 1.35525 0.0173721 -0.725598 -0.331155 1.65613 0.801569 -0.786556 -0.0655403 0.790205 0.328715 0.935587 1.63175 2.49644 2.19602 1.80341 -0.621375 1.44762 -0.236311 -0.530934 0.230261 -0.0922152 0.689918 -1.60777 0.670454 -0.106064 0.862534 -0.0207291 0.736792 0.115443 -1.71453 -1.98095 -0.618098 0.670179 0.480331 -0.818588 0.733107 1.88668 0.301879 1.21333 1.00768 1.28812 2.0645 1.23587 -0.744857 -0.202979 -0.706727 -1.92636 -0.799757 -1.38269 -0.850914 -1.68441 -0.672061 -0.455171 -1.09909 -0.0242922 -0.477509 -0.28353 -1.37325 -1.3119 -0.699035 0.621121 1.32156 -0.594804 2.1041 1.56758 0.204345 0.135246 0.737918 1.12117 0.305859 0.936346 -0.0144153 -2.11167 -1.01045 -0.491269 -0.371825 -2.33333 -0.701123 0.468172 -1.48254 -1.60386 -1.74286 -0.604343 -2.32045 -1.69123 -0.995056 -0.586217 -0.785404 2.38034 1.38404 0.992489 0.722421 0.54586 0.908063 -0.543316 1.69274 2.39036 1.16717 0.705114 -0.840134 -2.50507 -2.37859 -0.551246 -2.05965 -1.84055 -1.55165 -0.0403447 -0.597576 -2.12029 -1.52649 -2.62562 -2.56358 -0.712995 -0.615577 -1.23586 0.123164 1.63222 1.13755 1.00844 0.657649 -0.280733 -0.521321 0.302294 0.893484 1.76326 1.63545 0.196177 -0.0506942 -2.22694 -1.2467 -2.29541 -1.2836 -1.78704 -2.33224 -0.561953 -2.41167 -2.64853 -2.89727 -2.9922 -2.7278 -2.11276 0.037253 0.293181 0.280204 1.38212 2.51263 1.34757 1.583 1.76673 -0.316898 0.586906 1.09505 -0.158982 0.150009 -0.45223 -1.77541 -2.69736 -2.01817 -2.69018 -1.76834 -3.41546 -2.73481 -2.74963 -4.53517 -3.10612 -3.45814 -2.67459 -1.47171 0.307058 2.07201 1.31848 0.723049 2.48777 1.85351 1.7326 1.93575 0.366883 -0.311456 -0.563926 0.713612 -0.129157 0.046643 0.881919 -1.16257 -2.04103 -3.45301 -3.86657 -2.39761 -2.73446 -2.921 -2.35113 -2.52899 -1.97613 -2.82564 -2.34152 -1.99612 0.0379861 0.866377 0.675862 2.6842 2.64751 3.12649 2.33549 2.17483 1.50359 0.945521 0.24871 0.46383 1.29385 2.07436 0.813271 0.320634 -0.802943 -1.95038 -2.22362 -2.76197 -1.8938 -1.8688 -3.202 -1.79022 -3.55347 -3.17562 -2.13205 -3.89684 -2.23972 -1.27365 0.431436 1.26761 3.18928 2.87631 2.4037 1.85531 1.85194 0.984362 -0.141858 1.49584 0.689078 2.61973 1.19887 0.16729 -0.536164 0.063462 -1.12801 -1.3562 -1.65699 -2.26443 -0.975881 -1.16251 -2.26808 -0.331705 -2.20086 -3.10125 -3.63373 -0.970493 -0.64467 1.01969 2.51887 3.01099 3.03474 1.48447 1.50333 1.20669 -1.24654 -0.0117975 1.50783 1.78383 2.39881 0.452674 -0.848429 -0.550825 0.270122 -0.0323038 -0.491088 0.808542 -0.384931 -0.716024 -0.953449 -1.77724 -0.933005 -3.07627 -2.7665 1.30828 0.576063 -0.206544 2.00666 1.61894 3.28508 1.25071 1.65273 1.18824 -0.928127 0.0889327 1.3403 0.757396 0.633728 -1.08221 -0.864225 -1.93198 0.298817 0.350603 0.0239038 -0.333916 1.18413 1.07808 0.911651 -0.866893 0.231371 -1.65823 -0.192025 0.691829 -0.738774 0.180884 0.302163 0.738535 0.291052 0.933654 0.862291 1.97008 -0.0490494 1.60143 1.75121 1.64078 1.78053 -0.857853 -1.50154 -2.68948 -1.88518 0.251022 -0.768719 1.22821 -0.303521 0.543404 -0.829286 -1.15208 -0.708263 0.606487 0.69405 -0.573552 -1.68902 -0.29226 0.294342 -0.624118 -0.102797 0.780934 1.22681 0.981909 0.956473 2.8512 0.894829 1.0759 2.49316 -0.900821 -0.78319 -0.936143 -0.960998 -0.444127 0.0522819 -0.315054 -1.18379 0.586219 -0.734733 -0.509982 -0.553847 0.23412 0.698895 0.48686 -0.392939 -0.685508 -0.196295 -0.88143 -0.0213502 0.182057 1.33862 1.38888 0.487833 0.732473 0.888483 1.80364 1.44201 0.585848 0.626881 -0.397891 0.157102 0.129892 0.569838 0.27344 0.235806 -0.376553 -0.549296 1.19566 -0.232664 1.87331 -0.448778 -0.350558 -0.666384 -0.0802822 0.348694 -0.165521 0.180505 -1.0403 -0.850983 0.603314 -0.591207 1.78118 0.749933 1.74899 0.364227 0.272847 -0.12974 0.796058 -0.892351 -0.739157 1.00455 0.839465 -0.609781 0.0316271 0.928508 0.858149 1.1655 1.46697 -0.441614 0.827415 0.152413 -0.405739 -0.735815 -1.14479 -1.65619 -1.78902 0.100459 0.680977 0.292761 0.204155 0.557937 1.76423 0.159135 0.249844 0.00739416 -0.256887 -1.19149 -1.24117 -0.874533 -1.00133 -0.430802 1.78405 1.71492 1.5167 0.837263 0.581399 0.889554 0.0202416 -0.356564 -1.45019 -1.16555 -0.808238 -1.1104 -0.812212 -1.29219 -1.02971 0.109957 0.390434 0.280362 1.03369 1.56406 1.92315 1.3509 1.37917 -0.383293 1.00915 -0.977524 -0.450466 2.67158 1.68047 0.987435 0.42828 -0.117172 -0.161394 0.0446659 0.329714 -0.593513 -1.17429 -1.19438 1.31689 -1.05028 -1.58385 -2.20692 -0.382885 -1.74895 0.144693 -0.610682 1.31261 0.133956 1.27737 0.777351 0.629965 -1.54361 0.125424 -0.511479 -0.263125 1.83263 0.843991 -0.759136 0.10525 0.17947 0.48429 1.04215 0.0618566 -0.702338 -0.849885 0.0719629 -0.0176593 -0.397497 -2.28749 -2.39969 -1.95178 -1.37137 -1.37878 -1.45123 0.143872 1.7235 0.495257 0.350909 -0.977279 -1.18386 -1.24593 0.54772 -0.51474 1.25072 -0.307282 -0.259685 0.543123 -0.186973 0.75605 0.680161 -0.84719 -0.261851 0.346641 1.20754 1.43473 -0.480699 -1.99089 -3.76214 -2.6163 -1.74139 -3.04973 -1.68648 -1.68781 -1.76721 -2.2766 -2.13299 -1.76415 -0.799263 -0.314233 -1.08752 -0.846662 -1.16786 -0.25659 0.379599 -0.451807 0.412804 0.46607 1.27469 1.71835 0.555604 0.539446 1.69908 0.392229 -1.26001 -2.37345 -2.61191 -2.89833 -2.5117 -1.73741 -1.20419 -2.82138 -2.06765 -1.78242 -1.84182 -3.49103 -3.16519 -2.11676 -0.854003 -1.09232 -1.35391 -0.53818 -1.06593 0.369601 1.12186 2.61972 0.673508 1.53752 -0.187997 -0.910852 0.862661 -0.00490563 -0.245037 0.823488 0.503563 0.415577 -0.378076 -0.482614 -0.600226 0.123096 -1.57762 -1.3414 -1.87049 -0.283471 -1.13358 0.836684 -1.10816 -0.45982 0.204901 0.688963 0.619929 0.164098 0.347629 0.290253 0.691717 -0.149222 1.19641 -0.227587 -0.164371 0.17447 1.21921 -0.657873 -0.742734 -0.362161 0.486464 -1.05623 -0.794366 -1.24284 -0.141399 0.797433 -0.247953 1.23283 -0.614791 -0.597059 -0.487852 -1.81978 -1.74066 -0.650262 -0.588581 0.741166 0.584558 0.112404 -0.173542 -0.3902 -0.697194 0.761685 -0.536508 0.990791 0.359951 0.445457 0.0510835 -1.02797 -0.808743 -1.60082 -1.72689 -0.151887 0.921876 2.26035 2.33982 0.248302 0.035021 -1.4121 -2.35337 -1.55609 -1.40241 -1.12606 -0.775309 -0.339438 -0.280776 -0.383821 0.308885 1.93216 0.57722 0.177853 0.832169 -0.933077 -0.177199 -0.136286 0.313816 -1.59193 -0.339619 0.359691 0.930157 0.626139 2.7098 2.56671 1.7897 0.576212 -0.274026 -0.389403 -0.549868 -1.9724 -0.172023 -0.413079 -1.05803 -1.594 -0.64346 -1.00414 0.984941 2.21778 1.211 2.39346 1.13502 -0.49703 -0.324837 0.638528 -0.392673 -1.32203 0.390485 0.637619 0.758391 0.878063 1.13147 1.01605 1.14363 -0.202456 -0.783641 -0.467007 -0.0455834 -0.586874 -1.76744 -0.744165 -0.317729 -1.69973 -0.955203 -0.89857 -0.328411 1.7082 1.21379 1.80718 2.47221 0.420158 -0.304991 1.01273 0.793511 -0.239882 0.252738 1.57631 1.63055 1.44657 0.248265 0.366974 -0.391179 0.37715 0.350214 0.5597 0.309298 -0.504998 -1.16647 -0.559931 -0.369199 -0.0117348 -1.46899 -0.627209 1.07733 0.924708 0.999322 1.61973 1.73281 1.26876 -0.0587358 0.760366 -0.156783 0.859304 2.48072 1.64669 0.292465 1.52493 1.09874 0.731965 0.83533 1.33132 1.3212 -1.25778 -0.375142 -0.540358 -2.0419 0.494902 -0.565986 -0.0190747 -0.440288 0.122875 0.100604 1.17734 1.65004 1.37879 1.1158 0.331772 0.0175855 1.59055 1.6141 2.14363 1.57427 1.60459 1.23789 1.43958 -0.0422729 0.758842 1.40751 0.0384643 -0.276597 0.192267 -0.493088 -0.531789 -0.291897 -0.521725 0.0892601 0.554767 -0.348388 0.915275 -0.0618639 1.69801 1.60327 2.36256 1.36481 0.277941 1.19857 1.72618 1.30412 3.36488 2.37643 1.55922 1.48831 -0.631555 -0.253056 0.172162 0.333368 1.31428 0.261123 -1.37556 -1.41334 0.552032 0.134733 -0.674883 -0.905751 0.308367 0.378184 1.204 0.389142 1.85936 2.26716 2.04945 0.990465 -0.706064 0.422507 1.24884 2.15255 3.2269 3.50028 2.02798 0.592817 -1.10805 0.266889 0.494057 0.328979 0.749398 -0.358927 -0.095861 0.380479 -0.383436 -1.23288 0.487405 -0.524246 0.536297 -1.42485 -0.0909158 0.60453 0.985921 0.806447 1.91984 0.00173102 -1.11327 1.45269 2.16853 2.90632 3.06764 1.85891 1.0245 -0.552755 -0.904775 0.960365 -0.00654715 -0.0676329 -0.26978 -0.57981 0.399456 0.0647092 0.0553109 0.690219 -0.827471 -0.128949 0.300338 -1.70402 -1.71295 -0.220969 -0.759691 0.456869 0.25977 -0.0029013 -0.591151 0.742297 3.42857 3.55191 3.43742 1.95187 0.990025 -0.457708 -0.018327 -0.890869 -1.20083 -1.67778 -1.85086 -2.89142 -2.77566 -1.17536 -0.77127 -1.95309 -1.95459 -2.83763 -2.57792 -1.78165 -1.88651 -3.08542 -0.76974 -1.9269 -1.51993 0.542606 1.1181 1.19226 4.94078 2.90309 3.08843 1.11839 0.474528 0.513632 -0.0509159 -1.2131 -1.36448 -1.3516 -1.55094 -3.15295 -3.91529 -4.17285 -3.23592 -4.51242 -3.50737 -3.20988 -3.09734 -2.96384 -3.24246 -2.9314 -3.09589 -1.46154 0.21018 1.22676 1.6979 2.4036 5.21716 3.78694 1.5756 1.8485 1.1947 -0.43928 -1.70552 -0.592819 -1.64668 -1.26952 -3.27788 -3.21003 -3.93774 -4.50407 -2.91628 -4.1171 -3.22388 -3.20824 -3.35583 -3.26641 -4.26872 -2.36816 -1.52766 -0.731704 0.0632903 -0.162555 0.861871 0.672522 3.7901 2.93877 0.936103 2.12564 0.265485 0.491727 -0.141335 -1.16054 -1.29739 -1.31134 -1.71709 -3.12854 -2.53124 -3.59284 -2.4145 -3.05914 -2.76148 -2.01077 -2.4238 -3.51594 -3.31266 -1.61369 -1.98191 -1.26405 1.1015 1.01238 -0.294805 0.0668617 5.00208 2.96251 1.46066 1.599 0.672672 -1.12097 -0.584317 -0.704719 -2.01631 -2.16302 -3.38267 -3.57585 -3.02694 -3.44013 -2.3864 -2.93851 -2.57499 -2.49551 -2.54551 -3.7554 -3.63363 -3.13959 -2.7637 -2.25015 -1.26381 -0.805621 -0.105048 -0.361862 4.19288 3.04595 0.691217 0.51985 0.625867 -1.21292 -1.58712 -1.78463 -1.37184 -2.20425 -2.84023 -2.42177 -1.50711 -2.17061 -1.14876 -2.09321 -1.79256 -2.16965 -2.00396 -2.30762 -1.96333 -2.73454 -2.4483 -2.18177 -1.24172 -1.36209 -1.56828 1.51941 2.77542 3.08536 -0.0841127 -0.324134 -0.263248 -1.28049 -0.544403 -1.19873 -0.0713748 -1.24675 -0.97275 -2.14325 -1.25893 -1.98114 -0.325396 -1.01514 -1.29244 -1.59477 -1.24236 -0.938346 -0.588674 -1.64021 -3.33328 -2.28384 -0.266748 -0.218592 -0.965489 0.838495 3.65172 2.59982 0.595074 -0.226135 -1.76311 -1.76949 -1.83911 -1.46074 -1.50281 -0.683056 -1.78909 -2.58137 -0.510673 -1.98441 -1.5059 -0.519947 -1.30014 -2.23293 -2.12916 -0.168021 -0.255166 -0.302615 -1.85686 -1.34795 -0.477968 -0.594371 -0.049152 1.14903 1.20282 2.73409 1.91947 -0.221156 -0.527143 -2.27081 -2.4687 -1.61154 0.0806954 -0.864421 -0.334618 -1.7387 -0.299324 0.108915 -1.01578 0.33754 -0.897169 -0.221217 -0.194195 -0.673284 -0.294017 -0.698824 -1.74299 -0.982514 0.117791 -0.169426 0.459064 0.768141 1.8761 1.25708 0.783864 0.105186 -0.964043 -1.57186 -2.46494 -0.755026 0.23356 -0.973656 0.961169 0.633871 -0.54853 -0.368908 0.703138 -0.346614 1.82269 -0.310438 -0.548296 0.841135 -0.387445 -0.610159 -0.588572 -0.621365 -1.02519 0.283193 2.71244 2.39469 1.362 -0.791794 -0.983476 0.876554 1.10147 -0.656203 -2.52323 0.257306 -0.566706 0.604909 1.67929 1.5642 0.801204 0.833787 1.77294 1.93093 0.9547 1.28826 -0.216781 0.339203 0.536623 -0.612373 0.0762948 -0.448901 -0.071144 1.35253 2.47263 2.35823 -0.334502 -0.59835 -1.06882 -1.04995 -1.04508 0.354637 -1.11449 -1.05535 0.619615 0.449891 0.675491 1.71689 1.8174 2.98695 2.68069 1.36855 1.19217 1.17294 0.536916 1.46897 1.49193 0.438374 0.46042 0.343975 -0.24278 1.89164 0.616838 1.97735 -0.12851 -1.70071 -2.21169 -1.00482 -0.321161 0.066349 -0.234721 1.76717 1.66325 0.739105 1.99625 0.140397 1.37603 1.54775 2.81173 1.40892 2.85324 1.58976 1.19999 1.11671 1.55549 0.837121 0.040564 -0.355154 1.05847 1.19738 1.56196 1.43352 -1.03462 -2.65616 -3.57923 -4.46046 -1.44369 -0.355159 -0.421568 1.49915 2.20905 1.14197 0.631514 0.639072 2.24687 1.86678 1.92546 1.94434 2.42001 2.00428 2.69159 2.29004 1.79585 1.72284 1.09775 1.32841 1.86489 0.57956 1.10658 1.03814 -2.18808 -3.77099 -3.77224 -4.25893 -3.25123 -2.13545 -0.471923 0.298691 1.06899 2.17544 2.60843 2.94788 3.56619 4.01336 3.92912 3.45769 3.32321 4.71854 3.91607 3.36572 3.97752 2.73781 2.1683 0.782204 0.0513192 1.22899 0.966172 2.5363 -2.15492 -4.40537 -6.29402 -4.76835 -3.45759 -4.82708 -1.43993 -1.2026 1.00686 2.10835 3.08624 3.77881 3.86087 4.99577 3.48395 4.2125 5.63312 5.1498 4.88258 4.91533 3.55626 3.51617 1.3421 0.7013 0.293488 1.08367 0.932753 1.53089 -1.42278 -4.04195 -4.28868 -3.71994 -2.90612 -2.70714 -3.01343 -0.899121 0.0107998 1.77508 2.97613 2.50752 3.25848 3.69986 4.94911 4.29556 5.02526 5.39918 4.17851 2.8991 2.8947 1.4618 1.12175 2.70268 2.57022 1.18723 0.920691 1.16829 -2.55766 1.58672 1.44914 -0.0524738 -0.076125 0.476417 1.13285 1.88048 2.46959 2.07578 1.63049 1.21608 1.48474 1.32599 1.24533 -0.333387 -0.316639 1.28265 0.980576 1.96237 2.00042 3.43657 3.3807 3.63615 2.88864 2.97063 3.45029 3.04201 1.9698 0.0138166 -0.107032 0.4492 0.782846 0.860037 1.92275 1.78333 1.43793 0.417656 0.217574 0.974131 0.455436 1.7248 1.21556 0.916722 0.557733 0.697845 1.48666 1.01072 0.157174 0.763203 3.32016 2.68844 2.90905 2.71615 1.72044 2.18806 0.147626 1.19301 1.69534 0.293969 0.744759 0.997613 1.58863 0.658575 -0.136321 1.34761 0.896936 1.31077 0.0451896 1.26741 -0.667623 -0.452118 0.772435 1.96498 1.04597 1.09502 2.06143 2.48987 1.68804 1.67897 2.45188 3.1296 0.932808 1.09325 0.169482 0.335714 2.31544 0.625621 0.821071 1.63332 0.0767985 0.35158 1.33957 0.866302 0.884693 -0.443525 -0.40268 1.37248 -0.246937 -0.90304 -0.218144 0.929183 0.703608 1.4565 2.9249 1.00104 1.16724 0.700024 -0.746275 0.266497 -0.0402528 -0.593144 -1.07308 0.878482 1.74331 -0.190557 0.700185 -0.459659 0.598191 0.0220638 -0.085737 0.970321 0.440107 -0.405614 -0.789199 0.323592 -1.39146 -3.27181 -0.0390539 -0.256176 1.20592 0.771453 1.09515 0.282517 1.50127 -1.00309 -2.32535 -1.71233 -0.424828 -0.886665 0.148301 0.910236 0.860935 0.098502 -0.464347 -2.0488 -0.383715 0.734466 0.800158 1.62884 0.616824 -1.29155 -0.390634 -2.34323 -1.28839 -1.68394 -1.41628 -0.422667 0.535243 1.53389 2.57349 1.42084 0.273187 -1.25847 -1.84043 -1.87423 -1.67484 -2.45861 -0.0989852 1.58928 0.373173 -0.827728 -0.395775 -0.758028 -0.232648 0.769663 -0.338527 0.595977 -0.838109 -0.0719342 -1.38949 -1.45388 -1.75681 -1.35168 1.55404 1.73127 1.11891 1.18467 0.696027 0.402881 -0.121108 -0.408021 -2.35261 -2.28166 -2.95165 -2.74118 -0.879435 1.19735 -0.941134 -0.460788 -1.72075 -1.93791 -1.21227 -0.644481 -0.781547 0.0146165 1.0863 -0.0565218 -0.0853868 -0.854513 -1.7733 -2.32283 0.382562 0.884194 0.181692 -0.563887 0.0282887 -0.823393 -1.66061 -1.1977 -3.08568 -3.15147 -3.23209 -3.13057 -1.64646 -0.415586 -0.71166 -0.269643 -2.78049 -1.86651 -0.820584 -0.699074 -1.04324 0.0932973 0.703105 0.130446 -0.384591 -1.72919 -0.116056 -0.630832 0.227369 0.461805 0.476084 -1.86563 0.509846 -0.8365 -0.432779 -1.02685 -1.74157 -2.0977 -2.54991 -1.59045 -2.10768 -0.062912 -1.00076 -1.75977 