4 784 64 64 6 1
2.17844 0.81353 1.54866 1.5869 1.98111 0.669131 1.03421 1.84867 0.710949 1.1636 0.597354 -0.46938 -0.682125 -0.260106 0.312293 -0.198021 -0.620929 -0.616473 -1.70298 -0.768136 -1.80932 -1.67276 -2.30817 -1.25138 -1.86018 -1.05482 -2.03955 -0.562914 1.74243 0.588057 1.60424 2.18541 1.51885 1.16828 1.71087 0.929211 0.313513 1.01355 -1.74857 -1.82255 -1.99952 -1.27124 -1.65624 -0.583843 -1.71384 -1.55386 -0.638632 -0.408224 -2.0291 -0.03398 -0.719675 -2.15029 -2.61803 -1.2556 -0.801748 -0.783314 0.0611197 1.20364 2.38838 1.39004 1.10207 2.70331 1.76774 0.780634 -1.53122 -0.904843 -1.86159 -1.80145 -1.92801 -1.24928 -1.15596 -1.37494 -0.175138 1.0204 0.431011 -0.0465888 -0.965774 -0.105913 -0.170807 -0.784188 -0.477631 -2.6 -1.49871 0.34809 1.98729 1.99292 2.05543 3.49023 1.90249 1.79767 1.65579 -0.0274399 -0.766575 -0.0267198 -1.84024 -1.26364 -1.77406 0.396876 0.625758 1.41025 0.819374 0.35827 1.58187 1.4441 -0.128372 0.971004 0.239452 -0.643496 -0.171838 -1.6018 -1.01608 -1.32983 1.41906 1.6976 1.89986 1.99804 1.63021 0.562635 -0.961726 0.031403 -2.02326 -1.31657 -1.71835 -2.15766 -0.994668 0.692107 0.863934 0.368917 1.7428 1.47753 1.5187 1.16223 1.54026 0.543415 -0.706639 0.109256 -1.46943 -0.70639 -2.38105 -0.976644 0.602731 3.09839 0.99593 0.908008 -0.720153 -1.39924 0.0750755 -0.52768 -1.03256 -0.240383 -1.97389 -1.97237 -2.76779 -1.23279 0.0414043 0.251173 0.890195 1.56019 2.83419 3.26504 2.09332 1.8744 -0.862316 -1.00574 0.382885 -1.61636 -0.626062 -2.00326 2.29653 1.50987 3.04209 0.164031 -1.00114 0.606538 -0.0998849 -1.27889 -1.63235 -1.17469 -0.672207 -0.778585 -1.64227 0.202464 0.491722 1.19265 2.56301 2.18218 3.68825 4.0203 2.0653 3.21471 1.82618 1.56251 0.698803 0.165744 -1.9851 -0.282815 1.25037 2.5987 2.30874 1.22689 0.291167 -0.771128 0.0514019 0.0683354 -0.91856 -1.1961 -1.83618 -0.526884 -0.459863 -1.66282 -0.400097 0.15627 2.03982 2.25667 2.80274 1.62261 1.1187 0.827374 0.586135 1.27997 -0.324165 0.878774 0.00755586 0.505632 -0.0926469 0.77961 1.02024 -0.91034 -1.52345 -1.1512 -0.407015 -1.52279 -2.73534 -1.54772 -1.87997 -2.5871 -1.39025 -0.646029 0.582999 0.756198 1.85519 1.55199 1.40332 0.849204 1.39441 0.165339 1.23222 0.663289 0.399489 1.39589 1.3963 0.271811 0.311387 -0.305298 0.111904 -0.538062 -1.07127 -1.35859 -1.175 -3.30919 -2.35174 -2.19644 -1.7537 -2.48829 -1.89853 -1.76184 0.0706596 2.26274 2.04156 0.588696 0.919732 1.43918 1.5609 0.933768 1.40726 1.12865 1.44089 0.963925 1.08885 -0.0884036 1.41979 -0.34707 0.551946 -1.24271 -2.40063 -2.2046 -1.45227 -1.77249 -2.1968 -1.62628 -2.07008 -0.959143 -1.6347 0.472444 1.94351 2.09877 1.60281 0.376265 1.98075 1.74866 1.49401 2.17634 2.33057 3.11761 1.70076 1.90545 1.16796 0.283098 1.00257 0.683593 0.202341 0.0749159 -1.55368 -2.12281 -2.77304 -1.99863 -1.30067 -1.18233 -0.333882 -1.27564 -0.424729 0.542874 0.825879 0.32385 0.601173 0.0211786 0.44618 1.57759 1.72327 2.76902 2.85767 2.82997 2.89961 2.97832 2.15944 0.486046 -0.145575 1.02484 0.63105 -1.59053 -2.55105 -2.74617 -3.15383 -1.82531 -0.595772 0.0732722 -0.462678 -1.42246 -0.496698 1.54297 1.36491 -0.00650016 0.457683 0.966207 0.969706 1.23047 3.06439 2.23229 2.26602 2.32589 2.61604 2.52533 2.97351 0.878723 -0.902544 0.378848 0.594951 -1.27624 -0.677894 -2.03661 -1.52702 -2.16072 -0.501788 -0.843191 0.443334 0.382779 -0.978885 -0.697193 1.03718 0.165403 -0.871035 0.680242 2.35239 2.28113 1.4209 1.87624 3.33656 2.1287 1.31641 2.00914 2.04755 1.51917 0.155426 0.247716 -0.484291 -2.46617 -1.61361 -1.489 -2.00147 -1.23185 -1.1547 0.679515 0.402731 0.369858 0.437448 0.439488 0.36886 0.596207 0.470599 0.255497 1.47646 1.40062 2.15445 2.2609 1.92829 3.67589 1.19515 1.2473 3.58404 0.588826 -0.380281 0.287732 0.951607 -2.17078 -1.97335 -1.43404 -2.61039 -0.355199 -0.0729344 -0.620341 -0.0533423 1.69448 1.45709 2.42833 0.881586 0.548574 0.699681 2.05682 0.624706 1.68177 2.47976 2.68714 1.73396 2.53263 1.72713 2.19205 1.91866 0.892738 -0.322046 -0.510729 -0.047322 -2.66528 -2.28085 -2.44924 -2.70912 -1.10819 -1.43786 0.0900974 0.872612 2.16565 1.48662 2.83691 2.24102 1.07556 1.57628 0.914357 1.52218 2.39444 2.03805 2.58718 2.20365 2.45576 1.3945 2.26942 2.45403 1.21704 -1.02706 -1.27959 -1.66876 -1.35081 -3.32507 -2.70056 -2.38392 -2.19218 -2.51895 -1.63245 -0.213747 -0.546332 0.312752 1.95184 0.814735 0.551955 1.23362 2.3047 1.9089 0.829065 1.87291 1.33882 1.10062 2.41251 2.17582 1.414 2.19199 -0.0686768 -0.425124 -0.303034 -0.430568 -1.09069 -2.07964 -2.00203 -2.94804 -1.70704 -1.99148 0.0692694 0.227723 0.222129 1.5621 1.96741 1.90045 1.61285 1.66998 2.51484 2.55324 0.641978 2.10973 2.38322 2.50203 3.44953 2.21573 1.28937 0.197628 0.52447 -0.247897 -1.34455 -0.370427 -0.143327 -0.857543 -1.5772 -1.87426 -1.34342 -0.791111 -0.350734 -0.512892 -1.22059 -0.162031 -0.867409 1.0217 0.858569 1.5825 0.663146 0.208788 1.06376 1.25097 1.32103 2.96665 2.35563 1.42546 0.699137 -0.156514 0.0732013 -0.267115 -0.152546 -1.30944 -0.129829 -0.986597 -0.531408 -0.795482 -1.19499 -0.695519 0.0593656 -2.48145 -2.17932 -1.32527 -0.88945 -0.858568 -0.692099 0.423342 1.31668 1.39429 1.04826 1.14588 3.18793 4.04794 3.34599 1.13885 0.722694 -0.425287 0.11884 0.499639 0.818985 1.21743 -0.425391 -0.274715 0.0697742 -1.30087 -0.703985 -0.356027 -0.359475 -0.41741 -2.08741 -1.85579 -0.897925 -1.65949 -1.4878 -1.15193 0.246687 1.15194 0.3992 1.44918 2.21579 2.92166 2.08639 -0.727026 -0.942052 0.222482 -0.504405 0.832996 0.421833 1.53678 0.513444 -0.493942 -0.978802 -2.22596 -0.510066 -0.695191 -0.871192 -1.59433 -1.96692 -2.68787 0.17841 -0.44114 -0.0839454 0.413339 1.94749 0.976023 1.57703 2.0937 3.08572 1.84825 1.70072 -0.402812 -1.25887 0.666984 0.037832 1.85597 1.84221 1.60666 0.30477 0.0228077 -2.0509 -0.894421 -1.37573 -1.61834 -0.261787 -1.55559 -1.82293 -1.9658 -0.834044 0.157966 -1.34513 -0.922747 0.458092 1.89051 0.0746924 0.826161 0.516811 0.192284 0.707834 0.955489 -1.03063 0.838692 -0.546996 0.861077 1.7351 2.24728 0.719101 -0.699045 -0.44996 -1.38806 -2.65104 -3.39731 -1.79657 -0.870678 -1.02685 -1.42265 0.5138 -1.28538 -0.449547 -0.754052 0.683427 0.875666 0.00287305 1.35175 0.53851 -0.388755 -1.04153 0.912584 0.864883 0.948722 0.905727 1.77527 1.66694 2.80836 1.30617 0.816965 -1.08354 -1.2271 -3.04733 -3.50876 -2.94851 -2.72295 -3.59923 -2.33257 -2.85258 -0.97277 -0.749704 -2.11009 0.472909 -0.0979105 -0.682262 0.269995 -0.586163 -0.23137 0.127648 1.36715 1.39824 1.02694 0.785528 1.42398 1.41674 1.32549 1.74117 1.32517 -0.133089 0.776933 -1.24894 -2.40995 -2.19623 -3.37349 -4.55927 -3.49492 -3.12101 -3.12268 -3.23601 -2.16033 -1.69746 -0.985414 0.4302 -0.486701 0.443824 -0.576413 1.70438 2.07804 1.92931 0.937244 1.01959 1.49208 2.10913 0.507112 0.339206 0.0688419 1.03461 1.55456 0.603042 -0.294821 -0.45569 -1.03045 -2.46681 -2.87876 -2.7568 -3.34346 -3.12997 -2.32427 -0.472654 -0.511154 0.877444 1.54733 1.18991 1.18276 0.872281 1.473 2.13811 2.55011 0.964095 -2.50895 -0.58861 0.032209 -0.0702945 -1.49257 -0.277441 -0.437581 -2.99854 -2.93103 -2.15581 -1.78656 -3.03244 -0.809077 -0.406615 -1.02713 -0.339454 -1.38291 -0.0969253 -0.0946668 -2.31183 -1.74732 -2.40498 -1.17112 -1.80098 -0.315487 -1.14675 -0.430314 1.6743 1.89939 -0.641971 1.03466 0.316371 -1.16225 -0.484781 -0.945391 -1.81331 -0.89741 -1.02858 -0.641976 -1.26635 -0.884867 -0.566977 -1.83946 -0.229665 -0.643514 1.31577 1.03585 0.103959 0.689693 -0.630149 -1.56547 -0.52469 -0.670052 -2.27589 -1.05168 0.871652 0.818322 -0.549759 -0.490907 -1.41459 -0.391476 -0.612934 -2.05481 -0.891408 -1.51106 -0.629841 -1.30977 0.235414 0.587217 -0.991635 0.359133 1.62636 -0.175354 0.668812 1.36347 0.0721942 0.309982 -1.08147 -0.15652 0.883016 0.370608 -0.122553 -0.273376 -0.19418 1.14717 -0.160678 -0.280321 -0.680071 0.0857011 -1.26653 -0.942756 -1.94272 -1.10765 -1.31625 -1.02775 -0.756641 -0.214333 -0.189818 0.322164 1.88198 0.995467 1.02777 0.812283 0.61333 -0.155977 -1.1088 1.14384 1.65987 0.214357 -0.515325 0.0201537 1.27035 0.903115 -0.0557077 -1.05551 -0.0656254 -1.03562 -1.3551 -0.227623 -1.36064 -1.2168 -1.3231 -1.07314 -0.156057 1.20338 2.22034 1.02866 2.96931 2.48337 2.11062 0.895161 0.237893 0.163568 0.402903 1.42584 1.4834 1.94076 1.59609 2.33792 2.37128 1.48548 -1.10497 -0.492351 -0.189083 0.171148 -0.0354146 -1.03285 -1.06776 -0.274398 -1.47686 -0.972048 0.759266 1.51243 1.668 2.57362 2.57781 1.37351 1.39822 1.27115 -0.296018 0.451905 0.201724 0.402934 1.06965 1.08369 1.15833 1.50031 0.784441 2.2484 0.0531616 0.140827 0.606534 -0.247339 -0.627895 -1.1354 -1.09953 -1.44834 -0.45039 0.102158 0.391417 1.51898 0.990134 1.8913 2.12992 1.23622 -0.6681 -0.0297283 -0.871403 -0.854104 0.897475 0.0608104 1.70807 1.54806 2.16167 1.66602 1.81196 2.95449 1.24618 -1.1255 1.28079 -0.195956 0.830501 -0.74895 -0.144256 -0.491413 0.972752 1.20471 1.0595 0.923715 2.06348 3.8325 1.99832 2.04423 1.18602 0.3608 0.464576 0.963236 1.81776 1.41726 1.70845 1.64586 1.1542 2.54745 3.11655 3.05205 0.196499 -0.424724 0.905071 0.162092 0.395909 -0.785104 0.267901 0.309639 0.612214 -0.743078 0.340438 0.781515 2.44135 1.69525 0.496272 0.267898 0.307323 -0.516144 0.879961 1.05929 1.25876 0.708808 -0.085558 0.348586 0.906556 2.53708 4.70373 1.38093 0.606116 0.349652 1.76104 0.637806 0.193506 -1.54414 -0.0798685 1.22058 1.73882 0.0713182 -0.925595 -1.00001 -0.384153 1.02564 1.58433 -0.670996 -0.307002 -1.09065 -0.538595 1.54882 0.504356 -0.182238 0.183164 0.355079 1.54088 2.80107 4.18994 2.4173 -0.199286 1.75213 2.14816 -0.127416 1.01155 -1.4601 -0.387666 -0.0567199 0.389198 -0.947448 -1.25323 0.962939 1.15896 -1.40417 0.281449 -0.643582 -2.66795 -1.00799 -0.252451 0.0148841 -1.55054 -0.878282 -1.36043 -0.547066 0.527029 2.83795 2.26677 2.35381 0.834207 2.58214 1.26437 1.18501 -0.0374096 -0.0791156 0.872068 0.611109 -1.09844 -2.62315 0.274531 -0.524209 0.279147 -1.85647 -2.53925 -2.24112 -3.44013 -3.45587 -2.07331 -3.03784 -3.13361 -1.52724 -1.78432 -2.78553 1.94895 1.14283 2.38771 1.06652 1.27268 1.60768 2.00317 0.604284 -1.16672 -3.30087 -0.46931 -1.8734 -3.80726 -3.07861 -1.67958 -2.40953 -2.27924 -1.56652 -2.39265 -3.71703 -2.24982 -3.95128 -4.48735 -4.39383 -2.83857 -1.58367 -2.71255 -2.22628 1.18476 1.08261 1.10066 2.01865 1.12382 0.0674423 1.3996 0.981945 -0.586093 -2.16646 -0.730337 -2.78931 -3.03361 -2.08618 -2.22635 -2.00425 -2.53586 -2.44718 -3.19619 -2.9775 -2.85996 -2.77562 -4.84021 -4.28617 -2.59317 -2.26887 -2.23614 -1.40883 -0.455987 -0.511591 0.449746 2.4258 1.06149 1.18443 -0.246988 -0.627446 -0.636316 -0.838914 -1.00118 -3.08014 -2.72817 -2.11537 -1.3424 -2.50799 -1.25871 -0.190324 -1.36663 -2.46832 -2.68623 -2.77593 -3.46031 -2.44195 -1.75186 -1.35443 -0.623939 -1.19784 0.294299 1.33088 1.88454 2.32478 2.01317 1.20744 -0.316326 0.689965 -0.743915 -0.930901 -1.08456 -0.849084 -1.45046 -1.19594 -1.11062 0.259777 -0.513962 -0.468804 -2.0651 -0.851764 -1.68334 -0.532848 -1.3507 -0.574381 -2.13029 -1.13028 -1.95285 -1.12007 -1.45919 1.39799 1.79296 1.94285 1.47388 -0.1376 0.213951 1.35759 0.527805 -1.05409 -2.02996 -2.01632 -1.86957 -2.58672 -1.15735 0.125295 -0.263597 -1.22142 0.0750096 -0.00017786 -0.524791 -0.0570332 0.0626157 -0.611826 -0.305947 -1.61138 -1.97105 -0.409297 0.733042 0.865476 1.46761 2.19741 -0.233196 1.56951 1.61202 1.11148 0.405835 -1.58146 -0.702038 -0.859865 -2.70454 -3.07092 -1.09848 -0.59363 -0.642905 -0.305478 -0.81108 -0.301492 -0.73742 0.270955 -0.168757 -0.434581 0.258254 -0.334971 -0.399562 -1.15123 1.02009 2.67053 3.15867 0.863188 0.886123 1.10628 1.80494 -0.0441176 -1.16716 -1.72385 -2.15192 -2.747 -3.05688 -0.538139 1.54251 -0.310451 1.06557 -0.478376 0.567295 0.874463 0.210113 1.38671 1.06886 2.81747 1.83541 0.610914 -0.0921814 1.46605 1.03415 2.87371 3.67551 1.72264 -0.126276 2.25917 1.18527 0.709919 0.252921 -2.29414 -1.65144 -3.04134 -1.41751 0.0417858 0.145037 -0.580784 0.616104 0.284868 0.016442 -0.887208 0.339044 2.09923 2.72491 2.76765 1.96245 0.131798 0.792135 2.24701 1.75829 2.7308 2.65983 1.46222 -0.119577 1.1572 1.30516 0.989207 -2.03779 -1.44715 -2.13281 -2.99081 -2.15886 1.196 0.2715 2.34118 2.28004 1.60428 0.256408 0.928 2.05275 3.06618 3.39228 2.27253 1.33692 0.607623 0.504182 2.8893 1.54158 2.48495 1.90772 0.751557 0.0331016 0.205825 -0.390148 0.869593 -1.60583 -1.85938 -0.934503 -1.2319 -0.694144 1.56049 1.58185 0.982242 2.24604 2.20392 1.18899 -0.0266159 3.41582 2.73537 1.71616 -0.329622 1.04087 -0.608622 0.520503 0.822412 0.910088 1.28025 1.35787 -0.421675 0.340055 -0.313148 -0.264031 -1.6389 -2.01247 -1.93612 0.102222 -0.578498 -1.82163 -0.0994144 0.50296 1.15871 2.34185 2.76861 1.18227 2.32024 2.09527 1.09515 -0.37779 -0.924937 1.12242 -0.842976 0.131508 1.42908 1.36181 1.07053 0.965657 0.298956 0.0495973 -0.0308351 0.315905 -1.11232 -0.321346 -0.291741 -1.09394 -0.895212 -0.677354 -1.39075 -0.712407 1.31544 2.12848 2.00471 2.11211 2.6932 2.03996 0.679029 0.912746 -0.392665 0.407197 1.07056 1.24002 2.84705 1.77855 0.709251 0.702902 1.08163 -0.473191 -0.720701 -0.648691 -1.03696 -1.89875 -2.16991 -1.15619 -1.41985 -1.48914 -1.09144 0.0882073 1.10642 0.95 1.11146 0.902902 0.673649 0.0574757 0.487424 -0.621395 1.65534 0.904002 0.0416874 1.98172 0.836595 0.200595 -1.58344 -0.97469 0.32595 -1.13931 -2.53036 -0.651657 -1.88459 -1.58995 -1.94775 -1.49322 -0.96097 -1.30355 -0.194301 0.823239 0.741949 -0.89847 -0.552164 -0.260345 0.730168 0.62224 0.29336 0.916483 2.96388 1.53851 1.16786 1.66865 0.485553 -1.34896 -0.984917 -0.574156 -0.638875 -2.15678 -1.90062 -0.49786 -1.68071 -2.56852 -1.69023 -0.392893 2.31778 1.6581 0.961805 1.7798 2.26055 1.37313 1.00908 1.2129 1.809 2.36197 2.11006 1.98656 1.89891 2.97139 1.25523 -1.18763 -1.2596 -0.25319 -0.287206 -1.33642 -2.06278 -1.95392 -2.51381 -3.29882 -2.65579 -3.27116 -1.94247 -1.6168 -0.67624 -0.266829 -0.631461 -0.154732 1.89688 0.382322 1.81849 1.60599 1.72181 0.259783 -0.524538 0.478874 0.579258 -0.136512 -1.94105 -2.59462 -1.13432 -0.67775 -1.84377 -1.54737 -1.0342 -2.5889 3.23858 1.70258 2.63881 1.64099 0.353698 1.3872 0.443709 1.12266 0.08234 0.760419 0.0165441 0.237596 -1.07496 -0.594539 -1.26788 -1.16298 -0.512794 -0.653044 0.0430485 0.149046 0.648805 -0.374415 1.78608 2.21779 1.32444 3.10865 4.0351 3.77488 2.6324 2.34442 1.33691 1.42132 -0.0515342 -1.17557 -0.925141 -0.495636 -0.279199 -0.372926 -0.947928 -1.53754 -1.2398 -2.4002 -2.22434 -0.963085 -1.34652 -2.2427 -0.998375 -0.916243 -1.80729 -1.46406 -0.766496 -0.505556 0.371207 1.267 4.01936 3.48423 3.44057 2.5458 1.27416 1.68742 -0.610834 0.28461 0.388367 0.195259 0.290435 -0.98138 -0.633896 0.0197583 -1.59957 -1.9097 -1.79434 -0.977247 -2.21756 -1.70119 -1.26767 -0.446779 -0.797295 -0.728646 0.511822 1.33292 1.30617 0.899198 3.56114 4.33916 2.4923 2.71336 2.33987 1.80286 -0.00680755 -0.96138 0.492368 0.254953 -0.995261 0.500121 -0.109902 -1.12687 -1.4595 -0.076437 0.022073 -1.19988 0.100628 -0.948496 -1.06312 -1.1008 -0.213742 -0.04381 -1.07912 0.0328074 0.932754 2.79147 1.94686 4.55568 3.83923 1.3924 2.03623 0.496008 1.24404 -0.455111 -1.39546 -0.198097 0.581445 0.886063 -0.535357 1.08772 0.17457 0.129744 1.44059 1.23143 0.742097 2.03165 0.269264 0.16268 -0.300038 -0.601184 -0.221731 1.24268 0.642913 1.84166 1.61469 3.21443 2.87077 2.01506 1.56684 1.09993 0.673081 0.132552 -0.377948 0.119307 -0.34566 0.518915 -0.457355 -0.139168 0.832725 0.354226 2.31 1.18319 2.1775 2.63543 2.26215 2.08096 1.55788 1.14609 -0.339024 0.280927 0.75942 2.30582 1.5512 2.75804 2.62822 2.01317 2.43598 2.08623 0.899596 -0.324382 -1.47575 -0.181374 0.295213 1.26018 1.9113 2.23281 1.14572 2.69982 2.91161 2.96378 1.34752 2.63883 2.74114 2.27625 1.79345 1.57403 1.28234 1.2816 1.59554 2.48532 3.00329 4.08387 3.59532 3.15515 3.37325 2.53572 -0.612126 -1.32021 -0.39998 0.769583 -0.811199 1.15576 0.715283 1.96207 1.76216 1.55065 2.53718 3.09354 1.59576 1.80383 2.27771 1.40747 1.05045 1.11756 1.75931 1.58546 0.38186 1.69271 2.8099 4.64179 3.56705 2.09917 2.35253 0.890677 -0.857682 -1.40107 -1.10185 -0.562794 0.283927 1.29241 0.333857 1.58075 1.71989 1.78408 2.13696 3.3829 2.28882 2.49031 2.01943 1.33398 2.1635 0.269007 1.3947 2.38154 2.24825 2.91819 3.93863 4.94111 2.77276 1.98084 2.14424 1.82225 0.0207432 0.144059 -1.2115 0.139625 -0.79441 0.133426 1.7816 1.81803 0.800028 1.39685 2.34569 2.80022 2.23101 2.4369 1.50649 1.93148 0.762638 0.239121 0.856948 2.56456 1.7348 3.95333 4.43991 5.0483 3.08008 2.86223 2.28447 1.38422 0.610305 0.180598 -0.788471 -0.675611 0.188097 0.65275 0.185354 2.37495 2.41064 2.88087 2.51263 3.12027 0.985301 0.58605 1.17448 0.395033 0.982417 1.62909 0.181613 1.86046 3.50942 3.10109 4.07618 3.71442 2.40169 2.20776 3.23362 1.26782 0.0507369 -1.42299 -1.71581 -0.881314 0.431367 0.19232 1.24213 1.40574 -0.0524067 1.75615 1.83102 1.91566 1.10991 -0.275276 0.449119 0.162046 -0.0200908 -0.134406 -0.164246 2.45335 2.43194 3.32191 4.4216 3.84121 3.0468 3.85493 1.9482 1.08947 -1.32398 -2.31044 -2.5517 -0.857531 -2.05661 -2.02619 -2.05323 -2.14722 -1.46516 -2.31238 -0.187802 -1.00002 -0.92488 -1.55489 -1.46803 -1.11549 0.439399 0.342504 0.505574 0.880284 3.07852 3.72563 3.95699 3.5102 3.48177 3.68849 1.59119 -0.126822 0.387195 -1.72988 -1.93267 -2.94214 -2.406 -2.06426 -1.58034 -1.77079 -1.25725 -2.06603 -0.506967 -1.32539 -2.08535 -1.29618 -2.49535 -2.4125 -1.25515 0.904514 1.16526 0.496684 2.06892 2.94935 4.59418 3.73901 3.19218 3.58874 1.27547 -0.139 0.179826 -2.11241 -2.68138 -1.1247 -1.79944 -1.65678 -0.835889 -1.88569 -0.73063 0.721493 0.507253 -0.750776 0.790466 -0.312416 -0.537233 -2.09171 -1.89985 0.447293 -0.638726 -0.0766805 2.2807 4.34114 4.51805 3.87814 4.00179 1.99147 1.10724 0.0159564 -1.32262 -1.93465 -1.62589 -2.3431 -1.49891 -0.524706 -0.780225 0.290931 1.43987 0.973339 1.54894 2.51119 2.51491 0.487982 -0.298848 0.611062 -0.127615 0.577157 -0.593003 0.985319 1.85161 2.64211 3.50033 4.72924 2.60564 3.14363 2.0461 -0.400641 -1.63041 -1.04325 -1.84094 -2.347 -1.83709 -0.446251 1.388 2.7337 3.45124 3.48757 4.04511 2.79801 3.71006 2.01358 2.88113 1.29807 0.363331 -0.375483 0.501547 1.08988 2.07496 2.42187 3.48433 4.6653 3.97966 2.98136 1.24329 -0.258685 -0.712059 -1.2968 -2.5275 -1.3665 -0.327552 1.3514 1.07981 3.08159 3.47476 3.32884 3.0681 3.1892 2.83586 2.05451 1.97576 2.26213 0.67187 0.959058 0.89823 0.578587 1.58298 1.21824 2.3059 4.21093 3.32874 2.50433 2.97259 0.502288 -1.49213 -2.69634 -1.99635 -0.831944 0.224745 0.813228 2.03039 2.65297 2.37108 3.9038 3.23237 4.23984 3.37632 3.42325 2.20551 2.8294 2.72502 2.37923 1.80413 2.22557 1.77805 2.23957 3.07223 3.46885 2.80749 2.04596 1.52645 1.07428 -0.375273 -1.84903 -2.81867 -2.46753 -0.346023 0.682029 0.732169 2.59682 1.98017 3.93331 2.93193 3.101 3.77288 3.08842 1.83138 1.31397 0.940197 1.09099 1.62021 1.67111 0.967241 2.3834 3.60219 4.52857 3.69434 1.47403 2.11626 -0.513902 -0.948477 -1.80761 -1.1903 -1.78808 0.445902 -0.0713562 2.10747 2.80287 3.22259 4.00653 3.12825 3.98048 3.74956 2.73281 3.37628 1.33838 1.85699 1.49835 0.0477302 1.09753 -0.0971772 2.27847 2.8706 3.6464 2.93041 2.2536 0.982455 -0.248085 -0.573399 -2.41428 -2.03941 -1.60296 0.212959 0.583283 2.23461 2.5587 2.58336 3.04701 3.32915 4.31809 4.34953 2.67958 2.3448 1.79078 1.32857 0.0235781 1.07544 0.324727 1.61922 2.12993 1.7599 2.87487 3.29763 2.76015 1.33813 1.05141 -1.49789 -1.36332 -2.02042 0.607994 1.33579 1.24824 1.28052 2.44186 2.86745 3.58511 2.73912 3.57626 3.63887 2.32622 2.13827 1.93439 1.0558 1.30016 0.00241482 0.0937768 1.83137 2.57565 2.94467 4.29265 2.80416 2.22366 0.994153 0.368356 -1.86137 -3.0169 -0.952703 0.0171476 0.656074 -0.224412 1.26417 1.87906 1.43648 2.75348 2.15412 1.10255 1.78473 1.5776 1.32274 0.239345 -0.820895 -0.342489 -0.655863 1.0389 2.3378 1.66012 3.90472 4.67231 3.82402 1.28994 -0.250438 -0.738149 -2.63844 -1.8894 -2.36654 -0.889318 -0.0380833 -1.12423 -0.376396 1.01949 -0.0328501 1.81877 1.30231 1.16577 1.27186 -0.565177 0.231143 -0.35071 0.185293 -0.675108 0.407629 1.48109 1.35965 2.85943 3.09533 3.95249 1.77655 0.412559 -1.40114 -1.98738 -3.34907 -2.78375 -2.18604 -2.66319 -2.09447 -0.577029 -0.488239 -0.854998 0.920099 1.04858 1.11816 1.03374 0.38871 -0.316102 -0.497682 -0.523647 -0.796869 -1.6347 0.540939 0.103182 1.19046 2.14192 2.04559 2.77999 1.64512 -0.0996362 -1.87658 -1.95073 -3.49561 -2.66449 -3.57854 -2.6569 -2.83195 -1.59234 -1.51066 -1.26969 -0.952745 -1.29011 -0.283271 -1.29125 -2.03865 -1.02126 -1.80271 -0.479907 -1.39202 -0.165763 -0.462255 1.5162 2.22573 1.19424 2.07868 3.55622 -0.529731 -0.58881 -1.12052 -1.0255 -1.74454 -2.65843 -1.47683 -0.547063 -0.440004 -0.622086 -1.04681 -1.50988 -0.666103 0.58224 0.240347 0.768802 -0.914346 -0.237539 -0.290791 -0.259932 -0.28115 0.745365 0.246938 1.56772 1.90931 2.30001 2.56937 3.41482 -5.25586 -1.08418 -1.67403 -1.94173 -2.98451 -3.01631 -3.03773 -2.11419 -3.14144 -2.45329 -2.79752 -3.22153 -1.93249 -2.35852 -1.3955 -1.99772 -1.22557 -0.780882 1.11095 -0.789343 -0.359883 -1.53093 -1.48084 -0.978899 -1.34245 -2.73188 -2.2745 -0.943746 1.11091 -1.20041 -1.64529 -2.51441 -3.43522 -3.14924 -3.88336 -3.16653 -2.92439 -2.86539 -1.82474 -0.78466 0.302974 -0.357419 -0.0460706 -0.821071 -0.178384 -1.09472 -0.421696 0.00524719 -0.523454 -0.542875 -0.00184717 0.107164 -0.776623 0.317824 -0.240187 -1.11121 -0.847154 -0.410397 -1.7729 -1.19571 -2.86601 -2.26155 -3.50047 -2.71318 -1.81124 -0.0618901 -0.071627 0.971555 0.518843 0.58168 0.920769 2.06637 0.334072 0.980411 0.597146 0.946286 1.19567 1.48306 0.657499 2.51136 1.75405 1.57367 1.8353 0.384455 0.139254 -2.13 -1.31617 -0.24121 -1.84927 -0.788886 -1.00979 -1.06498 0.821637 0.0100607 0.532549 0.636461 2.08853 1.78249 2.01418 1.70963 1.93841 1.83443 1.64022 2.07745 2.56635 2.20072 3.30903 2.09914 0.698205 0.982781 1.93982 2.48194 0.638799 -2.46327 -2.28021 -1.88774 -0.245059 0.437727 0.00355901 0.713253 0.796196 -0.00814279 1.34274 2.34103 2.05778 1.40558 0.290099 1.804 0.974992 2.4096 3.48497 2.76588 1.30996 1.80878 1.55284 2.89007 1.8425 1.67919 1.76309 1.4189 -0.298184 -1.55684 -2.48743 -0.427227 -0.71329 0.662154 0.690027 0.845273 -0.178886 -1.222 0.19027 1.4509 1.65946 1.49011 0.932637 1.37983 2.59654 1.67212 3.05408 1.58621 2.84638 3.46989 3.16229 1.18906 3.08226 2.08621 1.59541 1.33382 1.29157 -2.52444 -1.69364 -0.459359 -0.331915 0.936283 1.77076 -0.58147 -0.484892 -0.00971173 0.736923 2.26166 2.11448 1.23096 0.659236 0.271956 1.12794 0.915191 1.21929 1.77154 1.7014 1.84388 2.40192 2.38598 1.05131 0.755472 1.87159 0.908081 0.386638 -1.11767 -1.53866 -0.342239 1.2236 1.95213 2.01739 -0.288038 -0.0284123 0.734943 -0.600884 1.29506 1.51872 1.43167 1.0093 2.20571 1.60085 1.23684 2.82102 1.25529 2.53494 1.73793 2.30129 2.42728 2.2169 1.58406 1.40633 3.11733 2.45518 -1.47414 -1.29885 2.39072 0.433077 2.09382 -0.316905 -0.214555 0.364738 -1.1763 -0.669355 1.63634 1.79092 0.707735 -0.624189 -0.163381 1.25879 0.0543127 1.71553 0.148521 0.520468 1.53968 1.10423 0.987787 0.281867 1.03962 0.762101 2.63512 2.01744 -0.526833 1.37445 1.78806 2.7672 1.89253 0.482765 -0.739504 0.474119 -0.376576 -1.6091 0.115468 -0.128485 -0.198613 -0.419584 -0.792052 -1.12381 0.422193 -0.264266 -0.148931 -0.347268 -0.415214 -0.607842 -0.715028 -0.207827 1.25729 1.58759 1.50191 2.13321 0.880676 1.51311 1.76465 0.651621 -0.0774832 -0.233009 -0.104976 -1.47696 -0.950495 -1.38258 -1.05544 0.563596 -0.562694 -0.487187 -1.0428 -1.30105 -0.927648 -0.401714 -1.50662 -0.300294 -0.982326 0.937774 -0.795918 0.814098 1.9417 1.05229 0.979768 1.54927 0.978927 2.22794 0.928656 1.80744 -0.245491 -0.720754 -0.680008 -1.73984 -2.37914 -1.15073 -0.389079 -0.588835 -2.0195 -0.928909 -1.03885 -0.21162 -0.919897 -2.61936 -0.252502 -1.05509 0.19161 0.728708 -0.526553 -0.0224685 1.93016 1.22864 1.17428 2.19242 3.61486 1.7009 1.31073 0.144262 -0.92178 0.654955 -0.228039 -2.51447 -3.44565 -2.62835 -1.05176 -2.86161 -3.62578 -3.82753 -3.00748 -3.82751 -4.29874 -3.73234 -3.93075 -3.27035 -2.05372 0.0169751 1.21656 -0.0234834 1.9616 1.07318 2.02752 1.70068 2.87005 1.81402 1.11426 -0.074911 -0.305101 -1.7998 -2.4078 -2.38946 -3.98206 -3.17601 -3.28556 -4.08414 -3.88044 -3.52309 -4.63004 -3.56448 -4.61339 -4.83756 -5.22675 -4.65056 -3.11309 -2.95764 -0.726934 0.03178 -0.277819 1.7932 1.02343 1.94349 3.60176 2.15801 1.38429 -0.273827 -0.167558 -1.91154 -2.17185 -3.11669 -2.91992 -1.70054 -2.24894 -1.95467 -2.76208 -2.5715 -2.71633 -3.86338 -3.03418 -2.29334 -3.14745 -2.89755 -3.15891 -0.873964 -0.486482 -1.43083 -1.4496 1.09631 1.57643 0.478884 2.69494 2.47054 0.73894 0.197843 0.0630249 -0.592888 -1.74852 -1.88665 -0.750065 -1.834 -1.49349 -1.07352 -1.1535 -0.744756 -0.705671 -0.875249 -0.232804 -1.6644 -1.77106 -1.82316 0.119152 -1.88228 -0.790625 -0.386064 -1.69972 0.672392 1.09078 0.551365 2.62149 2.96565 1.84144 -0.0655156 -0.884678 -0.73518 -1.65045 -1.81662 -1.64166 -1.49835 0.108982 -1.35476 -0.718129 -0.982798 -0.33633 -0.0720884 0.268467 1.23187 0.468844 -0.660585 -1.42307 -1.95124 -0.547536 -1.67906 -0.341562 -0.0767656 -1.07054 1.49497 1.11389 2.20353 1.37935 0.487873 -0.774551 -0.975841 -1.33576 -0.181952 -1.49863 0.560963 -1.64472 -1.18577 1.41951 -0.659701 -0.271271 -0.570473 -0.93469 0.468969 -0.783349 -0.599315 -0.399209 -1.08249 0.359421 -0.339528 0.212054 -0.560371 -0.695782 -0.240421 -0.269066 2.00386 1.37585 2.13228 -1.4246 -1.06493 -1.94636 -1.09588 -0.169399 -0.174402 -0.555903 -0.136879 0.52613 0.835089 1.23017 -0.272467 0.110609 -0.946748 -0.815675 0.869649 1.26626 1.41608 0.063824 -0.358075 -0.840495 -1.60105 -0.157511 0.603712 -0.334608 1.42575 1.06867 2.79352 -0.512178 -0.561497 -0.586337 -2.38064 -1.00692 0.130387 0.513883 -1.06317 -0.302972 0.0604405 -0.525817 0.729849 0.38781 1.65671 1.70473 0.199003 0.327336 -0.0918289 0.781718 0.698859 0.827849 -0.254663 -1.16126 -0.773595 -0.287625 0.51915 0.774782 2.78203 1.71489 -0.339124 -0.294054 -0.661008 -0.684679 -0.404999 1.33721 -0.565747 -0.407168 0.834879 -0.358627 0.274403 2.03285 1.58605 2.08053 0.240201 1.04408 0.975825 0.137632 -0.227871 -0.248559 -0.174207 -0.277278 0.311352 -0.751662 0.614458 1.86325 2.85022 1.26634 0.33633 -0.483609 -0.573834 -0.173056 -0.172308 1.04873 1.59682 -0.0616763 -0.448545 -0.442682 1.45326 1.5388 0.420119 -0.0512283 0.399342 1.0937 -0.866334 0.491993 1.03034 0.475064 -1.20563 -1.10977 -0.683535 -2.16976 0.921361 0.224262 2.81638 2.87697 1.60861 0.769711 0.686304 0.127589 1.45934 1.74448 1.61814 0.423639 2.27404 1.79897 1.88232 0.650975 1.35775 1.37806 0.178153 1.32331 1.01114 1.56086 1.08376 1.17825 0.270808 -0.496868 0.52418 -0.650408 -1.04987 -0.53554 1.25757 0.669734 1.26577 0.17796 0.434872 -0.790186 0.45672 1.58959 1.84591 2.58212 1.14705 1.44935 0.871713 1.21268 2.75238 1.51662 0.422063 1.3366 1.2317 2.13828 0.943191 0.0859844 -0.328696 0.503117 1.70154 -1.94953 -1.18423 -0.803269 0.774315 0.680769 0.610133 0.0663028 -0.36988 -0.594756 -0.0948899 0.865785 0.882535 1.9968 0.821447 2.0568 1.62576 0.844877 1.7119 1.49065 1.84527 2.95919 1.59883 2.18378 0.338746 0.175355 -0.413882 0.936413 1.5883 -2.48442 -1.61628 -0.996929 -1.43309 -1.93343 -0.636447 -0.977734 -1.22709 -1.67214 0.323892 0.0668645 0.651103 2.00156 1.50206 0.472891 -0.0645192 0.444004 1.87178 2.07313 1.63997 1.17057 0.0442649 -0.514985 -0.660899 -0.439588 -0.772633 1.27895 0.390324 -1.73131 -2.39207 -3.39047 -1.87636 -3.97005 -2.81614 -2.07009 -2.8573 -1.38834 -1.12882 -0.0365214 -1.28652 0.235322 -0.110132 -2.12855 -1.34842 -0.615057 -0.811021 0.118097 0.408664 0.66538 -0.796478 -0.421948 -0.0443718 0.0627245 0.776246 -0.435536 -0.652826 -2.88863 -3.81652 -3.25408 -2.66298 -3.12523 -2.95964 -2.68446 -2.47034 -3.08183 -2.68342 -2.20973 -1.51137 -2.29709 -2.03204 -0.139381 0.57267 0.655837 0.378601 -0.696433 -1.01283 -1.44347 -0.117416 0.110566 -0.0360293 -1.63113 -0.308288 -0.344736 0.419457 -1.04972 2.69176 1.15938 2.3426 2.37026 1.52609 0.718878 0.163561 0.0930712 0.331043 0.351595 0.83694 0.840525 0.915359 -0.308569 0.497592 0.754368 -0.611152 0.567117 0.822208 1.22098 0.891559 1.41654 2.48747 2.76164 2.74275 2.49987 2.83367 1.86733 1.89497 3.15148 1.22203 0.30879 0.870506 0.820742 -0.146372 0.441122 -0.801787 0.249407 0.628551 -0.28301 1.5552 0.401317 0.984759 0.460783 -0.127802 -1.18131 -1.18851 -0.994164 -2.40765 -1.8877 -0.178677 -0.340131 0.0930596 1.70556 3.11474 1.30748 2.5165 3.06929 1.86522 0.544573 1.23855 1.53592 0.904728 0.783404 0.177891 0.156297 -0.557955 0.967827 1.19925 2.23003 1.61887 -0.0601495 -0.96813 -1.22986 -0.605475 -0.842171 -1.27335 -1.97172 -1.18638 0.0305629 -0.115481 -0.456649 1.3202 2.98406 2.76714 2.57403 0.914732 1.85996 1.58781 0.856128 -0.0660099 -0.16261 0.315333 -0.909943 -0.847218 -0.111316 1.6388 0.564365 1.71553 0.183226 1.76346 -0.624172 -1.16723 -0.392015 -1.78854 -1.97464 -0.327133 -1.62162 -0.432525 -0.402632 -0.209858 1.39459 1.5823 0.90201 1.3485 1.34774 -0.639723 -1.61216 0.791914 0.916236 0.909963 0.120437 0.765602 0.821845 1.47957 1.60271 2.30043 1.02384 1.7356 -0.109882 -0.10133 -0.672921 -1.56116 -1.0829 -0.860644 0.0574217 0.329432 -0.32897 0.840753 0.85786 1.35739 2.56288 1.83843 1.94744 0.59601 -1.00342 0.055174 -0.502053 -0.242616 -0.423339 -0.353998 0.33086 1.24034 1.10531 2.06845 1.2014 0.19906 0.403866 0.60712 0.14778 -0.445578 -1.67596 -1.50386 1.11914 1.10005 1.04762 1.14706 0.708317 1.92635 0.980848 2.09737 -0.0719927 -1.54987 -1.31596 -0.472445 0.232887 -1.15293 -0.710288 -1.20416 -0.748533 -1.20319 -0.980533 0.209749 0.842788 -0.30832 -0.302364 0.377449 0.488834 0.124689 -1.4053 0.0356538 0.040124 0.739981 1.24838 1.71869 1.70364 0.937718 1.49147 0.819686 1.33994 -0.297829 0.217679 -0.740636 -0.796699 -0.462207 -0.526364 0.612359 0.824839 -0.574017 -0.736114 0.321179 -0.780158 0.402093 -0.305087 -0.413775 -1.1242 -0.665259 -1.10496 0.213623 -0.409154 0.866227 -0.253816 0.721505 2.42322 2.3258 1.63608 0.481307 0.14538 -0.241484 -0.0434318 0.554603 -0.271285 -0.891045 1.35835 0.445714 1.07606 -0.607623 -0.114906 -1.16607 -0.195972 0.420151 1.43127 0.494408 -0.342761 -0.902008 -1.47036 0.14387 -0.0811857 0.810445 0.658417 1.99999 2.13776 2.22722 1.96892 -0.505097 -0.258922 1.16524 0.515137 0.956186 -1.16263 -0.149685 0.972316 0.155566 2.27634 0.462264 0.483115 0.20581 0.507063 0.503635 1.22334 1.56547 -0.732112 -1.70545 0.124088 0.444457 -0.886155 0.824152 2.15789 2.00178 2.2479 1.00392 2.011 0.886534 2.15955 1.40809 1.30667 -0.217771 0.0172206 0.617782 0.743086 2.59738 2.81196 1.51225 1.11231 1.65625 1.76824 0.524528 0.99387 0.797012 -0.142933 -0.422542 -1.55595 0.574735 -0.471033 1.05268 3.27514 2.32591 3.24806 1.54505 1.29983 1.26465 2.47528 0.963254 0.0979592 0.93375 0.395954 1.14691 1.32188 0.913332 1.03542 0.530187 -0.136572 -0.444377 -0.21907 0.112201 -1.04089 -0.93824 -2.1929 -1.98855 -0.410875 0.469614 0.648242 2.75651 3.70151 3.93622 3.01878 1.48971 1.10785 1.21023 1.67462 2.29831 1.63046 -0.119261 -1.05273 -0.664856 0.755773 0.137267 -1.86585 -1.78929 -0.769094 -1.16347 -1.19452 0.0564267 -0.254903 -0.729392 -1.77577 -1.2007 -1.37649 0.890935 0.987129 3.42328 4.31074 5.42353 4.85511 1.25476 0.141618 2.39018 1.45593 1.17797 0.352839 1.50802 -0.852878 -0.834828 -0.977875 -0.343728 -1.47267 -2.72328 -1.10569 -0.858734 -0.813334 -1.10404 -1.90788 -2.18527 -2.70973 -1.15124 0.307646 0.9441 1.64217 3.78543 4.66966 4.41185 4.622 1.26021 1.71609 2.05808 1.19657 0.0774026 1.12747 -0.296034 -0.283486 -0.977582 -1.4061 -1.26467 -1.33127 -1.88368 -1.50973 -1.4975 -1.17642 -0.548577 -0.560834 -1.36167 -1.99864 -1.09498 -1.85728 -1.00782 1.02073 1.69629 2.99352 4.94685 3.02525 1.75132 0.825776 0.521484 1.91699 0.607175 1.25921 -0.339283 -0.31827 0.418072 -0.944503 -1.37097 -1.96125 -0.362194 0.441638 0.121288 -0.00556306 0.325126 -0.151814 0.50672 -0.736455 -1.01417 -2.12138 -1.022 0.0327708 1.16066 3.17434 3.41516 3.74532 1.43293 0.965545 1.2952 1.40901 -0.626501 -0.192396 -0.0933185 -0.499905 -0.601358 -0.305128 -2.03811 -0.949198 1.37813 0.332627 0.184793 -0.156567 -0.407588 -1.75582 -0.383021 -1.34014 -1.96002 -0.869919 -1.25263 0.144128 1.57086 1.40904 2.26113 2.44469 1.6855 1.23086 1.50232 1.06019 -1.06266 -0.238043 -0.867154 -1.54434 -1.2054 -0.575783 -0.242554 0.937579 -0.0273826 -1.02335 -0.303798 -0.0797869 0.24205 -0.137943 -0.634766 -0.138207 -0.905331 -2.3351 -0.74826 -0.330829 1.01378 1.89153 1.68661 1.76662 1.53726 2.26274 1.56219 0.487379 -0.665299 -0.568637 0.357701 -1.52422 -0.723958 -1.8609 -0.457695 -0.173506 -1.21953 0.0405665 -0.195305 0.486362 0.779695 0.15921 0.46793 -1.05902 -1.28824 -1.18206 -1.70771 0.137101 0.340078 0.819219 1.38337 0.0379194 1.76281 1.22882 1.17776 -0.0982233 0.174588 -0.921785 -0.373123 -1.92884 -1.12214 -0.69958 -0.462368 0.652089 1.4851 -0.0194522 -0.686116 1.63684 0.285105 0.366486 0.0395151 1.1668 -0.337969 -0.664895 -0.896571 -0.453757 0.533082 1.06495 0.253367 1.29454 1.76648 1.39609 2.71813 0.619587 -0.931367 -1.34097 0.0151799 -2.55333 -1.71373 0.0153523 -0.618396 1.35781 1.44167 0.847982 0.930732 1.52455 0.803244 1.09084 1.3309 0.65048 -0.467117 -1.19911 -1.30458 -1.45968 -0.862683 -0.128486 0.202631 1.08213 0.105042 1.09598 2.53438 1.26889 -1.23304 -0.226479 -0.99187 -1.49218 -0.59602 0.179676 0.160594 0.859421 1.18692 1.53187 2.04468 1.72098 1.65635 0.998126 1.00311 0.803664 0.0229705 -0.0849736 -2.45089 -1.17684 -2.27457 -1.68592 -1.05974 0.169127 1.59157 2.5102 1.16868 1.28263 0.219455 -1.60042 0.274765 0.44598 -0.62373 2.29975 0.881688 0.753761 2.89487 2.14816 3.10552 2.57152 3.02376 1.19043 1.80188 -1.17489 -2.39948 -2.51455 -1.24596 -3.00039 -2.73316 -0.423413 -0.779801 -0.281489 0.541171 0.919366 1.02389 0.979582 -1.81256 -2.47823 -0.156343 -0.856223 -0.807061 -0.117599 -1.07258 -0.275842 0.18932 0.670478 2.03689 1.11151 1.19832 0.120131 0.518493 -1.94929 -2.49349 -1.35319 -2.12714 -1.85217 -1.08794 -1.53693 0.678602 -0.0746747 0.165837 1.7181 -0.0972225 -1.32742 -2.13857 -0.318484 0.629435 -0.0965845 0.542109 -0.394253 -1.18032 -0.706831 -0.764276 -0.0255925 0.801915 0.742851 0.55602 -1.14864 -0.0190733 -2.50338 -2.48317 -1.74188 -1.96479 -3.22589 -1.72478 -1.8291 0.828182 0.893443 0.766529 1.94539 0.635889 -0.223084 -0.907386 -0.182053 -0.14509 0.463591 0.465271 0.16496 1.12569 0.718099 0.0412484 0.348033 1.53977 0.433755 0.426703 -1.07729 -0.0388868 -2.24862 -3.27304 -1.29365 -1.38059 -1.1048 -0.822909 -0.838889 1.14887 0.314171 0.835205 1.62824 1.54549 0.957874 -0.657786 -0.547661 -0.981113 0.473946 -0.273978 1.67654 1.27877 1.78195 0.164795 0.257279 -0.264275 -0.132547 0.708264 0.393422 -0.98439 -1.92239 -3.23543 -1.44284 -2.111 -0.873056 -0.277074 0.438571 -0.800441 -0.392043 0.0930261 -0.444269 0.977619 1.42257 1.19036 0.686844 0.920847 0.158685 -0.129119 0.483898 1.23045 1.18025 1.68801 1.41568 -0.498615 -0.78337 -0.0881539 -0.131971 -0.747268 -1.10909 -0.887749 -1.34483 -1.44101 -0.0796535 -1.7441 -1.725 -2.34212 -0.927717 -2.62864 0.689175 0.365607 0.893015 0.603438 -0.666177 0.242523 0.755192 0.980141 0.73539 0.771931 0.685884 0.387324 -0.28283 -1.08465 -1.86306 -1.58725 -1.92076 -2.67644 -4.17738 -3.86859 -3.31885 -1.58457 -0.011003 -1.01265 -1.00782 -1.85943 -3.37173 -1.76847 0.775414 -0.394788 0.92568 -0.266403 -0.771898 -0.936031 0.909718 0.374435 1.99387 1.99365 1.15947 -0.654364 1.33607 -0.775764 -1.10248 -1.91133 -1.27985 -1.82147 -2.61302 -2.1705 -0.0841194 -2.25552 -1.88742 -3.08131 -1.94886 -2.86685 -3.46779 -2.86061 0.480852 -0.328887 0.219729 -0.0157462 0.668012 0.625081 1.50997 2.15929 2.43788 0.984497 -1.78385 -2.3648 -1.74702 -1.42545 -0.839422 -1.11494 -0.209209 -1.02387 -1.10139 -2.82569 -3.49239 -3.81261 -2.7311 -4.03966 -3.43813 -3.44749 -3.77321 -1.91042 -0.104466 0.0439064 -1.06225 0.136231 0.592351 0.979102 1.10375 1.19317 0.037011 -1.49004 -2.4608 -2.4515 -0.336851 -2.06805 1.25878 0.624865 0.268531 -0.391787 -0.857609 -1.59144 -1.0877 -0.234495 0.767019 0.549331 -0.259766 -1.00623 -2.15269 -3.59709 0.473983 -0.380353 -1.87106 0.368573 1.301 -2.04655 -0.0121269 1.24896 -1.14196 -3.02763 -2.00584 -0.517903 0.191864 -0.464306 1.11981 0.11814 -0.640056 0.149897 -0.774384 -0.780053 -0.509025 -0.146688 -0.428474 -0.450844 0.903532 -0.403195 -1.88905 -2.61292 0.0177031 -0.988645 -0.864386 0.929294 0.0295573 -1.80423 0.64088 0.838617 0.662262 -2.90079 -1.43779 0.140312 1.22191 -0.589729 -0.530697 -0.0585728 0.174887 0.767154 -1.06815 -0.89189 -1.07083 -1.63601 -1.06404 0.657298 2.35646 0.562078 -2.49364 -1.48135 -0.475927 -2.01496 -0.158539 1.05095 -0.923869 -2.66118 -1.10578 -0.543218 -0.93124 -2.9482 -1.07572 -1.26766 0.794637 -1.49039 0.21968 -0.53544 -1.408 -2.25711 -2.07758 -2.37646 -2.68709 -1.43123 -1.47226 0.136377 0.517552 0.370488 -0.904247 -1.56736 -0.407214 -1.64724 -1.14437 0.799004 -0.928964 -2.55506 -0.858765 0.0938152 -3.09634 -0.777753 1.25986 0.740299 -1.77872 -0.61266 -1.75106 -0.667161 -2.13122 -2.84734 -1.97884 -2.98192 -2.4089 -0.421464 -1.98608 -1.53964 -1.1958 0.127 -0.168154 -1.44128 -0.744374 -2.1386 -0.673805 0.0203695 -0.840854 -2.45463 -0.42819 -1.41116 -2.74705 -0.188362 1.93189 0.755418 0.347571 0.486898 -0.442017 -0.452036 -0.159466 -1.66859 -0.815994 -0.677214 -0.560597 -1.00702 -0.844206 -0.283698 -0.00358763 0.648114 1.17651 -1.30783 -2.02445 -1.08951 -2.20105 -0.107509 -0.149195 -0.927952 -0.407317 -1.33112 -0.237173 1.4981 2.24735 -0.427323 0.558413 0.615501 0.414501 -1.24287 0.789278 -0.568953 1.42034 1.287 -0.595021 -1.77203 -1.86141 -1.29914 -0.642299 -0.426248 1.27199 -1.19884 -0.594964 -0.686234 -2.22453 -1.73641 -0.626378 -1.38463 -2.08279 -1.36027 2.37335 3.26502 1.67727 0.631671 0.0705408 -0.353695 0.999026 0.292534 0.857353 0.162316 1.6298 1.20327 0.140645 -0.595541 -0.799431 -0.729277 0.169323 0.177179 0.59045 -0.293095 -1.65088 -1.78742 -2.25655 -1.38939 -0.289219 0.0272105 -0.503049 -0.556776 2.90822 2.03098 0.181195 1.46987 0.0423559 0.448224 0.323585 0.0635682 1.00186 0.13923 1.06 -0.0868295 0.589693 -0.494429 -1.55458 0.0307817 1.68269 1.15554 1.40733 0.21181 -0.672146 -2.57808 -1.15347 -1.4281 0.571686 -1.14191 -0.380429 2.49999 2.55062 1.62319 0.809015 1.32049 0.58808 -0.347796 -0.599812 -1.15286 -1.3016 -1.73863 -1.66074 -0.362049 -1.08497 -0.5221 -0.0653128 -0.506935 0.278441 1.38425 0.504457 0.427046 -1.53387 -3.06351 -1.94042 -0.0522385 0.895163 -0.542241 0.198607 1.82023 2.24125 0.314485 2.04699 2.43152 -0.670234 -0.391348 -1.19232 -0.793923 -0.448573 -0.237068 0.490613 0.882795 1.37292 -0.00744173 1.47307 2.32177 0.949919 1.67081 2.11904 0.739003 -0.827399 -1.985 -1.01512 1.04401 1.70302 0.801856 1.68377 2.9532 2.33924 0.0671015 0.69447 0.426431 0.00765657 1.29346 -0.393574 -0.338742 1.2436 0.954274 2.21507 1.74504 2.81896 2.10677 1.55347 1.84269 1.9373 1.80473 2.00973 1.43014 -1.35727 -1.77895 0.348072 0.481235 2.43676 -0.189025 0.834396 0.933089 1.12712 0.892717 1.15266 1.75791 1.83545 0.389855 -0.0830228 0.596884 -0.215974 0.726967 1.30706 2.43141 2.20616 0.00837689 2.81901 2.42544 0.671017 1.71982 1.74067 0.934363 -0.419317 -0.748362 -1.35438 0.446594 2.97284 -0.72934 -0.0989816 0.771297 -0.884137 2.34589 1.80356 0.105296 -0.0325364 0.567678 -0.385157 -0.814408 0.434027 0.1898 0.333101 0.808282 0.953101 0.0991778 2.11968 1.89782 1.33548 1.9751 1.10986 0.0223635 -1.70504 -0.406774 0.141027 -0.281417 0.669379 1.20502 -0.105132 -0.774021 -0.794178 1.93192 1.30728 -0.345207 -0.343085 -0.465069 0.260131 0.258821 -2.16317 -1.6043 -1.54216 0.132482 0.283235 1.23544 1.35796 0.586453 0.464118 1.26545 1.39919 -0.765514 -2.0065 -1.07011 -0.199478 -0.228682 1.97013 -0.0887939 -0.903047 -1.60766 1.41545 2.67574 -0.136456 -0.600967 -1.35376 -2.60817 -2.28261 -0.572234 -1.63157 -2.39911 -1.01749 -1.55502 -1.18986 -1.03412 -0.012071 1.10431 -0.434905 -0.161337 -0.29065 -2.04307 -1.05203 -1.33249 -0.182076 0.432017 1.65494 -1.01133 -2.19987 -1.29988 1.08101 2.4187 0.780226 -0.226821 -1.90884 -1.1677 -2.20334 -1.20508 -0.374599 -1.49144 -1.86054 -0.989827 -0.264658 -0.919427 0.590647 1.14454 0.308541 0.126671 0.60282 -1.96694 -1.27242 -0.997657 0.238648 1.56363 0.903371 -1.75741 -0.889103 0.260089 2.25998 2.06172 1.25339 -1.74923 -1.61915 -1.77676 -1.54424 -1.84683 -2.30352 -0.138066 -1.00789 -1.33613 -0.180699 -0.186235 0.05059 1.43139 1.53465 0.242615 0.264921 -2.23202 0.0390896 0.020209 0.231277 1.01845 1.65633 -2.26434 -1.82323 0.377184 2.20293 1.5037 0.868119 0.566014 -0.454755 -0.294968 -0.363104 -0.754172 -1.81379 -0.0626894 0.480452 0.138508 0.22226 -0.304426 0.987359 0.465522 2.45327 2.06103 1.02797 -0.179703 -0.285466 0.385401 -1.07784 0.831681 0.237864 -1.29104 -1.13624 1.0622 0.61258 1.62348 1.16385 -0.0873475 -0.349573 -1.61308 0.057908 0.861988 1.28723 1.49973 0.013299 1.21145 1.17549 1.58564 0.40745 0.496187 2.7405 1.45802 -0.331908 0.230494 0.572798 -0.775526 0.558162 1.62227 -0.219154 -0.606671 -0.481777 1.27927 1.65459 0.773792 1.781 1.38036 0.997974 -0.283178 2.28136 3.9564 2.43414 2.92848 1.68597 3.05608 2.49889 1.65742 2.24237 1.57357 0.819705 1.34063 -0.205129 -0.808022 0.563152 1.11725 0.401075 -1.79617 -1.81455 0.188617 1.75404 3.31801 3.0313 2.06108 2.98376 0.917804 2.13585 2.06822 2.50868 2.52618 2.88421 1.2966 1.33854 1.36694 1.41045 2.58133 3.70234 0.615034 -0.0436623 0.42248 -0.618348 0.0176592 0.707972 1.26337 3.07322 -0.078593 -1.20354 1.00873 4.74918 6.12239 4.27995 3.62734 0.989973 2.30422 1.02422 0.431839 2.35538 1.3972 3.24642 3.42604 4.01296 4.5917 3.46573 3.61364 2.04704 1.36632 0.101945 0.835752 1.18176 0.773549 -0.5734 -0.645024 0.60933 0.235837 1.47148 1.20094 2.32837 3.92612 3.4664 1.77374 2.63382 2.66087 1.45833 2.50513 1.50684 1.73204 3.69384 5.18702 5.05496 4.95675 3.03431 3.06727 1.24415 1.2002 1.05878 0.479098 1.04838 -0.176138 0.961376 -0.396777 0.411071 -0.75763 -0.472177 -0.802349 0.497997 0.85463 0.850867 1.35127 0.318377 -0.348345 1.1362 1.29618 1.54283 1.71767 3.19551 3.18566 2.70418 3.19172 2.58014 1.87189 2.00647 0.718506 1.51311 0.97192 2.14127 0.155143 1.6425 -0.796915 -1.75275 -1.90444 -2.39068 -1.41709 -1.70275 -0.841602 0.0223686 0.247743 -1.50313 -0.411089 0.130498 -0.673785 -0.046068 -0.171583 -1.31333 -0.967188 -0.481644 -0.955981 0.0375866 0.0226083 0.446929 -0.147509 -0.356659 0.495203 0.871088 1.23622 1.73352 -0.34295 0.328869 -1.54254 -1.91397 -2.15446 -1.06355 -1.02081 -0.528924 -2.23171 -1.96636 -0.16456 -1.91909 -1.68427 -0.977847 0.583267 -0.43414 0.0217565 -0.792331 0.255948 -1.28083 -0.123056 0.463081 -0.756991 0.405899 0.38033 0.485627 0.413965 1.20977 -0.29974 -0.714783 0.00500354 -0.182548 0.421571 -0.72047 -0.900539 -2.40172 -2.11506 -2.00983 0.401059 -1.05855 -0.802561 0.962284 0.508952 0.690595 0.430062 0.221386 1.60283 -0.334102 0.166478 0.344273 0.171585 0.352211 0.871739 0.492945 0.146304 1.74453 0.063749 0.447842 0.554502 0.0303623 -1.25841 -1.1409 -1.03029 -2.2098 -2.36525 -1.34481 -0.764632 -1.23429 -0.499877 0.0166757 1.09326 1.4509 0.67821 2.40573 0.454747 0.984104 1.79645 -0.27269 0.617819 0.218488 0.717992 -0.857651 1.38259 1.44845 1.08671 0.654675 0.576347 0.753783 -1.0803 -1.6883 -2.30178 -1.73288 -1.02311 -0.211083 0.264001 -0.329726 -0.905122 0.172 2.15227 1.29361 1.17336 0.920703 2.55678 1.75594 0.824166 2.58212 1.55744 -0.393751 -1.77881 -0.814738 0.735042 2.34638 1.17984 2.09419 1.08344 1.22515 -0.302003 -1.10698 -0.84207 -0.856236 -1.0544 0.384556 -0.21739 -0.974943 0.976047 1.22299 2.21643 2.11553 0.803682 1.38996 1.28451 3.46217 1.08231 1.89225 1.35788 -0.398834 -1.41588 -1.14716 0.881712 1.07447 1.93252 1.32079 1.94789 0.677499 -0.462205 -1.76712 -1.42392 -2.33912 -0.874909 -1.0216 0.750285 1.31632 0.554487 1.21971 0.976031 2.23539 1.43811 2.3151 2.12253 3.05616 2.13845 3.03927 1.49425 0.400514 0.275574 0.163597 1.9163 0.67197 2.74659 1.48912 0.443638 1.34478 -1.21592 -2.3312 -1.28694 -0.17812 -1.06287 -1.47039 1.33907 1.41069 1.02405 2.29899 2.27552 1.58112 2.1205 2.12523 1.02006 1.50842 1.43828 2.56051 2.10445 -0.664738 -0.0307859 -0.60491 1.32179 1.89752 3.11992 1.54339 1.27486 -0.178792 -0.788744 -0.627571 -1.2418 0.256457 -0.802791 -1.16356 0.325758 1.21573 1.51092 1.79553 1.65869 0.688999 0.98679 0.252455 0.652832 0.551806 -0.808555 1.26438 0.474373 -0.0111283 -0.243663 -0.384864 1.73268 1.7527 2.6878 1.27336 1.61675 -0.303088 -0.345244 -1.32772 -0.47067 -1.7451 -0.790288 0.0980377 -0.577438 1.12931 2.02865 2.24878 1.42575 1.99694 1.61295 1.77394 0.781704 1.08116 -0.624601 0.250507 -0.798364 -0.906778 -1.16908 0.111834 2.07978 2.5553 3.14554 1.592 0.0771363 0.347757 0.0323259 -0.314288 -0.936649 -2.2965 -2.29512 -0.813887 0.850331 1.12392 1.75811 1.99497 2.55276 1.24747 0.879202 1.92836 0.34706 -0.0274972 0.849174 0.37904 -0.37292 -0.831081 0.481125 -0.104867 0.573873 2.731 3.21497 2.70385 2.11256 1.07725 -0.303317 -0.52254 -1.24878 -0.8258 -1.42382 -0.729289 0.413768 2.23645 2.39723 2.32694 3.01283 3.16378 2.69663 0.0660991 0.0851896 0.181038 -1.14705 -0.354442 -0.107637 -0.626151 0.550501 0.663783 -0.0167668 2.00074 1.73219 1.46005 1.35884 1.61449 -1.04754 -1.69704 -1.43468 -1.49654 -0.769543 -1.30763 1.29339 0.616859 1.05012 2.55015 2.45891 2.17632 0.896322 -0.235783 -0.559674 -1.45905 -0.344567 0.32442 -0.26746 -0.0168556 0.365542 0.329421 0.988112 1.82546 3.01218 2.64406 1.14915 1.56744 0.787307 -0.363633 -1.0197 -2.27704 -0.36373 0.9981 1.30791 0.092931 0.192956 1.20617 0.992287 0.314811 0.355199 -0.367654 -1.21717 -0.647263 -0.0629997 -0.319986 0.848278 0.946683 0.0189571 0.918388 0.312402 1.19141 3.46039 1.87236 2.96039 0.472452 0.273811 -1.16539 -0.35213 -0.945533 0.478235 0.391798 1.59119 1.42446 1.72428 1.79598 2.82016 1.30086 0.726306 1.1032 0.831535 0.0516711 1.18185 -0.120254 -0.40664 0.0690134 -0.140833 1.31205 0.44433 2.37166 4.09691 3.55231 0.639243 0.872526 0.184341 0.367766 -0.313464 -0.317113 -0.0485512 1.23384 1.31401 3.92465 3.48189 2.99847 2.87234 2.04872 2.55982 1.85385 1.75305 1.44688 0.47309 1.47559 0.356662 1.32685 1.40199 -0.0578647 0.76288 1.35345 2.67457 3.08635 2.00307 -0.148679 -0.682284 -0.158397 -0.0207221 0.0281973 1.8053 1.98355 3.58125 4.54568 2.96438 4.03205 4.25397 1.89146 3.12331 2.21413 1.57328 1.17485 2.92837 1.18048 1.5852 0.0282104 1.30101 1.08246 2.12326 2.4708 2.17728 1.76063 1.70146 0.119297 0.113072 -1.06999 -0.180845 0.468973 0.918679 2.00504 3.58993 2.30941 2.0304 2.64873 1.43697 1.55387 1.94105 1.00397 1.65062 3.12469 2.40116 3.26264 0.865422 1.20849 -0.157249 1.42258 1.27443 2.81884 2.78523 1.20692 0.565859 0.339331 -1.06215 -1.7217 -0.766477 0.755903 1.23248 1.84 0.781568 0.8454 1.14077 1.61523 0.938456 1.65982 1.02954 1.43271 2.88285 2.49114 2.15534 2.55439 2.24109 2.38891 0.686317 1.78307 1.436 1.97469 2.77393 1.92271 -0.180018 -1.42948 -2.29504 -0.597208 0.487662 0.899803 -0.0176978 -0.21016 0.246776 1.73232 0.247387 -0.237166 -0.413348 0.491168 -0.191164 0.781712 0.85007 1.68726 2.04914 1.67169 1.37208 1.29051 1.35207 0.225916 1.52222 1.24451 3.35457 1.71562 -0.121547 -1.14322 -1.3563 -0.822958 0.13297 1.37768 1.02298 1.04363 1.68673 1.74193 2.24899 -0.104417 0.315006 -0.996961 0.243743 0.316488 1.52196 1.99633 1.12576 2.89383 1.78486 1.8025 0.428168 1.9578 0.817843 2.89894 1.06898 0.764892 0.326571 -1.94437 -1.81275 -1.64463 -0.0277359 1.56125 1.32489 0.173766 2.22999 1.16562 0.289022 0.768271 0.807868 -1.06394 0.35221 1.52053 0.29551 0.829482 0.489734 2.16957 1.13101 2.30446 1.72052 2.21127 2.33081 2.92459 2.30189 1.60584 0.376044 0.351916 -2.25812 -1.28992 -0.0525435 -0.753424 0.669474 0.531509 0.460012 0.907217 0.737518 -0.504558 -0.855406 0.581486 0.232755 0.457105 1.30172 0.786149 1.14825 2.49916 2.81749 3.20178 2.52558 1.47993 3.13384 2.17584 0.781469 1.12963 -0.337548 0.56366 -2.36054 -0.871321 -0.442647 -1.55627 -0.793742 0.325839 -0.263898 0.619048 -0.380331 0.628467 -0.234887 -1.24575 -1.5054 -0.309988 -1.14038 -0.979824 0.275962 0.826598 2.18258 1.57288 3.18951 2.02754 1.83872 3.05328 2.04509 -0.515631 -0.727293 0.187333 -1.09562 -1.78658 -0.767822 -0.771431 -0.334335 -1.04994 -0.246701 -1.11777 -0.457996 -0.901901 -1.20148 0.0938093 -1.37216 -0.342708 -1.54137 -0.34042 0.98066 1.39898 2.65142 3.47092 1.60305 3.26288 1.96913 2.01776 1.62962 -0.354142 0.117387 -1.4711 -1.49169 -0.290251 -0.188607 -0.880776 -1.19891 -1.70838 -1.28579 -0.559193 -1.85278 -1.91028 -2.12973 -0.647565 -1.08482 -1.373 -0.371405 0.862199 0.902314 3.14826 2.12381 2.58236 3.1481 2.71343 3.01726 1.85732 1.27735 0.499371 -0.996575 -0.0358204 -0.637098 -0.647629 -2.82959 -3.57853 -2.91836 -4.34524 -4.26673 -2.33575 -2.28608 -2.73662 -2.04173 -2.98258 -1.66269 -0.986143 -0.0732067 -0.167234 0.243187 2.07147 1.3998 1.83603 2.07483 2.02163 3.45475 1.87731 1.43987 -0.479553 -0.543201 -0.637392 -1.71871 -1.46098 -2.35683 -1.25712 -2.83662 -3.36325 -3.42259 -3.2288 -2.40071 -2.74409 -1.30456 -2.73504 -1.51058 -0.619093 -0.188926 0.487343 1.06911 1.47429 2.64419 2.32159 2.95091 3.13564 3.14969 4.04725 -0.991354 0.150998 -1.14999 -0.287516 -0.579712 -1.99108 -0.378411 -0.903035 -2.12269 -2.90939 -1.69714 -1.74913 -1.93735 -0.50375 -0.61462 -0.619754 -2.38902 -0.635309 -1.38677 0.441236 0.651176 1.79929 1.45855 3.43462 3.9056 4.63928 3.60079 3.69914 3.24004 1.40493 -0.307857 -0.678987 -1.07745 -1.50705 -1.94395 -0.914028 -0.445068 -1.89975 -2.1396 -2.29482 -1.61669 -2.00357 0.289186 0.31145 -0.100896 -0.391614 -0.191911 0.420782 -0.0660569 1.09782 0.506218 1.43867 1.22908 2.30424 3.08307 3.06692 3.52021 1.28814 -0.103182 -1.09099 0.762171 0.297724 -0.149623 -0.296406 -0.918144 -0.63739 -1.01454 -1.85334 -1.59865 0.301 -0.244548 0.46942 0.960855 -0.115868 0.44529 0.508965 -1.22518 -0.846834 -0.149507 -0.518002 -0.807629 0.156755 1.37175 3.24649 2.86273 -0.164659 0.342201 0.0263912 -0.917213 -0.824215 0.649844 -0.840464 -1.76044 -1.63377 -2.13159 -1.25758 -1.19808 0.993308 0.719479 0.138075 0.853641 -0.635357 -0.245174 0.189958 -0.485844 0.0203175 -1.25623 -1.60306 -0.429199 -1.35514 -0.251525 1.29247 2.99914 1.23471 1.49486 0.515885 0.193414 -0.458531 -0.261774 -0.891099 -0.393834 -1.92571 -1.86996 -1.23297 -0.343141 0.145798 1.54418 2.40801 0.865487 1.43318 1.06263 -0.333243 0.552363 -0.227054 -0.923744 -2.34589 -2.38676 -2.89507 -0.0279275 0.569541 1.49245 1.50571 1.25528 1.53727 -0.619861 -0.467912 0.192541 -1.06383 -1.93519 -0.889131 -0.849993 -1.20785 0.178762 0.514672 1.48553 1.76667 2.72133 1.69371 0.98642 2.08631 1.33583 -0.0793513 -0.300031 -2.2594 -3.60962 -2.68529 -1.40635 0.24446 1.79957 2.49612 1.57518 -0.280757 0.105972 -1.60672 0.571281 0.155896 -0.695789 0.662274 0.54375 0.518691 2.10654 0.913021 2.70622 2.96017 3.12476 4.24475 2.06475 2.24275 -0.105056 -0.700538 -1.16432 -1.87272 -2.74199 -3.28543 -3.48375 -1.13933 0.67312 1.71156 0.908753 -0.789776 -0.326956 -0.208727 -1.66286 -1.1976 0.546777 -0.539883 0.738533 0.0991455 1.90363 2.6546 3.91338 4.0343 4.75793 3.81726 3.6223 1.69087 1.29267 -1.35074 -3.13142 -2.7128 -3.79209 -3.74621 -4.43433 -1.12835 1.01949 1.40504 1.30945 0.863463 0.572767 -2.25131 -2.31344 -0.876447 0.369733 0.0412026 0.548283 1.4404 1.03863 1.79582 2.49283 2.79832 3.36131 2.61622 3.55308 1.91423 1.94729 0.322415 -1.33846 -2.94436 -4.58987 -6.08832 -5.20889 -1.07889 2.19095 1.18068 0.77672 -0.0386716 0.22085 -2.011 -1.80125 -0.389872 -0.654573 0.527273 0.231819 0.445298 1.92969 0.586726 1.75156 3.54056 2.64931 2.31836 1.83395 0.472532 0.504784 -1.33127 -0.620818 -2.72984 -4.09285 -3.41556 -2.67757 -1.80489 2.20594 1.85664 -0.201862 0.457174 -1.26388 -1.02304 -1.41362 0.851886 0.793325 0.637917 1.29357 1.83348 2.32375 1.08876 1.12973 1.96982 1.31901 1.31443 1.55987 0.645894 -1.16079 -1.07819 -1.8775 -1.61232 -2.92463 -4.07799 -2.68336 0.60716 0.577866 1.90954 2.00321 -0.718965 -0.753017 -0.28169 -0.0552368 0.145287 0.397515 1.22542 0.824759 0.635517 1.65978 2.18552 0.839801 1.54061 2.57448 1.07622 0.608524 -0.516514 -2.12607 -0.939678 -1.04904 -1.47874 -1.43752 -0.620244 -1.06148 -0.264053 0.643049 0.8199 1.55012 -0.596852 -1.44316 -0.985757 -1.62222 -0.182515 0.611941 -1.45959 -0.708174 -0.404552 1.32013 -0.202862 0.0774421 -0.263819 0.349537 -0.103062 -0.889444 -1.24701 -0.994544 -0.00555454 -0.157302 1.40658 1.12421 0.604012 -0.933015 1.55853 1.56954 0.798554 -0.362384 0.609667 -0.0156467 -0.892043 -2.04256 0.353975 0.000650211 -0.0425601 -0.103882 -0.0836795 0.0890823 -0.578229 0.542001 -0.66797 -0.965728 -0.800659 0.299311 -0.691358 0.299943 -0.628045 1.46989 1.01242 1.01557 0.318953 -0.617088 0.746425 1.40154 0.264201 0.366476 -0.793415 -0.430589 -1.83291 -2.62854 -1.39228 -1.49084 -0.677073 -0.460444 -0.553872 -0.523789 0.440033 1.68821 0.980417 0.405735 0.772935 -0.198876 -1.16065 0.0950894 -0.594565 -1.85765 -1.00863 -1.00669 -0.939118 -1.44668 1.03565 1.51627 0.437751 -0.251422 -0.766162 -0.540778 -1.45969 -1.55524 -1.18199 -1.44543 0.337693 -0.591414 1.01357 1.23889 2.2479 2.86862 2.12914 0.74069 1.94295 1.76232 1.97174 -0.391027 -0.815811 -0.347434 -2.17657 -3.26267 -3.64137 -3.02346 -1.52476 2.08287 0.110658 0.533867 0.2396 -0.882573 -1.04761 -0.602032 -0.879419 0.224036 0.444071 1.17419 2.22689 2.57597 4.02647 3.05733 2.52522 3.28692 2.28736 3.85577 3.29995 1.92633 1.34345 -0.375002 -0.931065 -3.45734 -3.98332 -3.87193 -2.17031 0.613858 -0.286089 -0.478993 -0.609162 -1.34296 -2.97713 -2.38901 -1.10517 -0.757603 0.195187 0.873402 2.66417 3.73567 4.81967 3.46825 3.45938 3.6772 2.75183 2.97782 1.91477 1.45797 -0.643835 -1.27503 -3.18465 -2.33773 -3.9213 -3.83841 -3.31865 0.515716 0.536559 -0.00923261 -0.865235 -1.0764 -1.47269 -0.813987 -1.09012 -0.718439 0.188675 0.946989 1.83686 2.55568 3.51894 3.33553 3.8232 2.03355 2.49008 1.4523 0.384893 -0.0707467 0.131845 -0.85866 -1.59825 -2.93863 -4.13008 -3.82676 -2.30065 -1.74613 1.48524 1.14679 -1.40592 -1.99394 -2.18816 -1.4243 0.0199213 -0.0163165 0.475347 0.503003 2.46623 2.93016 2.49782 2.35358 2.55036 1.89114 0.319916 1.1189 -0.233022 -1.08486 0.108105 -1.44521 -2.29053 -2.7761 -3.56309 -3.84921 -3.40336 -2.07817 1.67652 -0.465313 -1.59152 -1.60365 -3.20364 -2.41249 -0.893734 -0.0676759 1.10899 1.47073 1.30676 2.22478 2.22642 1.9569 2.36847 1.04174 -0.304312 0.307546 -0.251856 -0.828447 -1.52723 -1.54521 -3.02238 -1.88529 -3.2619 -3.25384 -2.60848 -1.73625 0.253189 1.06494 -1.24006 -0.687292 -1.9979 -1.97518 -1.63698 0.433535 0.496454 1.60458 1.79633 2.38309 1.52595 1.70368 1.95093 0.748696 0.886603 -0.256194 -1.54528 -0.159259 0.0969939 -2.02301 -3.54657 -4.17019 -3.10515 -3.28079 -2.81157 -0.624433 1.11326 1.07032 0.80341 -0.806199 -2.50061 0.00533775 -0.922616 0.688616 0.098533 0.952727 1.61169 2.48209 1.30264 0.398132 -0.174308 -0.437671 -1.03559 -0.494594 -1.4206 -2.82838 -2.70284 -1.82793 -3.88962 -3.94694 -3.36069 -2.20913 -1.65198 -0.0811076 0.647799 0.499201 0.298951 -1.11881 -1.01504 -1.33307 0.404661 -0.723527 0.0948354 0.0828328 0.243138 1.69093 1.48454 0.916198 -0.500676 -2.38269 -1.25587 -1.5095 -2.98725 -3.94814 -2.85422 -3.69647 -3.85483 -4.11 -2.35089 -1.28697 -0.635412 2.26303 0.140328 0.521102 -1.1917 -1.70002 -1.53406 -0.106307 -0.773925 -1.02173 -0.782986 -1.17871 -0.365933 -0.700701 -0.0921413 -1.03968 -1.41636 -3.37582 -3.80579 -4.0872 -4.50351 -5.14217 -3.99862 -4.61358 -3.54891 -2.93029 -1.30508 -0.12681 0.155911 2.65333 0.230841 -0.00119121 0.144969 -0.734487 -1.18272 -2.18938 -1.46607 -0.750778 -2.80984 -1.00201 -1.1513 -0.294553 -1.50494 -1.57216 -2.61088 -3.32016 -5.6648 -5.48402 -6.214 -5.1459 -3.44168 -2.60915 -1.79206 -1.63622 0.201414 1.4501 0.960795 1.25213 0.239249 -0.0792389 -0.739313 0.145387 -1.96458 -2.14203 -1.64545 -1.05331 -2.95512 -2.05481 -2.13627 -3.33388 -2.57556 -2.7605 -3.98316 -4.81821 -5.9998 -5.85049 -4.53509 -3.9949 -2.81976 -2.15447 -1.16845 0.379391 1.93681 2.26016 2.37015 1.91704 -0.503211 -0.20703 -0.108766 -1.38524 -0.867523 -1.50849 -1.57977 -0.84411 -2.60103 -3.62137 -3.89765 -4.29739 -5.13172 -5.07729 -4.43235 -4.22821 -4.63966 -2.84668 -0.49898 0.734807 1.48557 2.06626 2.13558 2.39264 3.24927 2.8527 2.99678 2.00651 -3.05244 -0.823466 0.0691961 -0.69755 -1.78752 -0.299793 -0.221947 -0.575047 -0.0144745 0.627016 -0.849154 0.977565 -1.00704 -0.510921 -1.44076 -1.58308 -0.804607 -0.991292 -0.389813 -2.62048 -3.44884 -2.4377 -2.23371 -2.31189 -3.06295 -3.63796 -4.30051 -3.00603 -3.12435 -0.604189 -0.941101 -0.244803 -0.220462 -2.22185 -1.31842 1.39578 -0.219113 -0.0579729 -0.724409 -2.43175 -2.73446 -2.21746 -3.12051 -2.67239 -0.90633 -1.8156 0.469803 0.116997 -1.63895 -0.790194 -3.12049 -2.89043 -3.21627 -2.77179 -3.5433 -3.63963 -2.61175 -0.901296 0.0236648 0.23456 -0.480962 -1.74584 -1.0744 -1.28141 -3.54479 -3.58881 -1.15105 -1.81509 0.0103375 0.913574 -0.989676 -0.939779 -0.8912 -0.6169 -0.646779 0.0256327 0.340767 -1.09867 -1.63911 -0.115447 -1.29101 -2.08703 -1.50655 -3.87119 -1.47221 -0.160157 0.930879 0.0347508 -0.876793 0.357914 -0.725427 -2.44839 -1.74298 -0.972982 0.410034 1.51205 1.80943 0.194646 1.05 -0.0712524 -1.51277 -1.51726 -2.00599 -1.37567 -1.13953 -0.321428 -0.947922 -0.795893 1.13907 0.0572086 0.403696 -2.3619 -0.981493 1.07153 0.758977 0.405068 0.930617 -0.373124 -1.24339 -2.42429 0.103396 1.80762 -0.663312 -0.431431 0.0399562 0.353468 -1.46552 0.133518 -1.73426 -1.35289 0.205272 -0.525183 -0.28029 0.773332 0.240016 1.32015 0.18389 1.20956 -0.140334 -0.503631 -0.257854 0.590043 1.48092 0.365561 -1.07607 -0.302868 0.434945 0.57255 0.631356 0.869558 0.928181 -1.80798 -0.0438747 1.09288 -0.313602 -1.07403 0.493935 1.45764 2.13141 1.41093 1.14088 0.592701 0.793071 -0.064098 0.133944 2.5931 1.73243 1.27769 -2.16845 -0.94594 0.168545 -0.39334 -1.1257 -0.93149 1.36323 1.27551 2.03918 1.12295 -0.142045 -1.3481 1.28643 2.49228 -0.288612 -0.548566 0.32769 1.94723 1.96652 2.33082 0.333152 0.698169 1.60006 1.16599 2.171 2.09214 2.82561 1.16626 -2.79062 0.302611 0.620764 0.456631 1.5953 1.85996 1.03702 1.67796 -0.688389 0.503149 0.691522 -1.78908 -0.0409865 -0.385808 -2.85111 -1.25232 -1.30306 0.507449 0.168631 0.303886 -0.468241 0.249004 0.864838 1.68324 1.35268 2.1484 0.785216 0.861021 -0.461408 0.052791 1.07286 -0.455272 -0.673308 -0.488183 0.058999 -2.51421 -1.68488 -2.5638 -1.59555 -0.281855 0.859506 -0.70261 -1.7258 -2.17728 -1.45854 -0.0389949 -0.420584 -0.0460737 -1.86009 -0.81841 -0.969317 0.482114 1.51355 1.67232 1.58662 1.11173 -1.58773 1.09061 0.793324 -0.790138 -2.05766 -1.66212 -0.531439 -1.16823 -2.09666 -2.48124 -2.56915 -1.10449 -0.26321 0.830259 0.322758 -0.830885 -0.132746 0.0483504 0.414601 -0.163732 -2.41477 -1.42139 -0.349608 0.0052562 0.805966 1.44278 0.616499 1.57579 -0.685094 1.63269 0.677 -1.02885 -1.02139 -1.14488 -0.349534 -0.986171 -2.23643 -1.87479 -0.83875 0.379231 -1.05566 -2.19108 0.613445 1.0728 1.6856 -0.00929154 -0.930433 0.0918216 0.173737 0.160475 0.569204 0.990199 0.383465 0.320391 0.364163 1.25283 -0.851742 0.270203 1.27944 -0.236463 -2.99221 -1.78108 0.490268 -2.17308 -2.59955 -1.99732 -1.02665 -1.61594 -3.1226 -2.44828 -1.27592 -0.64497 1.83996 -0.26981 -2.24631 0.143938 -0.274667 -0.321819 -0.346673 0.37363 -0.14033 1.70334 0.0260099 1.8286 -0.684762 0.0195043 1.0688 -1.19102 -2.8601 -1.13174 -1.47618 -1.40539 -1.14852 -0.0504143 -0.709078 -2.45773 -4.20653 -4.35172 -1.83724 -2.95602 -2.95225 -2.07581 -3.21342 -2.13441 -0.287 -1.60802 0.322064 -0.117327 0.176022 1.40933 0.360559 0.964534 -0.563131 0.475305 -0.198127 -1.10368 -2.80426 -0.467717 -0.84664 -1.0586 -1.05888 -0.741814 -0.859399 -2.00454 -3.31611 -3.77803 -3.69419 -3.48593 -4.22467 -3.86228 -2.98154 -2.57472 -0.0382744 -1.49726 -0.452022 -0.0186071 0.243309 0.534146 0.35904 2.0652 0.544753 0.769705 -0.0998183 0.6123 -1.79605 -1.07379 -0.465082 -0.402469 0.419827 -0.0882311 -1.04613 -3.82975 -4.90019 -4.68633 -3.58779 -5.47521 -5.27344 -3.40508 -4.49906 -3.78893 -1.48956 1.07289 1.60316 0.967384 1.28013 1.54929 0.241578 1.52831 0.606102 1.14998 1.29395 0.995002 -0.710081 -0.0387328 -0.00183808 -1.27817 -0.471999 0.379619 -1.26991 -2.62626 -3.08995 -3.12865 -2.47735 -3.88891 -3.15846 -1.22196 -2.16469 -1.36324 -2.71636 -0.746779 2.09858 1.35531 -0.0257148 1.9027 2.52968 1.63174 0.81672 2.57418 2.2312 -0.0150956 -1.36849 1.3528 -0.387824 -0.741565 -2.96342 -0.476837 -2.8629 -3.46507 -2.63776 -0.741807 0.0651145 -2.16908 -2.67201 0.270919 -0.127341 -0.427705 -1.42548 -0.282468 1.3776 2.31645 2.89237 3.29889 2.94667 3.37939 -0.0890405 1.93929 2.81152 -0.399413 -0.0633767 0.346528 1.00674 -0.854594 -3.00009 -1.98913 -1.62353 -2.04758 -1.97097 -1.51232 0.58379 -0.893476 -0.946595 -0.117814 0.511117 -0.3709 -1.95467 -0.342821 2.83228 3.30692 3.03697 2.22556 1.74813 2.094 -0.0249114 1.56564 1.65356 -0.0155612 -0.715212 -0.4183 -0.0851221 -0.955468 -1.97101 -1.27319 -1.36641 -1.29156 -0.936876 -0.659457 -0.635201 -1.80228 -1.00168 0.0141156 1.59551 1.32042 0.425448 1.08202 2.47339 3.27553 3.54807 2.90358 2.39726 1.7386 -0.139954 0.66986 3.99808 1.44056 0.636289 2.0024 0.699119 -0.352583 1.14781 -1.16088 -1.04748 -0.00708755 -0.122982 -1.71491 -1.18453 -2.14955 0.59573 0.429639 0.459202 0.467343 -0.835735 0.312031 1.60959 1.47005 1.36064 3.29227 1.58403 2.41661 0.718566 -1.07856 1.74332 2.9803 1.38584 0.44339 -0.429479 -1.0721 -1.14465 -2.28158 -1.53517 0.687082 -0.37791 -0.818498 -1.1253 0.387043 -0.110169 -1.30173 0.771936 -1.31413 -0.911914 0.996166 2.57937 1.99026 2.57081 1.28837 0.772297 2.23299 -0.704861 -1.26218 0.688161 0.98171 0.969813 -0.6377 -1.44724 -2.1726 -2.20038 -1.89424 -0.782039 0.164545 0.209115 0.0485731 -0.769358 0.524106 0.673849 0.168553 -0.262734 0.831878 2.5395 1.59249 2.18157 2.08138 3.04867 0.932493 1.89717 1.04319 -0.378034 -1.69744 1.97856 1.29686 0.612084 0.355688 -0.988269 -1.03059 0.131467 -0.796962 0.395446 0.81569 0.619259 -0.00537256 0.800907 0.859543 2.51581 1.23158 1.40772 2.17878 3.39807 2.97923 3.5628 3.339 0.712663 1.68843 1.81241 2.21003 0.278893 1.86415 2.35821 -0.0124578 1.14505 -0.141693 -0.352366 -2.44628 -0.953071 -2.44014 0.0359782 2.54472 1.90087 0.695708 0.806719 2.05619 2.27921 3.26166 1.98439 1.99286 2.6638 2.67871 3.18463 2.15142 1.00116 -0.255149 0.222267 0.947011 0.949573 1.02285 0.94432 0.656091 -1.10374 -0.204134 -0.880898 -3.17403 -1.69192 -0.404947 1.63836 2.04029 3.74584 2.22523 3.96635 1.938 2.29414 2.08199 2.54181 2.37838 2.96565 1.16562 2.48388 1.96124 -0.142718 0.649577 0.282696 0.0760588 1.06202 1.61685 1.44465 -0.476376 -0.998508 -0.797242 -0.294759 -2.80508 -1.79186 0.368971 1.09608 2.08901 2.29172 2.17378 2.59396 1.23447 2.0279 2.43647 0.400802 1.66543 1.74436 0.306617 1.69442 0.200502 -0.165303 0.0220241 -1.83957 -0.187902 0.704567 0.045681 -0.522142 0.640091 -0.3857 -1.21347 -0.534986 0.0398316 -0.209103 2.96497 1.62839 3.26799 2.58555 2.66627 1.31136 2.39528 3.37614 2.19388 1.5257 0.80099 0.659274 1.43928 0.719013 0.99353 -1.55032 -0.677069 -1.18591 0.344398 -0.260608 -0.684839 -0.44985 1.80852 0.478443 0.15342 1.55278 2.91328 2.65394 3.33599 4.31484 4.45844 5.14864 4.28001 2.28414 2.35774 2.10036 1.76108 1.66738 1.31004 -0.0200457 0.0796139 0.859694 -0.0536426 -0.740581 -0.707538 -1.30539 -1.57446 -2.36171 1.51039 0.629355 0.00613721 -0.297808 0.513141 -0.221538 1.22398 0.531357 1.0821 1.78344 0.79384 0.73868 0.0636331 0.661983 -0.397228 -0.829572 0.310214 -2.13651 -1.79252 -3.08238 -2.96268 -4.02858 -3.88227 -3.08342 -2.68194 -2.80955 -3.54211 -2.11042 -1.61722 -0.551954 -0.421181 0.869585 -0.615172 -0.636799 0.804843 1.04395 2.16967 0.99766 0.0301864 -1.2864 0.0239542 -0.6172 -0.531338 -0.574405 -0.363946 -1.18036 -0.383857 -0.48301 -1.72756 -2.81546 -2.17724 -2.12842 -2.43005 -4.0385 -3.7101 -3.27544 -0.594196 -0.0400493 -0.465649 0.30371 0.947192 -0.0231602 1.57848 0.240091 0.551326 -0.513545 -1.48668 -2.59304 -1.31142 -0.960027 -1.05865 -0.486794 -1.27919 1.04499 1.34795 0.269914 0.629829 -0.645075 0.213469 -0.901904 -2.01205 -1.20954 -2.72983 -2.69368 -1.43426 0.836316 0.53133 -0.866478 -0.111496 0.382958 -0.0246908 -0.73906 0.197663 -0.735094 -0.991536 -1.77757 0.00743015 0.175043 -0.77488 -0.518036 -0.398811 0.792868 1.16467 -0.456404 -0.091982 -0.178545 0.107642 -0.85455 -0.284576 -1.10153 -2.04645 -3.26899 -2.66135 0.0466467 0.656402 0.349869 -0.290296 0.384429 -1.29719 -1.07215 -1.00224 -0.27275 -0.175259 -0.904438 -0.409427 -0.667834 -0.755374 0.856338 0.426032 0.275553 1.05646 0.334704 0.699335 0.536913 1.04422 1.76627 0.150848 -0.102976 -1.40141 -0.859113 -0.928935 -0.950433 1.40143 -0.653598 -0.605254 -0.318693 -2.25955 -0.465386 -0.953646 -0.945312 -0.151517 -0.550508 0.149346 -0.209825 0.357386 0.399122 0.282126 -1.2661 0.42176 0.361919 0.401697 -0.0595087 1.62061 0.89646 2.00242 1.44922 0.153384 0.913994 0.233296 -0.177747 1.11226 0.309136 -2.08549 -1.61999 -2.83189 -0.628998 -1.55025 -1.5111 -0.490734 -1.31125 -0.290643 -1.06087 0.0786263 -1.00649 -1.47423 -0.351273 -0.309124 1.80365 0.743835 0.0834498 0.0023245 2.10154 1.83589 2.72612 1.03221 2.12706 1.12921 0.519806 0.78366 -1.90302 -2.29384 -2.52494 -2.46126 -1.48101 -0.921604 -0.578176 -2.11817 -0.54477 -0.425277 -1.72592 -0.396991 0.0272681 0.472455 -0.532342 0.322484 2.55911 1.45714 -0.0729015 2.16823 2.51589 1.96956 2.73864 3.86611 4.07072 2.86447 0.12117 -0.120989 -2.81874 -2.54978 -2.40982 -0.685236 0.475445 -0.818075 -0.651506 -0.635794 -1.55035 -1.85137 -1.63496 -0.30233 -1.10771 0.316265 1.41757 2.07241 0.651628 0.36958 -0.0278908 0.511439 2.07636 1.99011 3.94851 5.85521 5.83061 4.28734 0.83245 -0.483406 -3.31563 -2.64333 -2.11169 -0.804573 0.139853 0.708179 -0.944101 -0.407369 0.0388567 0.190655 -0.618421 -1.60627 -0.498419 0.403758 0.0963605 1.39693 0.493956 -0.181156 0.145909 0.343231 1.8615 3.34347 4.33537 6.48787 7.77701 6.51632 0.525246 -1.43906 -2.79679 -3.71657 -0.772434 0.279872 0.947091 -0.361862 -0.996055 -0.46342 -0.569596 -1.10232 -1.30677 -1.6775 -2.21568 -1.38935 -0.827445 0.0468973 -1.27451 -1.51689 -0.464239 0.670871 2.295 1.74078 5.98478 7.96568 10.2657 5.6919 -0.79516 -1.68359 -2.40577 -1.74898 -2.48681 -0.529933 0.948532 -0.782848 -1.17563 -1.21405 -1.53146 -1.57836 -2.62778 -2.46733 -2.55026 -1.47259 -0.197616 -2.4211 -2.04069 -1.71465 -2.87333 -1.65184 0.289909 3.0846 6.71471 9.56149 10.2393 7.37842 -1.49427 -0.518245 -1.58449 -2.64487 -1.39194 -0.994389 -1.16626 0.0863263 -1.78058 -2.44927 -2.46352 -1.87427 -2.59208 -1.99193 -2.89703 -3.1232 -2.69234 -2.95448 -3.4282 -3.75987 -2.79664 -0.556732 1.17887 2.55149 7.38885 9.24993 10.4408 8.17933 -0.561571 -0.639912 -2.22491 -0.549789 -1.06749 0.256838 -1.26349 -2.48873 -1.2769 -0.904141 -2.35302 -1.38011 -1.90146 -2.6816 -2.49584 -2.57784 -0.867858 -1.79104 -2.73414 -1.70013 -1.88283 -1.35603 1.33048 3.74097 5.24381 7.19593 8.4093 7.81601 -1.10192 -1.50439 -2.25842 -1.24666 0.218645 -0.631199 -0.879779 -2.03957 0.359543 -0.107722 -1.30706 -1.04993 -1.39446 -1.67767 -1.84242 0.0847957 -0.969202 -0.700164 -1.65348 -1.99799 -1.92669 -0.829228 -0.257799 2.65151 5.27437 6.17018 8.52165 7.13669 -1.01258 -0.178872 -0.662717 -2.17497 -1.36987 0.349319 -0.154326 0.488815 0.717228 0.224024 -0.919206 0.801408 -0.210749 -0.581371 -0.628103 0.523988 0.282385 0.323992 0.0596601 -0.0235303 -1.19851 0.615083 1.25267 0.275892 2.55439 5.02166 7.25748 5.37821 -0.597457 -1.09144 -1.11935 -1.88879 -0.0791681 0.269554 0.62863 1.22567 0.212679 0.568437 0.374221 -0.187543 0.552489 0.587672 0.840539 1.57852 1.91377 -0.0282411 -0.728064 -1.23069 0.216416 1.70655 0.965591 0.619932 2.8359 3.96748 5.00482 3.11288 -1.10624 -2.00112 -2.32777 -1.46821 -0.999619 1.28529 1.39328 2.08833 1.75269 1.41276 0.0462987 0.480452 0.668356 0.601885 0.984161 1.28486 1.96705 1.42029 1.70649 -0.788189 0.635542 1.15622 0.262316 1.6855 1.93761 4.21028 3.28268 1.16467 -0.815579 -2.90461 -2.87869 -0.664674 -0.956293 0.246415 0.7062 2.01207 1.61087 1.45665 0.14203 0.0623451 0.381781 0.0868079 1.00268 1.96995 2.2365 1.54089 1.04785 0.366372 0.861126 2.08826 1.36589 1.42341 1.30826 2.93764 2.24406 -0.340283 -0.940096 -2.14266 -1.04024 -1.31183 -2.05427 1.20361 0.840133 1.48912 1.41815 1.67867 -0.118831 -1.08423 1.09521 0.498113 1.48333 1.16894 0.889252 -0.0661639 -0.0981626 1.38482 0.0724697 2.13572 2.69628 0.722932 1.84423 1.83573 1.33143 -1.6165 -0.269601 -0.71742 -2.29868 -1.93418 -1.47556 0.329982 -0.422417 -0.00375138 1.16444 0.804084 -0.768729 -0.691987 0.647352 0.678122 0.222593 0.659605 -0.172878 -0.147525 -0.177348 1.26716 0.742222 0.745326 1.197 0.521231 0.525484 0.328601 -0.772459 -1.92304 -0.293951 0.822956 -1.5393 -1.73847 -1.91557 -0.617629 -1.04521 -0.709835 -1.09342 -1.25218 -1.43607 -0.921231 -0.182678 0.42287 0.933291 -0.0768572 -0.586477 0.788989 0.952991 0.316724 0.725332 0.416473 2.17776 0.611742 0.356938 -1.05168 -3.12062 -1.71986 0.259994 0.189986 -0.154446 -0.683539 -0.0819923 0.0072969 -2.06496 -0.489626 -0.204686 -1.01975 -1.23094 0.542842 0.44384 0.313992 0.265425 1.98801 1.44486 1.38465 2.33725 2.74992 2.50308 2.71897 0.0151363 -0.456022 0.345685 -1.26336 -1.72929 -1.80363 0.0354154 0.448746 1.11731 -0.43227 -1.33322 -1.8833 -2.60507 -0.380213 -0.693434 -1.49037 -0.88347 -1.56342 -0.406486 -0.55331 0.123994 -0.0184153 0.264468 -0.037963 0.0696779 0.929376 0.044114 0.965538 -0.869403 -0.32596 -2.58567 -2.44117 -2.99791 -0.889598 0.94331 2.2518 0.32655 0.747043 0.901901 -1.11317 -1.52496 -1.16856 -0.00803744 -1.97867 -0.360003 -0.944489 -0.140048 0.721255 0.451647 -0.660487 0.36537 0.271695 0.531268 -0.358677 -0.281564 -1.36343 -0.947513 -1.80961 -3.01095 -2.92282 -0.529902 -0.778333 2.26733 3.70044 1.88646 1.62596 1.52876 0.863413 0.9684 0.760857 -0.530535 -1.82614 -0.0446896 -0.994383 -0.336184 0.941003 0.983505 -0.723073 0.35617 0.317038 0.362739 -0.863942 -0.287331 -0.885973 -2.64355 -2.77048 -3.22256 -2.27891 -0.217168 0.964781 1.75712 3.64542 4.66351 2.64716 1.56537 1.50435 2.81034 1.35772 0.640412 0.938577 1.24695 0.111282 0.32981 0.890614 1.53405 -0.456393 0.0592381 0.553085 -0.223258 -1.76069 -3.20573 -2.17533 -2.67556 -1.51712 -2.06267 -0.637793 -0.309483 1.11925 0.682107 1.99737 3.06151 2.73771 2.64066 2.34254 0.956014 0.849614 0.47817 1.70835 0.133768 -0.113064 0.162134 -0.255211 -1.03874 -1.51582 -2.83611 -3.29208 -2.41134 -2.21138 -1.91592 -1.19918 -1.36293 -1.0888 -1.58993 -2.48041 -0.362601 -0.759195 -0.222487 1.93322 3.47884 3.52492 1.80145 1.62413 2.11393 0.6461 0.535197 1.22913 -0.777435 -1.33426 -0.140591 0.193717 0.183509 -0.31069 0.77246 0.110201 -0.466305 -0.130162 -1.2487 -2.7717 -1.82683 -2.2324 -2.68882 -1.40656 -0.446752 1.40097 1.56319 1.41714 1.47653 2.225 1.5192 2.10613 1.54281 1.73502 0.226266 -0.477569 0.823247 -0.242261 1.22262 1.77639 1.02064 1.27943 0.987474 1.34057 0.326543 -0.813347 -0.942364 -1.56816 -1.56709 -2.36729 -1.93307 -1.06681 -0.822166 0.52144 1.20635 1.50354 2.38577 2.06677 1.04313 1.51635 0.147785 1.13261 0.835874 0.924226 0.0348123 0.531854 -1.25019 -0.295999 -0.421891 0.534443 -0.552726 0.367015 -0.610865 0.166227 0.804169 -0.244526 -0.273331 -1.50141 -2.19259 -1.48448 -0.939552 0.198225 0.661164 0.969229 1.58102 0.600804 0.677393 0.583546 1.485 0.801399 0.60866 -0.123252 -0.244419 -0.385979 -0.930564 -0.462644 -1.45501 -1.76832 0.00885304 0.0782283 -0.259514 0.819661 1.18567 1.18878 0.911026 2.60048 -0.0588274 -1.58793 -1.40685 -0.0855154 0.292439 1.05366 0.382606 0.228537 -1.25912 0.892608 2.25958 2.0073 -0.247573 0.261783 0.400267 0.391091 -0.100089 -0.57965 -2.09296 -2.04372 -0.311868 -0.177616 0.205634 2.03454 2.82845 0.731091 2.24538 1.81145 2.47707 1.22971 -1.75706 -1.15593 1.51431 0.514276 0.620628 -0.653465 1.27355 1.53643 1.4046 0.121986 -0.286384 -0.0512688 0.560322 0.293995 -0.655506 0.516945 0.271563 -0.160567 1.91539 1.17375 0.201876 1.40677 2.64101 1.5056 2.60272 2.57409 2.55848 1.73462 -1.22316 -0.0553267 1.28121 0.594555 1.20557 0.000614878 0.710364 1.20492 -0.201926 0.681452 -0.395144 0.916623 0.19647 0.332321 -0.61525 0.687531 1.96985 1.71987 2.21602 2.9486 0.914284 2.76502 1.40916 1.3288 1.656 0.784109 1.25521 0.618758 2.56609 1.19812 3.08947 2.35931 1.93578 0.49257 -0.220765 0.676325 1.48778 1.57077 0.629088 -0.0155351 -0.618366 0.0227893 0.700189 1.19297 1.28389 3.06412 2.81931 3.36534 2.53034 1.72611 3.35903 2.91492 1.21432 0.613793 -0.0273565 2.4387 2.72054 3.81018 3.90159 1.4274 0.276702 1.27507 0.148568 -0.381924 0.742897 2.32967 1.58987 -0.137658 -1.54333 -0.439449 -1.17681 -0.239509 1.49302 1.02718 1.77746 0.889872 1.73533 0.757458 0.600166 1.05728 1.92498 2.83843 1.19102 2.09386 3.03876 4.64646 4.65212 1.80906 0.59507 1.12541 -0.115167 0.528488 2.02585 2.8076 0.874133 -0.914801 -1.79682 -0.477047 -1.40391 -0.531136 0.506916 2.02548 0.909882 0.698046 1.13872 0.114719 0.27285 0.745695 1.46467 1.11202 0.868042 3.2229 3.46693 5.5329 5.17395 0.990161 2.32752 1.11954 -0.158719 0.264731 1.65898 2.19358 1.09845 -1.11337 -2.03932 0.226983 -1.21791 -0.577593 0.88413 0.923623 -0.0228375 0.235124 -0.723226 -1.49889 -0.177927 -0.0115514 1.08077 2.24829 1.44488 3.90097 6.04876 5.27562 4.84573 0.793535 2.25127 0.661958 0.814795 1.53419 1.90329 2.26526 0.893892 -1.53371 -2.31122 -1.20525 -0.863547 -1.16805 -1.0466 0.0640414 0.419517 -0.829641 -1.47442 -1.20134 -0.489867 -0.402586 -0.198742 0.912591 2.28666 3.6197 3.79752 6.70535 5.75365 2.84218 1.6067 1.58393 -0.203322 1.4307 0.887249 0.815438 -1.06512 -2.28535 -3.57314 -4.42848 -3.69631 -4.49364 -3.54547 -3.66251 -2.16427 -3.91578 -3.9208 -2.8572 -1.51266 -0.657306 0.386674 0.234471 1.0841 2.93473 4.14592 6.02811 6.52332 2.09952 1.99711 1.59607 0.13884 0.646716 0.227568 0.478938 -1.8714 -3.80095 -5.16131 -3.74681 -4.32282 -4.71881 -5.2408 -4.04288 -4.6732 -2.80231 -2.98398 -2.37848 -2.608 -1.70982 -0.972584 0.129297 0.326334 3.4799 5.01645 7.06262 6.58862 1.66631 1.46566 -0.227769 0.432393 0.741253 1.45484 -0.526143 -2.29468 -2.93281 -4.00976 -4.45119 -3.32135 -2.62335 -3.7006 -3.59046 -3.00527 -3.33027 -2.92237 -3.0812 -2.32645 -1.60383 -1.94053 -0.918091 1.0841 3.54248 5.41485 5.49713 6.4509 2.70671 2.83145 0.105345 0.489277 -0.125278 0.271942 0.089213 -0.620513 -2.03604 -2.7534 -1.87297 -0.189425 -1.78779 -0.451681 -1.54434 -2.20258 -2.04577 -1.66897 -1.82041 -1.42793 -1.28048 -1.2684 1.2511 2.32326 2.76447 3.75905 6.2809 5.20331 1.81986 2.42641 -0.360883 0.443492 0.823309 0.187643 0.675619 0.840058 0.311012 -0.619281 -0.43128 0.760981 0.0596694 1.82742 0.762635 1.09588 1.47614 0.306882 -0.73361 -0.632525 0.569709 -0.206665 1.95053 2.69469 2.4768 4.20755 5.1308 5.44101 2.90951 1.81189 0.155147 0.821408 -0.0969685 -0.0291195 0.96303 -0.105946 0.906031 -0.082128 0.842772 1.27155 0.406055 0.571642 1.8492 2.59749 2.42012 0.861803 1.1131 2.26745 1.59348 1.03887 2.40945 2.26876 2.7537 4.17697 3.78673 3.56977 1.59256 1.64304 1.01702 1.10226 -0.579147 -0.637099 1.53987 1.38112 0.273224 -1.35632 0.757008 0.247028 1.23708 2.03552 2.27732 2.47246 2.63987 1.74349 2.03858 3.10496 4.00337 2.75741 3.00956 1.56186 3.66844 3.94065 2.20037 2.82169 1.17706 1.86638 0.457522 -0.562147 0.639063 0.933239 0.369228 1.45543 -0.123189 -0.882511 0.0486215 1.37745 1.22433 1.22499 2.00674 2.60141 2.95703 2.12984 2.17781 2.53014 3.72521 4.60853 3.98858 2.44966 2.68829 3.25117 3.17076 1.50099 2.01121 -0.163662 -0.246393 0.460291 2.15207 1.22224 2.19638 0.409379 -0.0621167 -2.34726 -0.0861769 0.172723 1.24419 0.37159 0.953661 2.00889 2.10358 2.06027 2.65071 1.85692 2.20815 2.45404 2.87077 2.41428 1.95696 2.63932 1.18047 0.341343 1.11576 0.296475 0.190945 0.204245 1.55134 1.68122 0.69748 0.214271 0.0241389 -1.54304 -0.936788 0.263451 -0.195496 0.656606 1.11516 2.27511 1.7594 2.07854 1.62912 3.04654 2.22646 3.53414 1.62325 1.40839 1.45027 1.76112 -0.783121 0.30635 0.970738 0.00342522 -0.909588 0.693683 1.04286 0.930907 0.464592 1.63316 0.712327 -0.414615 -0.705297 -0.607672 -0.69266 -1.12379 0.295094 1.76218 2.04929 2.48403 1.53733 0.834394 2.58318 3.51626 1.25572 0.751949 2.0474 -0.0508137 -0.34439 1.82585 0.861848 -0.152374 0.479332 1.16658 1.60921 0.882778 1.23996 2.22459 0.808702 1.1649 0.457268 -0.388987 -0.383945 0.0706899 1.0669 1.13385 2.01581 2.03522 0.158208 1.64176 3.40952 2.46983 1.58785 1.22186 0.383596 0.851884 0.749015 0.875644 -0.166721 -0.652743 -1.61773 -0.466264 0.83317 2.43722 0.188165 1.56602 0.413723 1.67571 0.200568 -0.966034 -1.42331 0.810291 0.949399 1.69838 1.35476 0.545611 1.57982 2.28149 1.57075 1.12251 1.30252 -0.588401 0.976531 -0.249209 1.31601 1.15742 0.65704 0.139429 -0.160229 -0.4741 0.534002 0.539112 -0.823334 -0.307542 -0.408294 -0.331498 -0.576647 -0.0173533 0.487238 -0.152072 0.134996 -0.675681 1.06864 0.970592 0.321786 0.624584 0.97155 -0.0230354 -0.00026584 -1.50036 0.457257 0.189497 0.313902 1.38045 2.60094 2.10632 -0.114262 0.564197 -1.36387 -0.369351 -0.582737 -0.658352 -1.26747 -1.17761 -0.406115 0.863977 0.350134 0.206901 -0.292371 0.537147 0.812355 0.402903 1.16411 -0.387033 -0.173661 -0.652935 -0.724733 0.0572346 -0.10342 0.442496 0.879467 1.78881 2.3413 2.43438 0.730539 1.26949 -0.0575262 -0.887721 -1.64517 -0.922717 0.0911209 -0.227879 0.388267 -1.05802 0.432426 -0.44151 0.705944 -0.468181 0.82448 -0.779394 0.253045 -1.15082 -1.55702 -0.697392 0.278209 -0.212316 0.479599 0.475632 1.35733 1.36176 -4.47052 -0.430386 -1.77348 -1.11242 -1.46771 -2.64425 -2.08397 -2.06561 -1.56206 -2.40894 -2.22533 -2.23729 -3.10365 -1.66044 -1.13279 -2.63648 -0.93231 -1.50674 -2.01028 -1.47428 -2.08762 -2.83032 -2.8546 -3.07601 -3.64438 -2.8735 -1.95925 -1.67655 0.0921845 -0.535055 -0.710526 -1.13234 -3.41864 -3.24737 -3.00316 -2.64222 -3.65955 -2.65161 -2.89531 -2.39881 -3.88335 -2.83572 -1.87322 -2.04172 -1.18193 -2.62337 -1.75014 -0.285559 -1.6696 -2.64656 -2.73378 -2.75618 -3.78026 -3.21228 -1.70402 -2.59295 0.0701009 0.0264427 -0.880897 -1.76595 -3.38819 -4.53592 -3.65303 -2.3185 -2.56517 -2.79922 -3.2803 -3.06558 -4.10481 -3.43364 -2.39237 -2.25546 -1.23939 -0.220643 -1.64736 -0.32909 -1.30442 -0.822147 -2.2505 -1.74273 -3.87999 -3.49792 -1.96522 -1.94358 0.299634 0.736385 -0.144934 -2.51373 -2.7388 -2.95702 -4.06617 -1.8803 -4.25084 -2.41807 -2.44608 -1.6258 -0.721498 -2.28957 -2.43576 -1.63604 -1.7474 -1.66752 -1.37508 1.43696 -0.0934275 0.106585 0.0115988 0.238384 -1.79306 -2.04324 -1.21362 -1.02851 1.33216 2.03579 0.608451 -2.70179 -5.29597 -3.8196 -3.23369 -1.67497 -2.26406 -1.38403 -1.12181 -1.46314 -1.54808 -2.63811 -2.66217 -1.71832 -0.731936 1.22572 1.21366 1.65724 0.371602 1.01642 1.79027 1.24176 0.855832 -0.444386 0.154617 0.573606 1.5781 1.41255 -0.0129345 -4.36953 -4.77077 -2.77573 -1.40497 -1.74899 -1.58609 -0.900915 -0.918252 0.028903 -1.32307 -1.4479 -1.04395 -0.230637 1.60343 3.41009 3.78097 3.2194 2.53106 1.88698 2.56599 2.52456 1.21019 2.39475 1.6651 2.19817 2.70358 0.992901 -0.61696 -2.95897 -4.26434 -3.65058 -2.48448 -1.97773 -1.09869 -0.00186726 -1.15108 0.342255 -0.322509 0.846613 1.09952 1.23015 2.22145 2.96617 2.49711 2.62726 1.66587 2.15269 2.60134 2.98027 1.50353 1.39346 3.91288 3.44519 3.61299 0.334541 -1.33746 -2.53944 -3.21238 -4.18689 -3.27656 -2.12392 0.311193 0.716424 -1.91326 -1.2111 -0.695014 0.259215 0.51794 1.11201 3.10758 3.98396 2.43804 1.67371 2.65731 2.38457 3.16965 2.48077 1.10285 2.14979 3.73579 4.70413 3.88577 0.594928 -2.74629 -3.15398 -4.5003 -3.00326 -2.5789 -1.37733 -1.43134 -0.63777 -2.91745 -1.98903 -1.23503 -1.35202 -0.682839 0.486371 3.40464 4.16638 2.67101 1.39115 0.760792 0.645928 2.42406 1.6471 2.45143 1.99542 3.71488 4.30514 5.6395 -0.818633 -1.56512 -3.9067 -3.7028 -4.32284 -2.80292 0.712796 -0.326931 -1.77618 -4.77152 -2.86935 -2.21733 -2.11305 -1.08581 1.18849 2.38729 1.09861 0.976106 2.05261 -0.535253 -0.165899 1.06773 2.36931 1.67237 1.27564 2.26183 5.13446 6.41611 -0.7375 -2.83641 -4.1505 -4.41641 -4.04548 -0.691544 -0.628774 -1.85452 -1.41304 -3.81866 -2.20676 -1.80725 -1.87687 -1.04845 -0.144553 0.667238 0.307677 0.585366 0.529337 -0.418524 -0.0366337 1.03928 1.34542 1.89277 1.97046 3.69678 6.08082 7.74671 -0.785197 -2.62322 -4.41146 -4.0924 -3.31099 -1.79901 -0.119253 -1.56077 -3.4787 -4.03119 -2.05013 -2.38073 -2.88581 -2.71845 -2.36341 -1.41793 -2.18435 -0.665211 -2.50178 -2.29807 -2.72621 -1.12064 0.594794 0.555824 0.985159 4.05936 7.55509 6.89972 0.0851293 -3.01485 -3.46006 -2.75461 -3.31511 -2.07491 -2.20355 -3.23429 -4.26236 -4.54408 -3.07846 -4.4621 -5.69001 -6.01766 -5.25581 -3.59227 -3.04742 -3.91455 -4.24447 -4.45114 -3.04753 -1.66829 -0.00444381 1.06724 2.05435 4.05594 5.6716 8.2185 0.536082 -3.18706 -3.34559 -3.42851 -3.2205 -2.46197 -2.66259 -2.21962 -3.8667 -5.84673 -5.27673 -5.7334 -7.23741 -6.50803 -6.19356 -5.90076 -7.31994 -5.16141 -5.24065 -5.81943 -4.15269 -2.01969 -1.0387 0.232498 2.18254 3.80692 5.58085 6.35653 -0.162248 -2.80706 -3.33819 -3.81889 -2.72243 -1.03328 -1.08049 -1.99711 -2.43872 -3.49684 -2.13742 -2.65435 -4.20211 -3.58574 -4.33061 -3.83621 -4.32114 -2.86553 -3.69686 -3.26138 -2.45047 -4.00601 -2.88123 -0.0861234 0.79728 3.61925 6.14026 7.02213 0.775536 -2.36902 -4.15907 -3.8539 -0.889444 -0.55365 -0.434286 -1.69838 -1.10357 -1.49877 -1.97626 -1.84877 -0.426581 -0.856588 -1.97062 -1.56739 -0.475199 -0.409204 -1.01589 -0.315253 -1.66148 -0.589421 1.06423 1.60221 3.0287 3.6133 5.93447 6.58943 -0.97225 -3.39436 -4.90534 -4.89104 -3.11699 -2.10669 -0.76675 -2.93738 -2.72933 -1.86757 -1.24825 0.167697 1.60974 0.552334 1.55305 1.54218 0.951272 1.39777 1.82562 2.42729 2.02503 0.671144 2.05922 3.29094 2.75708 2.03129 3.11544 4.86074 1.0962 -1.8218 -5.15225 -4.18683 -2.85786 -1.23023 -1.92729 -2.40423 -0.00722355 -0.889365 -1.33651 2.10209 2.70429 2.40223 2.98526 3.16442 2.5977 3.67344 2.39582 3.03332 4.93077 2.69723 1.75714 2.61435 2.12027 2.64702 1.88843 2.32099 1.28992 -2.94776 -3.43097 -1.63828 -2.64559 -2.16429 0.214926 -1.15664 0.24835 -2.14355 -0.808234 2.60861 2.8553 3.42113 4.00509 3.48807 3.98321 3.66582 2.86636 3.13843 3.871 5.28307 4.20802 1.87674 1.95407 3.21545 1.64749 1.13454 0.393324 -2.5033 -4.75585 -2.81505 -1.12081 -1.91732 -0.716688 0.312268 -1.72595 -2.03103 -1.66751 0.935459 2.88705 3.7279 4.30904 4.58078 3.86986 3.55765 1.45178 4.04337 3.79415 5.23169 3.82913 3.11362 2.66877 1.95183 1.77383 0.378423 0.872915 -3.63085 -2.80513 -2.85994 -1.40333 0.123066 0.223599 -1.24946 -0.619976 -3.18378 -2.32637 0.587445 2.59015 2.79908 2.40736 3.43175 2.30732 1.54658 3.15458 4.43411 5.05107 4.41786 4.44298 2.89303 1.98273 3.60562 -0.905956 -1.29969 -1.31073 -2.37643 -2.19613 -0.805625 -0.843872 -0.0777919 -0.323642 -0.652936 -1.11984 -3.98116 -2.27089 0.518594 1.16761 2.31284 1.64402 2.15484 1.15572 1.913 3.31016 3.63349 3.80755 4.21367 3.6691 3.69695 3.24118 0.880972 0.143273 1.51874 0.55193 -3.84875 -1.65091 -1.9491 -0.179295 0.74818 1.42338 -0.473431 -1.41502 -4.35312 -2.11404 0.325019 -0.725723 -0.375903 -0.425716 0.679236 1.97798 2.05888 2.73406 3.09471 4.12313 3.08561 3.13031 2.9518 2.1453 0.562713 0.593282 0.684159 0.45688 -1.54801 -3.18045 0.074076 0.672855 1.14285 1.44809 0.0592818 -1.14473 -3.70387 -3.74278 -1.69739 -0.735551 -0.402959 -1.69684 -1.75902 -0.402641 0.742044 2.22676 1.90319 2.70383 2.16449 1.55679 1.9973 0.892458 -0.374755 -0.178027 2.59644 0.0817653 -3.09155 -2.00892 -0.830565 0.486059 -0.167823 -0.640252 0.274678 -2.22905 -5.65698 -3.46617 -2.60166 -1.94855 -1.84428 -1.18986 -0.354357 0.626418 1.08113 1.66786 -0.728054 0.258765 0.888146 -0.0267841 -1.54709 -0.121635 0.301423 3.1807 3.68842 1.34842 -0.212754 -0.846849 -0.138255 0.294762 -0.634096 -0.307417 -0.897798 -2.49187 -5.1609 -2.67934 -1.71512 -3.28382 -2.77769 -2.8352 -2.0703 -1.29564 0.0790938 -0.063563 -0.941698 0.374736 -0.55871 -2.88248 -1.945 -0.307811 2.33062 3.43606 3.77258 1.9967 0.465287 0.105086 -0.785155 -2.83254 -2.59287 -1.80442 -2.9381 -2.23263 -4.62371 -2.40963 -3.92864 -4.07254 -2.5427 -1.67614 -1.68769 -2.50472 -1.10551 -0.96943 -1.44617 -2.08288 -2.292 -0.194328 1.96611 2.50982 2.31809 4.22208 2.52461 2.26703 0.922443 -0.393985 -1.11476 -1.30152 -0.823961 -0.455017 -1.61683 -1.95611 -2.39628 -2.80221 -2.47229 -3.51833 -2.45972 -2.4368 -2.8947 -3.14537 -3.08011 -1.65442 -1.46484 -1.36728 0.931449 1.18268 3.32079 2.01345 3.8562 2.99784 3.01871 -1.49329 -1.65001 -2.19652 -2.3439 -2.44521 -1.97681 -1.86097 -0.887304 -1.31011 -2.08393 -2.71159 -2.81841 -2.95919 -0.885511 -0.620429 -1.17307 -1.73138 -0.967627 -0.374495 0.0165866 0.29425 -0.264728 1.08143 0.616214 0.151246 -1.11974 -0.0110545 0.738414 -0.279893 -1.3696 -2.48693 -2.47695 -2.04003 -1.96413 -1.50073 -1.21587 -2.40437 -1.59674 -2.09689 -1.22984 0.540428 0.660915 0.813279 2.35029 2.37463 0.629258 -0.343537 -0.415726 0.478521 0.118972 0.138073 -0.85249 0.309611 -0.336177 0.491123 0.329744 0.799193 -0.614176 -1.52112 -0.143799 -0.850854 -1.73571 -0.70719 -0.694289 -0.615977 -1.5693 0.133793 1.81213 0.312308 1.79134 1.22806 2.3303 1.98507 2.7684 2.76331 2.12028 2.51287 1.76917 1.02113 0.277921 -0.438987 -0.718016 -0.273514 1.87996 1.51308 -0.923783 -0.861491 -1.09922 -0.574536 -1.08324 -1.50734 -0.939502 0.924367 1.73192 1.98618 1.44796 -0.0673395 -0.400083 0.506973 -0.714667 0.952937 2.29996 1.30064 1.74412 1.18702 1.50933 0.0925778 0.921912 1.1218 0.441009 0.509676 -0.308733 0.413799 -0.0869046 -1.0653 -0.181072 -0.732518 -0.263822 -0.0577045 0.488547 1.80247 2.72548 2.15651 1.36258 1.21693 1.25125 2.76808 1.60204 1.94138 2.62648 2.72845 1.39715 1.56691 0.279337 0.662352 -0.321513 0.205735 0.0340286 -0.0207111 -0.832926 0.454241 -0.00412791 -1.06363 -0.70372 0.508655 -0.335576 0.45586 1.42182 3.24123 2.36989 1.84892 -0.115846 0.252559 -0.435055 0.943649 1.28163 0.367548 1.00604 1.74348 1.35146 -0.131769 1.55938 1.27234 -0.15372 -0.752099 -1.04645 -0.329396 0.662016 1.40581 -0.44409 -0.151007 -0.376379 1.05931 0.624972 1.44768 2.31154 1.67752 1.94782 0.430795 -0.652067 1.40161 0.468646 0.520793 0.899504 0.943095 0.966554 2.26321 1.28642 2.18122 0.876532 0.630738 1.40719 0.000217672 -0.757628 -0.367706 1.77938 0.880687 -0.746894 -0.0244996 0.9021 0.433744 0.915671 1.84164 2.77039 2.40937 1.9199 -0.573926 1.56096 -0.265496 -0.694934 0.114264 -0.0908088 0.644216 -1.69172 0.779324 0.0176013 0.951225 -0.0129005 0.802366 0.111024 -1.79628 -2.10624 -0.720485 0.72485 0.588917 -0.798586 0.84721 2.00764 0.404342 1.25818 1.1817 1.49435 2.22765 1.31414 -0.717527 -0.202873 -0.838085 -2.12712 -0.914367 -1.51156 -1.07502 -1.81004 -0.685025 -0.500043 -1.13966 -0.134853 -0.571192 -0.401713 -1.50104 -1.41238 -0.774772 0.731862 1.54144 -0.545308 2.25587 1.74041 0.294129 0.150254 0.831893 1.29738 0.366426 0.976386 -0.0493721 -2.26285 -1.14944 -0.674558 -0.508116 -2.61843 -0.928606 0.427759 -1.59315 -1.80736 -1.84355 -0.691452 -2.51389 -1.85191 -1.10672 -0.709058 -0.814811 2.56174 1.6718 1.08183 0.850588 0.657912 0.958995 -0.570083 1.79054 2.57704 1.23064 0.819245 -0.873222 -2.67429 -2.61006 -0.810586 -2.29855 -2.19072 -1.85392 -0.0974069 -0.740771 -2.38874 -1.76619 -2.83036 -2.76105 -0.88268 -0.717244 -1.30202 0.181066 1.85146 1.38844 1.12436 0.796327 -0.222947 -0.527706 0.329536 1.03864 1.85736 1.74382 0.277709 -0.143861 -2.51474 -1.45225 -2.55653 -1.51855 -2.14891 -2.57217 -0.666141 -2.68677 -3.06079 -3.25467 -3.30194 -3.02906 -2.32097 0.0727789 0.328993 0.350424 1.59747 2.74784 1.4782 1.75149 1.90965 -0.293107 0.568508 1.15447 -0.151926 0.189784 -0.420963 -1.94808 -2.96622 -2.27573 -3.02141 -2.12235 -3.80168 -3.09553 -3.06466 -4.95307 -3.49814 -3.81438 -2.99861 -1.62838 0.252165 2.24627 1.36146 0.861777 2.82061 2.09612 1.92491 2.11998 0.474508 -0.290086 -0.596936 0.673299 -0.0760377 0.194354 0.967234 -1.32977 -2.27438 -3.74734 -4.2931 -2.82659 -3.10994 -3.28313 -2.68352 -2.85889 -2.2781 -3.10752 -2.68264 -2.21333 0.0141778 1.02317 0.876605 2.99384 3.04084 3.41426 2.52434 2.39747 1.73307 1.09301 0.33842 0.523439 1.47179 2.37008 0.970446 0.322696 -0.892823 -2.11052 -2.57077 -3.08383 -2.08835 -2.20242 -3.50917 -2.05769 -3.89153 -3.43358 -2.37847 -4.24607 -2.49948 -1.40103 0.469465 1.49553 3.52744 3.2148 2.58659 2.20829 2.08627 1.05174 -0.214943 1.60161 0.892798 2.85019 1.40851 0.15006 -0.59366 -0.0274113 -1.35784 -1.51709 -1.8065 -2.5263 -1.11078 -1.24724 -2.37755 -0.422068 -2.37258 -3.39255 -3.95855 -1.15621 -0.62661 1.15753 2.91584 3.2974 3.30109 1.78902 1.69344 1.27242 -1.30642 0.112967 1.72657 1.98221 2.61147 0.471137 -1.0142 -0.593978 0.31246 -0.0294829 -0.519997 0.781504 -0.444303 -0.723964 -0.921027 -1.89923 -1.07235 -3.35413 -3.00271 1.42209 0.761199 -0.0990401 2.21871 1.8016 3.63441 1.53075 1.85817 1.27018 -0.954281 0.219246 1.53387 0.960802 0.811292 -1.11975 -1.09282 -2.12102 0.23555 0.31795 -0.00081917 -0.286776 1.25268 1.22796 0.957965 -0.943783 0.169242 -1.73881 -0.23419 0.811599 -0.697105 0.158044 0.362097 0.843171 0.434174 1.08778 1.04292 2.09446 -0.0554315 1.74043 1.94276 1.85244 1.93284 -0.917394 -1.7876 -2.95598 -2.15727 0.189098 -0.830176 1.21304 -0.27488 0.615489 -0.786948 -1.20844 -0.717049 0.57715 0.778262 -0.502605 -1.7349 -0.256748 0.302725 -0.598777 -0.0531042 0.930192 1.29119 1.11194 1.00893 3.10547 1.06099 1.31992 2.76498 -0.92267 -0.968656 -1.12318 -1.10022 -0.564003 -0.0404354 -0.440013 -1.23735 0.602631 -0.835824 -0.522736 -0.57709 0.275341 0.821621 0.58219 -0.385509 -0.63262 -0.217555 -0.944362 -0.0242095 0.238329 1.4654 1.45271 0.444985 0.847338 1.0805 2.03537 1.64216 0.615899 0.646631 -0.391195 0.0607073 0.0961598 0.519557 0.13931 0.168221 -0.374589 -0.596978 1.24399 -0.144734 2.03664 -0.416882 -0.322689 -0.665659 -0.0959396 0.33691 -0.231419 0.126232 -1.17419 -0.883607 0.700134 -0.566865 1.91438 0.926111 1.89017 0.460198 0.300181 -0.126803 0.803952 -0.991215 -0.800077 0.963553 0.801781 -0.714718 0.00302137 1.01428 1.01971 1.20843 1.53927 -0.393467 0.856897 0.107795 -0.397023 -0.735156 -1.19411 -1.75463 -1.92334 0.017127 0.677102 0.253894 0.319611 0.705731 1.92546 0.298865 0.279781 -0.045517 -0.294201 -1.29215 -1.35467 -0.967073 -1.12397 -0.411285 1.89216 1.83578 1.69086 0.935182 0.674432 0.927153 0.0558356 -0.371723 -1.48895 -1.26131 -0.843078 -1.23028 -0.953622 -1.43307 -1.12697 0.0477535 0.48016 0.37676 1.14761 1.74846 2.16518 1.57344 1.488 -0.403952 0.934998 -1.05816 -0.477714 2.8801 2.00747 1.18352 0.588846 -0.0180941 -0.0439001 0.03411 0.35697 -0.66198 -1.29837 -1.22522 1.36867 -1.1785 -1.76687 -2.41152 -0.498543 -1.83063 0.156048 -0.604648 1.39784 0.280114 1.42384 0.876775 0.629361 -1.75753 -0.03129 -0.630053 -0.303829 1.96085 0.959438 -0.85287 0.0269486 0.218752 0.559306 1.12459 0.0675368 -0.813691 -0.947452 0.151098 0.0531796 -0.54488 -2.51151 -2.58796 -2.13318 -1.55631 -1.45602 -1.50464 0.143903 1.86071 0.593172 0.351867 -1.01947 -1.25 -1.33827 0.505881 -0.549314 1.29033 -0.264167 -0.294578 0.565999 -0.192426 0.794248 0.811692 -0.799872 -0.275984 0.413791 1.326 1.42695 -0.606801 -2.30737 -4.13604 -2.97736 -2.07263 -3.33429 -2.00533 -1.91722 -1.95263 -2.43694 -2.36048 -1.97083 -0.913957 -0.495287 -1.25006 -0.995024 -1.21278 -0.228659 0.361245 -0.358603 0.508551 0.614391 1.39598 1.80348 0.705817 0.667807 1.74452 0.357467 -1.42289 -2.67525 -2.93082 -3.21239 -2.76945 -1.97574 -1.47945 -3.12028 -2.38767 -2.09763 -2.15542 -3.83352 -3.42594 -2.31237 -0.982972 -1.23892 -1.45339 -0.481432 -1.0855 0.484058 1.30906 2.87445 0.790381 1.60199 -0.186192 -0.987467 0.796789 -0.0480257 -0.183368 0.848041 0.487202 0.385691 -0.402279 -0.521069 -0.598518 0.0842811 -1.64685 -1.41965 -1.95366 -0.368693 -1.1753 0.817415 -1.13499 -0.480642 0.278034 0.720826 0.611254 0.1539 0.307216 0.231723 0.68152 -0.10129 1.26791 -0.197258 -0.0839208 0.328841 1.41138 -0.608416 -0.775444 -0.414139 0.471665 -1.10969 -0.847132 -1.33883 -0.169995 0.869221 -0.197922 1.30556 -0.596235 -0.652669 -0.635352 -2.05191 -1.97299 -0.840587 -0.675919 0.814417 0.682649 0.198113 -0.0956673 -0.346894 -0.682203 0.701361 -0.618167 1.04036 0.496909 0.524688 0.0373497 -1.11576 -0.892942 -1.67602 -1.7994 -0.133427 1.04433 2.48008 2.47224 0.289272 0.00415062 -1.55507 -2.61606 -1.82946 -1.63649 -1.40071 -0.972612 -0.456578 -0.321226 -0.323745 0.424221 2.08406 0.705486 0.256646 0.786349 -1.02902 -0.097196 -0.0471796 0.267534 -1.69519 -0.404554 0.390644 1.01226 0.742965 2.87513 2.70572 1.88618 0.609307 -0.381734 -0.553299 -0.745798 -2.17029 -0.36195 -0.620665 -1.2515 -1.78791 -0.744722 -1.04481 1.00004 2.35123 1.39807 2.52639 1.17579 -0.611202 -0.316125 0.739794 -0.422392 -1.40095 0.408045 0.710428 0.824033 0.998885 1.28785 1.14605 1.19255 -0.239599 -0.823581 -0.573235 -0.173512 -0.790085 -1.96871 -0.889544 -0.46268 -1.84151 -1.05855 -0.959314 -0.364841 1.78751 1.33658 2.01969 2.64134 0.388711 -0.341556 1.14512 0.818211 -0.220885 0.383746 1.7633 1.78742 1.5388 0.398079 0.47022 -0.378676 0.443631 0.436748 0.508544 0.268578 -0.622892 -1.31531 -0.645137 -0.401579 -0.084982 -1.58377 -0.656761 1.09569 0.999311 1.08349 1.8272 1.91385 1.303 -0.141113 0.900884 -0.115672 0.92704 2.66849 1.90123 0.428994 1.58531 1.1696 0.758947 0.902562 1.45359 1.4129 -1.29163 -0.368516 -0.600819 -2.18507 0.44866 -0.551418 -0.025551 -0.512233 0.0916423 0.148706 1.24071 1.72542 1.59651 1.27099 0.3747 -0.0225134 1.74255 1.7174 2.32532 1.84409 1.86031 1.38393 1.48373 -0.067412 0.847795 1.51606 0.12148 -0.220684 0.174985 -0.477895 -0.548567 -0.414191 -0.553111 0.0600099 0.554521 -0.359552 0.919696 -0.0661734 1.75701 1.77483 2.5925 1.47951 0.33193 1.23474 1.87505 1.52691 3.65004 2.67421 1.8095 1.57825 -0.727285 -0.245817 0.282669 0.456591 1.42245 0.292096 -1.45585 -1.52034 0.464463 0.0172056 -0.691607 -0.929044 0.309076 0.384938 1.23801 0.422969 1.95303 2.44756 2.22274 1.01976 -0.795467 0.487326 1.47298 2.46745 3.54772 3.83484 2.26457 0.552377 -1.22423 0.299166 0.571982 0.373167 0.749648 -0.436377 -0.202913 0.359577 -0.421598 -1.30572 0.441022 -0.548066 0.490893 -1.52888 -0.163124 0.623271 1.01665 0.845781 2.02103 -0.0401265 -1.27773 1.54858 2.48909 3.27498 3.3919 2.15309 1.12054 -0.659882 -0.960134 0.971664 0.0817252 -0.0291377 -0.320916 -0.689172 0.352231 0.106985 0.124629 0.690251 -0.868814 -0.186587 0.225235 -1.83787 -1.83793 -0.384069 -0.820232 0.404533 0.268166 -0.149239 -0.646039 0.816102 3.84711 3.93718 3.73608 2.17796 0.992929 -0.580198 -0.125909 -0.969467 -1.21768 -1.74396 -2.02416 -3.17329 -3.07436 -1.40728 -0.951659 -2.14112 -2.14947 -3.09675 -2.82226 -2.02547 -2.23196 -3.39846 -0.934377 -2.10704 -1.65301 0.464828 1.13645 1.30189 5.42852 3.30237 3.32331 1.27313 0.456744 0.529401 -0.0875306 -1.32153 -1.46542 -1.51349 -1.79256 -3.47874 -4.4365 -4.63066 -3.67933 -4.96017 -3.8346 -3.59616 -3.45913 -3.30852 -3.7059 -3.34601 -3.38014 -1.71292 0.13909 1.26252 1.80078 2.57006 5.72803 4.15257 1.72601 1.96903 1.20832 -0.416232 -1.75989 -0.65625 -1.70254 -1.45471 -3.53578 -3.54667 -4.40043 -4.93163 -3.36035 -4.53478 -3.531 -3.5904 -3.70028 -3.62005 -4.6882 -2.71749 -1.78776 -0.891057 0.0779212 -0.0838677 0.93494 0.757121 4.34414 3.24806 1.02665 2.24908 0.335514 0.50131 -0.16784 -1.20385 -1.31665 -1.50888 -1.98191 -3.40927 -2.88201 -3.9175 -2.765 -3.36644 -2.97826 -2.2648 -2.69937 -3.89436 -3.62478 -1.88186 -2.23676 -1.34267 1.19529 1.11948 -0.265784 0.0906117 5.52748 3.16001 1.50893 1.70498 0.780593 -1.18241 -0.686074 -0.805071 -2.09593 -2.39 -3.66899 -3.91887 -3.36711 -3.74189 -2.67482 -3.22315 -2.77046 -2.72532 -2.90628 -4.15666 -3.9278 -3.43821 -3.06468 -2.45167 -1.34555 -0.812565 -0.175468 -0.33866 4.57535 3.22487 0.712769 0.536633 0.621638 -1.3077 -1.7564 -1.94384 -1.48793 -2.35661 -3.07799 -2.74029 -1.83843 -2.39629 -1.37178 -2.35719 -1.95996 -2.38512 -2.36738 -2.57334 -2.206 -2.99468 -2.75502 -2.50131 -1.43839 -1.46614 -1.66726 1.55928 3.07998 3.30695 -0.0597005 -0.327368 -0.338059 -1.45519 -0.701774 -1.34306 -0.141967 -1.32239 -1.14204 -2.31937 -1.49194 -2.16547 -0.49683 -1.19241 -1.44489 -1.87888 -1.53266 -1.07381 -0.743003 -1.83573 -3.65512 -2.56944 -0.384834 -0.336103 -1.04974 0.898706 3.95294 2.8983 0.599701 -0.252942 -1.85191 -2.01394 -2.06751 -1.64252 -1.57678 -0.771593 -1.92406 -2.72963 -0.672677 -2.2073 -1.72093 -0.67247 -1.47196 -2.48657 -2.32532 -0.229771 -0.36919 -0.46326 -2.05597 -1.55684 -0.535151 -0.68688 -0.0319508 1.27727 1.37377 3.01447 2.00905 -0.188253 -0.638183 -2.5338 -2.76642 -1.83728 0.000737108 -0.87673 -0.350747 -1.81795 -0.409959 0.0723447 -1.05451 0.276097 -0.896721 -0.259601 -0.199664 -0.741094 -0.400993 -0.814985 -1.85584 -1.12021 0.101974 -0.208376 0.50959 0.901608 1.9601 1.33767 0.82374 0.216636 -0.94699 -1.73865 -2.72379 -0.921607 0.188279 -0.955612 1.06713 0.656665 -0.557858 -0.299892 0.677351 -0.304258 1.93293 -0.288485 -0.514817 0.824728 -0.466891 -0.699379 -0.611453 -0.661023 -1.08833 0.299298 2.86568 2.54763 1.38635 -0.873287 -1.00145 0.925467 1.16389 -0.738873 -2.68531 0.192921 -0.537154 0.659288 1.78786 1.67031 0.895748 0.924015 1.91705 2.07915 1.04058 1.37269 -0.146279 0.384771 0.554184 -0.574777 0.10336 -0.485368 -0.133762 1.39511 2.62308 2.48351 -0.362746 -0.772287 -1.2675 -1.07854 -1.05304 0.305361 -1.12945 -1.06769 0.695972 0.582663 0.856533 1.90334 1.94038 3.21765 3.00297 1.56822 1.33604 1.3904 0.737729 1.56988 1.60182 0.61078 0.565922 0.367663 -0.209493 2.02109 0.766077 2.05903 -0.2004 -2.02215 -2.57756 -1.21666 -0.381888 -0.028167 -0.199138 1.8952 1.79322 0.834961 2.0796 0.180384 1.47824 1.80841 3.01858 1.58064 3.03171 1.83804 1.38549 1.31868 1.78817 0.956022 0.122088 -0.328217 1.17903 1.30941 1.65139 1.53529 -1.12401 -3.0769 -4.02782 -4.87807 -1.64426 -0.430373 -0.355111 1.67443 2.47029 1.31417 0.692563 0.764662 2.46345 2.08926 2.1215 2.21362 2.73519 2.35348 3.08155 2.63199 2.0289 1.86985 1.1899 1.42944 1.97402 0.613459 1.15548 1.18686 -2.33352 -4.2385 -4.29788 -4.74119 -3.60794 -2.41683 -0.511827 0.406805 1.25376 2.43954 2.8993 3.29186 3.9267 4.34323 4.32971 3.89318 3.75851 5.16708 4.394 3.73118 4.27329 2.98934 2.34611 0.902701 0.161723 1.26554 1.02193 2.72726 -2.40369 -4.88513 -6.94844 -5.35142 -3.98215 -5.30925 -1.72418 -1.29781 1.13658 2.43952 3.51463 4.22768 4.24373 5.45687 3.97041 4.70995 6.19403 5.67842 5.37549 5.3298 3.91058 3.76032 1.50652 0.810196 0.356819 1.12428 1.05993 1.72135 -1.67231 -4.442 -4.74624 -4.12212 -3.2813 -3.02013 -3.22696 -1.00844 0.0270594 1.92005 3.26073 2.92991 3.69877 4.16494 5.46317 4.9089 5.67191 5.94636 4.68629 3.31955 3.23972 1.72296 1.36739 2.92451 2.76706 1.38543 1.09918 1.31497 -2.80727 1.68384 1.52598 0.0108031 -0.00100986 0.582705 1.22262 1.99072 2.65336 2.26004 1.78102 1.33688 1.588 1.43204 1.33431 -0.276629 -0.241322 1.46711 1.21647 2.26556 2.30653 3.83042 3.79046 4.00196 3.19107 3.32446 3.82969 3.39004 2.12503 0.120004 -0.0153282 0.565843 0.999098 1.06609 2.12141 2.03375 1.60753 0.498504 0.281686 1.1052 0.611624 1.81702 1.23862 0.961016 0.628401 0.768897 1.58453 1.10101 0.255325 0.973091 3.60236 3.02867 3.2263 3.03772 1.97809 2.50138 0.308282 1.23936 1.8017 0.458207 0.937518 1.20055 1.82873 0.829662 -0.0884315 1.40697 1.02529 1.43168 0.11007 1.37358 -0.624823 -0.427656 0.868367 2.10125 1.28372 1.2939 2.28499 2.69103 1.81513 1.82648 2.63903 3.43422 1.1096 1.18566 0.275165 0.425685 2.51744 0.748115 0.95305 1.73512 0.138681 0.428824 1.39144 0.954499 0.994736 -0.432173 -0.457503 1.4905 -0.304503 -1.04583 -0.247825 0.951051 0.906353 1.69498 3.18625 1.20311 1.31324 0.794916 -0.742792 0.350883 0.0110773 -0.572272 -1.09446 1.00266 1.90362 -0.221676 0.690647 -0.552549 0.608528 0.114055 -0.0875322 0.957572 0.486023 -0.44037 -0.874703 0.304285 -1.56627 -3.60068 -0.149016 -0.30882 1.21805 0.835377 1.23722 0.422964 1.59844 -1.11004 -2.54044 -1.85452 -0.574295 -0.969952 0.147323 1.08691 0.950103 0.0122914 -0.572181 -2.23249 -0.357998 0.828793 0.835197 1.73331 0.667801 -1.33306 -0.485886 -2.49857 -1.46091 -1.91244 -1.5026 -0.44482 0.515938 1.57154 2.78573 1.52046 0.277732 -1.36293 -2.11159 -2.03164 -1.89031 -2.64067 -0.158453 1.7564 0.425314 -0.922546 -0.533372 -0.956745 -0.188922 0.85376 -0.283604 0.674899 -0.806308 -0.127661 -1.51594 -1.66843 -1.86722 -1.50063 1.64912 1.87343 1.14546 1.19818 0.857576 0.367024 -0.303941 -0.548804 -2.57343 -2.52624 -3.18319 -2.95936 -1.09654 1.27198 -0.956766 -0.546136 -1.90035 -2.16198 -1.23926 -0.649215 -0.858972 0.0849644 1.18229 -0.054593 -0.168644 -1.05605 -1.98221 -2.57588 0.380068 0.977481 0.166152 -0.646706 0.0530118 -0.978165 -1.89059 -1.28243 -3.34353 -3.46464 -3.49423 -3.48413 -1.95427 -0.407304 -0.780622 -0.336274 -2.99715 -2.09213 -0.856635 -0.751231 -1.03239 0.177695 0.793567 0.167621 -0.488961 -1.94034 -0.262354 -0.745097 0.275742 0.533706 0.449 -1.99844 0.419185 -0.954813 -0.510772 -1.06614 -2.02329 -2.41804 -2.84143 -1.90618 -2.31987 -0.107398 -1.07676 -1.84918 -1.46781 -1.24621 -0.284166 0.713082 0.264737 0.413575 0.773492 0.308487 -1.39104 -1.56387 0.101771 -1.43503 0.290205 0.841527 -0.208169 -0.55005 -1.41872 -0.192706 0.803616 -1.3633 -1.68118 -3.35987 -2.95799 -1.67616 -1.76871 -0.339195 -1.55729 -2.02161 -2.52262 -1.40743 -0.901232 0.312673 1.40875 0.702301 0.755192 -0.601352 -2.0593 0.392539 0.0496431 0.51691 0.535143 -1.16095 -0.322286 -1.42294 -1.45101 0.0665022 -0.231725 -0.392287 -0.776991 -3.40785 -2.27957 -0.515643 -0.893687 -0.897089 -2.4164 